{"learner":{"attributes":{"scikit_learn":"{\"_estimator_type\": \"regressor\"}"},"feature_names":["sgRNA_'Cut'_Site_TSS_Offset","rs3ChenSeqScore","ATAC_overlap_with_peak__0.0__0.5_","ATAC_overlap_with_peak__0.5__1.0_","ATAC_overlap_with_peak__1.0__inf_"],"feature_types":["int","float","int","int","int"],"gradient_booster":{"model":{"gbtree_model_param":{"num_parallel_tree":"1","num_trees":"92"},"iteration_indptr":[0,1,2,3,4,5,6,7,8,9,10,11,12,13,14,15,16,17,18,19,20,21,22,23,24,25,26,27,28,29,30,31,32,33,34,35,36,37,38,39,40,41,42,43,44,45,46,47,48,49,50,51,52,53,54,55,56,57,58,59,60,61,62,63,64,65,66,67,68,69,70,71,72,73,74,75,76,77,78,79,80,81,82,83,84,85,86,87,88,89,90,91,92],"tree_info":[0,0,0,0,0,0,0,0,0,0,0,0,0,0,0,0,0,0,0,0,0,0,0,0,0,0,0,0,0,0,0,0,0,0,0,0,0,0,0,0,0,0,0,0,0,0,0,0,0,0,0,0,0,0,0,0,0,0,0,0,0,0,0,0,0,0,0,0,0,0,0,0,0,0,0,0,0,0,0,0,0,0,0,0,0,0,0,0,0,0,0,0],"trees":[{"base_weights":[-3.5717243E-3,-3.0569148E-1,2.1634108E-1,-3.9317143E-1,-2.2774394E-1,5.537625E-1,-1.0499039E-1,-2.2901723E-2,-4.729513E-1,-3.8666126E-1,-1.6940378E-1,7.314328E-2,8.988325E-1,7.167913E-2,-2.4257591E-1,-3.506465E-2,-4.5976646E-2,-4.0775098E-2,-3.0350326E-2,-1.7169649E-2,-0E0,-1.8446686E-2,2.7410254E-2,1.1946098E-1,6.550698E-2,-1.6979193E-2,2.088583E-2,-3.3572096E-2,-1.4081221E-2],"categories":[],"categories_nodes":[],"categories_segments":[],"categories_sizes":[],"default_left":[0,0,0,0,0,0,0,0,0,0,0,0,0,0,0,0,0,0,0,0,0,0,0,0,0,0,0,0,0],"id":0,"left_children":[1,3,5,7,9,11,13,-1,15,17,19,21,23,25,27,-1,-1,-1,-1,-1,-1,-1,-1,-1,-1,-1,-1,-1,-1],"loss_changes":[3.1164224E3,1.299591E2,2.9445273E3,9.866626E1,9.3026794E1,2.188763E3,3.3877008E2,0E0,9.966553E0,2.9785767E0,2.5896698E1,3.5072836E2,5.5356494E2,2.4794707E2,8.295395E1,0E0,0E0,0E0,0E0,0E0,0E0,0E0,0E0,0E0,0E0,0E0,0E0,0E0,0E0],"parents":[2147483647,0,0,1,1,2,2,3,3,4,4,5,5,6,6,8,8,9,9,10,10,11,11,12,12,13,13,14,14],"right_children":[2,4,6,8,10,12,14,-1,16,18,20,22,24,26,28,-1,-1,-1,-1,-1,-1,-1,-1,-1,-1,-1,-1,-1,-1],"split_conditions":[-3.9E1,1E0,4.03E2,-1.037E3,-4.678E-1,-2.237E-1,1E0,-2.2901723E-2,1E0,-8.555E-1,-7.5E1,-6.364E-1,9.1E1,-2.545E-1,-2.057E-1,-3.506465E-2,-4.5976646E-2,-4.0775098E-2,-3.0350326E-2,-1.7169649E-2,-0E0,-1.8446686E-2,2.7410254E-2,1.1946098E-1,6.550698E-2,-1.6979193E-2,2.088583E-2,-3.3572096E-2,-1.4081221E-2],"split_indices":[0,4,0,0,1,1,2,0,2,1,0,1,0,1,1,0,0,0,0,0,0,0,0,0,0,0,0,0,0],"split_type":[0,0,0,0,0,0,0,0,0,0,0,0,0,0,0,0,0,0,0,0,0,0,0,0,0,0,0,0,0],"sum_hessian":[4.6895E4,1.977E4,2.7125E4,9.268E3,1.0502E4,1.3243E4,1.3882E4,3.383E3,5.885E3,2.784E3,7.718E3,5.544E3,7.699E3,6.053E3,7.829E3,1.687E3,4.198E3,1.208E3,1.576E3,6.927E3,7.91E2,2.495E3,3.049E3,2.292E3,5.407E3,2.279E3,3.774E3,3.16E3,4.669E3],"tree_param":{"num_deleted":"0","num_feature":"5","num_nodes":"29","size_leaf_vector":"1"}},{"base_weights":[-8.815599E-3,-2.8242537E-1,1.9296919E-1,-3.675799E-1,-2.0743199E-1,5.9201723E-1,-2.4989486E-2,-2.167199E-2,-4.3888798E-1,-3.2457277E-1,-1.5587619E-1,8.734792E-2,9.15956E-1,-1.6207878E-1,1.8064721E-1,-4.2327683E-2,-3.345338E-2,-1.3272239E-2,-3.1118123E-2,-1.654301E-2,1.116535E-3,-1.4825939E-2,3.1323288E-2,6.2047683E-2,1.0167221E-1,-2.7794713E-2,-6.3798646E-3,-5.7852003E-3,3.7274975E-2],"categories":[],"categories_nodes":[],"categories_segments":[],"categories_sizes":[],"default_left":[0,0,0,0,0,0,0,0,0,0,0,0,0,0,0,0,0,0,0,0,0,0,0,0,0,0,0,0,0],"id":1,"left_children":[1,3,5,7,9,11,13,-1,15,17,19,21,23,25,27,-1,-1,-1,-1,-1,-1,-1,-1,-1,-1,-1,-1,-1,-1],"loss_changes":[2.5859922E3,1.2254114E2,2.3470442E3,7.997388E1,6.0424286E1,1.5496934E3,4.905788E2,0E0,4.788086E0,6.4318542E0,3.4044327E1,2.4224039E2,2.6001855E2,1.3537411E2,3.9205988E2,0E0,0E0,0E0,0E0,0E0,0E0,0E0,0E0,0E0,0E0,0E0,0E0,0E0,0E0],"parents":[2147483647,0,0,1,1,2,2,3,3,4,4,5,5,6,6,8,8,9,9,10,10,11,11,12,12,13,13,14,14],"right_children":[2,4,6,8,10,12,14,-1,16,18,20,22,24,26,28,-1,-1,-1,-1,-1,-1,-1,-1,-1,-1,-1,-1,-1,-1],"split_conditions":[-3.4E1,1E0,2.76E2,-1.037E3,-3.93E-1,-2.61E-1,1E0,-2.167199E-2,1E0,-6.13E2,-8.1E1,-6.167E-1,1.415E-1,-2.174E-1,-1.235E-1,-4.2327683E-2,-3.345338E-2,-1.3272239E-2,-3.1118123E-2,-1.654301E-2,1.116535E-3,-1.4825939E-2,3.1323288E-2,6.2047683E-2,1.0167221E-1,-2.7794713E-2,-6.3798646E-3,-5.7852003E-3,3.7274975E-2],"split_indices":[0,4,0,0,1,1,4,0,3,0,0,1,1,1,1,0,0,0,0,0,0,0,0,0,0,0,0,0,0],"split_type":[0,0,0,0,0,0,0,0,0,0,0,0,0,0,0,0,0,0,0,0,0,0,0,0,0,0,0,0,0],"sum_hessian":[4.6826E4,1.9892E4,2.6934E4,9.266E3,1.0626E4,9.527E3,1.7407E4,3.337E3,5.929E3,3.201E3,7.425E3,3.734E3,5.793E3,1.0467E4,6.94E3,4.21E3,1.719E3,3.32E2,2.869E3,6.464E3,9.61E2,1.877E3,1.857E3,2.716E3,3.077E3,4.046E3,6.421E3,3.346E3,3.594E3],"tree_param":{"num_deleted":"0","num_feature":"5","num_nodes":"29","size_leaf_vector":"1"}},{"base_weights":[4.074229E-3,-2.5076535E-1,1.8810306E-1,-3.285622E-1,-1.802916E-1,5.399282E-1,-1.867047E-2,-1.9013653E-2,-3.936235E-1,-3.1516883E-1,-1.3124885E-1,9.8573625E-2,8.295207E-1,1.3002528E-1,-1.929783E-1,-3.0245194E-2,-3.774952E-2,-3.358091E-2,-2.4499806E-2,-1.3365467E-2,-3.3882204E-3,-2.4605697E-2,2.1283261E-2,5.6903537E-2,9.454059E-2,-2.0922964E-2,2.3277225E-2,-2.3287352E-2,-5.5406694E-3],"categories":[],"categories_nodes":[],"categories_segments":[],"categories_sizes":[],"default_left":[0,0,0,0,0,0,0,0,0,0,0,0,0,0,0,0,0,0,0,0,0,0,0,0,0,0,0,0,0],"id":2,"left_children":[1,3,5,7,9,11,13,-1,15,17,19,21,23,25,27,-1,-1,-1,-1,-1,-1,-1,-1,-1,-1,-1,-1,-1,-1],"loss_changes":[2.1897976E3,1.0330139E2,1.9782395E3,6.705792E1,6.477515E1,1.2784509E3,4.4314072E2,0E0,2.0385132E0,1.717041E0,9.902557E0,2.000165E2,2.4693457E2,4.1811993E2,6.3454193E1,0E0,0E0,0E0,0E0,0E0,0E0,0E0,0E0,0E0,0E0,0E0,0E0,0E0,0E0],"parents":[2147483647,0,0,1,1,2,2,3,3,4,4,5,5,6,6,8,8,9,9,10,10,11,11,12,12,13,13,14,14],"right_children":[2,4,6,8,10,12,14,-1,16,18,20,22,24,26,28,-1,-1,-1,-1,-1,-1,-1,-1,-1,-1,-1,-1,-1,-1],"split_conditions":[-4.5E1,1E0,2.82E2,-1.037E3,-4.678E-1,-2.61E-1,1E0,-1.9013653E-2,1E0,-8.555E-1,-1E2,-8.697E-1,1.698E-1,-4.601E-1,2.096E-1,-3.0245194E-2,-3.774952E-2,-3.358091E-2,-2.4499806E-2,-1.3365467E-2,-3.3882204E-3,-2.4605697E-2,2.1283261E-2,5.6903537E-2,9.454059E-2,-2.0922964E-2,2.3277225E-2,-2.3287352E-2,-5.5406694E-3],"split_indices":[0,4,0,0,1,1,2,0,2,1,0,1,1,1,1,0,0,0,0,0,0,0,0,0,0,0,0,0,0],"split_type":[0,0,0,0,0,0,0,0,0,0,0,0,0,0,0,0,0,0,0,0,0,0,0,0,0,0,0,0,0],"sum_hessian":[4.6703E4,1.9566E4,2.7137E4,9.247E3,1.0319E4,1.0059E4,1.7078E4,3.306E3,5.941E3,2.709E3,7.61E3,3.996E3,6.063E3,9.192E3,7.886E3,1.668E3,4.273E3,1.155E3,1.554E3,6.44E3,1.17E3,1.058E3,2.938E3,3.108E3,2.955E3,2.368E3,6.824E3,5.289E3,2.597E3],"tree_param":{"num_deleted":"0","num_feature":"5","num_nodes":"29","size_leaf_vector":"1"}},{"base_weights":[-2.7540887E-3,-2.2861616E-1,1.631112E-1,-1.8636732E-1,-3.0028057E-1,5.117815E-1,-1.95607E-2,-2.9215053E-1,-1.4395754E-1,-1.8178384E-1,-3.4841247E-2,2.823577E-2,7.462971E-1,1.2621783E-1,-1.6645128E-1,-2.887833E-2,-2.1726694E-2,-1.4599403E-2,-0E0,-1.663832E-2,-0E0,-2.3515088E-2,1.7309537E-2,9.188595E-2,5.1517323E-2,-1.7233556E-2,2.3224613E-2,-2.2771262E-2,-7.697678E-3],"categories":[],"categories_nodes":[],"categories_segments":[],"categories_sizes":[],"default_left":[0,0,0,0,0,0,0,0,0,0,0,0,0,0,0,0,0,0,0,0,0,0,0,0,0,0,0,0,0],"id":3,"left_children":[1,3,5,7,9,11,13,15,17,19,-1,21,23,25,27,-1,-1,-1,-1,-1,-1,-1,-1,-1,-1,-1,-1,-1,-1],"loss_changes":[1.7542257E3,5.6274536E1,1.72169E3,5.2904175E1,6.746088E1,1.0471206E3,3.7899673E2,4.7155762E-1,2.277591E1,2.5629425E-1,0E0,1.4128685E2,2.8425708E2,3.6226837E2,5.816974E1,0E0,0E0,0E0,0E0,0E0,0E0,0E0,0E0,0E0,0E0,0E0,0E0,0E0,0E0],"parents":[2147483647,0,0,1,1,2,2,3,3,4,4,5,5,6,6,7,7,8,8,9,9,11,11,12,12,13,13,14,14],"right_children":[2,4,6,8,10,12,14,16,18,20,-1,22,24,26,28,-1,-1,-1,-1,-1,-1,-1,-1,-1,-1,-1,-1,-1,-1],"split_conditions":[-3.4E1,1E0,2.7E2,-4.215E-1,-1.153E3,-3.657E-1,6.38E2,-6.364E-1,-7.5E1,1.0444E0,-3.4841247E-2,-8.263E-1,9.1E1,-4.215E-1,-3.91E-2,-2.887833E-2,-2.1726694E-2,-1.4599403E-2,-0E0,-1.663832E-2,-0E0,-2.3515088E-2,1.7309537E-2,9.188595E-2,5.1517323E-2,-1.7233556E-2,2.3224613E-2,-2.2771262E-2,-7.697678E-3],"split_indices":[0,2,0,1,0,1,0,1,0,1,0,1,0,1,1,0,0,0,0,0,0,0,0,0,0,0,0,0,0],"split_type":[0,0,0,0,0,0,0,0,0,0,0,0,0,0,0,0,0,0,0,0,0,0,0,0,0,0,0,0,0],"sum_hessian":[4.6812E4,1.9841E4,2.6971E4,1.2551E4,7.29E3,9.287E3,1.7684E4,3.539E3,9.012E3,3.046E3,4.244E3,3.044E3,6.243E3,8.849E3,8.835E3,2.284E3,1.255E3,8.115E3,8.97E2,3.009E3,3.7E1,1.082E3,1.962E3,2.501E3,3.742E3,2.554E3,6.295E3,4.305E3,4.53E3],"tree_param":{"num_deleted":"0","num_feature":"5","num_nodes":"29","size_leaf_vector":"1"}},{"base_weights":[4.03797E-3,-2.0302215E-1,1.628461E-1,-2.7424914E-1,-1.436598E-1,4.928861E-1,-1.241895E-2,-1.6183257E-1,-3.2359257E-1,-2.191907E-1,-8.310301E-2,2.0381209E-1,8.495517E-1,1.4319928E-1,-1.387018E-1,-1.5223086E-2,-0E0,-2.9419225E-2,-0E0,-2.6026495E-2,-1.5506261E-2,-9.260818E-3,2.5322407E-3,-9.979944E-3,3.5775065E-2,1.0914954E-1,5.9509225E-2,-1.7763656E-2,2.3273852E-2,-1.6218549E-2,-9.437961E-4],"categories":[],"categories_nodes":[],"categories_segments":[],"categories_sizes":[],"default_left":[0,0,0,0,0,0,0,0,0,0,0,0,0,0,0,0,0,0,0,0,0,0,0,0,0,0,0,0,0,0,0],"id":4,"left_children":[1,3,5,7,9,11,13,15,17,19,21,23,25,27,29,-1,-1,-1,-1,-1,-1,-1,-1,-1,-1,-1,-1,-1,-1,-1,-1],"loss_changes":[1.5331891E3,8.223804E1,1.5316567E3,4.6867065E1,4.83636E1,9.3795874E2,3.387117E2,2.4213028E0,5.498047E-1,1.2350845E1,1.3556232E1,3.0494763E2,2.6578394E2,2.9488553E2,4.7275208E1,0E0,0E0,0E0,0E0,0E0,0E0,0E0,0E0,0E0,0E0,0E0,0E0,0E0,0E0,0E0,0E0],"parents":[2147483647,0,0,1,1,2,2,3,3,4,4,5,5,6,6,7,7,8,8,9,9,10,10,11,11,12,12,13,13,14,14],"right_children":[2,4,6,8,10,12,14,16,18,20,22,24,26,28,30,-1,-1,-1,-1,-1,-1,-1,-1,-1,-1,-1,-1,-1,-1,-1,-1],"split_conditions":[-2.1E1,1E0,2.76E2,-1.401E3,-1.818E-1,-3.34E-2,5.89E2,1E0,-6.3E1,-6.464E-1,-7.5E1,-5.888E-1,8.5E1,-4.93E-1,3.573E-1,-1.5223086E-2,-0E0,-2.9419225E-2,-0E0,-2.6026495E-2,-1.5506261E-2,-9.260818E-3,2.5322407E-3,-9.979944E-3,3.5775065E-2,1.0914954E-1,5.9509225E-2,-1.7763656E-2,2.3273852E-2,-1.6218549E-2,-9.437961E-4],"split_indices":[0,4,0,0,1,1,0,3,0,1,0,1,0,1,1,0,0,0,0,0,0,0,0,0,0,0,0,0,0,0,0],"split_type":[0,0,0,0,0,0,0,0,0,0,0,0,0,0,0,0,0,0,0,0,0,0,0,0,0,0,0,0,0,0,0],"sum_hessian":[4.6635E4,2.0221E4,2.6414E4,9.132E3,1.1089E4,9.177E3,1.7237E4,2.834E3,6.298E3,4.877E3,6.212E3,5.081E3,4.096E3,7.694E3,9.543E3,2.73E3,1.04E2,6.295E3,3E0,1.976E3,2.901E3,5.371E3,8.41E2,1.901E3,3.18E3,1.444E3,2.652E3,1.907E3,5.787E3,7.237E3,2.306E3],"tree_param":{"num_deleted":"0","num_feature":"5","num_nodes":"31","size_leaf_vector":"1"}},{"base_weights":[-1.5437237E-3,-1.9772688E-1,1.2814473E-1,-2.4493581E-1,-1.5145122E-1,3.2067186E-1,-8.151534E-2,-1.4125504E-2,-2.9576805E-1,-7.281263E-2,-1.421715E-2,-0E0,3.717051E-1,3.667289E-2,-1.7062004E-1,-2.1875305E-2,-2.8623424E-2,-7.506721E-3,-0E0,-1.2948111E-3,6.5850546E-3,7.7124916E-2,2.2681052E-2,6.443028E-3,-2.153513E-3,-7.7587916E-3,-1.8060673E-2],"categories":[],"categories_nodes":[],"categories_segments":[],"categories_sizes":[],"default_left":[0,0,0,0,0,0,0,0,0,0,0,0,0,0,0,0,0,0,0,0,0,0,0,0,0,0,0],"id":5,"left_children":[1,3,5,7,9,11,13,-1,15,17,-1,19,21,23,25,-1,-1,-1,-1,-1,-1,-1,-1,-1,-1,-1,-1],"loss_changes":[1.1943977E3,3.775525E1,1.1411831E3,3.818927E1,1.9810486E0,2.4052563E2,1.4313196E2,0E0,1.8003845E0,7.8374696E-1,0E0,2.1851945E0,7.314955E2,1.2280825E1,1.6339218E1,0E0,0E0,0E0,0E0,0E0,0E0,0E0,0E0,0E0,0E0,0E0,0E0],"parents":[2147483647,0,0,1,1,2,2,3,3,4,4,5,5,6,6,8,8,9,9,11,11,12,12,13,13,14,14],"right_children":[2,4,6,8,10,12,14,-1,16,18,-1,20,22,24,26,-1,-1,-1,-1,-1,-1,-1,-1,-1,-1,-1,-1],"split_conditions":[-7.5E1,1E0,4.17E2,-1.037E3,-7.3E2,-1E1,1E0,-1.4125504E-2,1E0,-7.46E2,-1.421715E-2,-2.1E1,7.9E1,1E0,7.58E2,-2.1875305E-2,-2.8623424E-2,-7.506721E-3,-0E0,-1.2948111E-3,6.5850546E-3,7.7124916E-2,2.2681052E-2,6.443028E-3,-2.153513E-3,-7.7587916E-3,-1.8060673E-2],"split_indices":[0,4,0,0,0,0,2,0,2,0,0,0,0,3,0,0,0,0,0,0,0,0,0,0,0,0,0],"split_type":[0,0,0,0,0,0,0,0,0,0,0,0,0,0,0,0,0,0,0,0,0,0,0,0,0,0,0],"sum_hessian":[4.6923E4,1.8698E4,2.8225E4,9.172E3,9.526E3,1.4733E4,1.3492E4,3.379E3,5.793E3,6.66E2,8.86E3,2.027E3,1.2706E4,5.762E3,7.73E3,1.609E3,4.184E3,6.32E2,3.4E1,1.676E3,3.51E2,2.575E3,1.0131E4,3.759E3,2.003E3,1.989E3,5.741E3],"tree_param":{"num_deleted":"0","num_feature":"5","num_nodes":"27","size_leaf_vector":"1"}},{"base_weights":[-0E0,-1.6072774E-1,1.187556E-1,-2.5185782E-1,-1.2010955E-1,-2.286453E-2,3.031999E-1,-2.6501628E-2,-2.030554E-2,-1.1925833E-2,-1.5080994E-1,-2.1476527E-1,6.6000886E-2,2.4979374E-1,3.7558448E-2,-6.9004307E-3,8.764346E-3,-1.563566E-2,-9.703847E-3,-3.181461E-2,-1.1905989E-2,2.7590839E-3,9.854502E-3,1.8964047E-2,2.6865335E-2],"categories":[],"categories_nodes":[],"categories_segments":[],"categories_sizes":[],"default_left":[0,0,0,0,0,0,0,0,0,0,0,0,0,0,0,0,0,0,0,0,0,0,0,0,0],"id":6,"left_children":[1,3,5,7,9,11,13,-1,-1,15,17,19,21,23,-1,-1,-1,-1,-1,-1,-1,-1,-1,-1,-1],"loss_changes":[8.952542E2,7.092963E1,7.059675E2,2.857727E0,4.475261E1,2.606645E2,6.3823853E1,0E0,0E0,2.148745E1,7.881531E0,5.1159195E1,1.4613792E1,1.1039185E1,0E0,0E0,0E0,0E0,0E0,0E0,0E0,0E0,0E0,0E0,0E0],"parents":[2147483647,0,0,1,1,2,2,3,3,4,4,5,5,6,6,9,9,10,10,11,11,12,12,13,13],"right_children":[2,4,6,8,10,12,14,-1,-1,16,18,20,22,24,-1,-1,-1,-1,-1,-1,-1,-1,-1,-1,-1],"split_conditions":[1E0,-3.59E-1,-1.09E-2,-8.263E-1,1E0,-6.464E-1,4.51E-1,-2.6501628E-2,-2.030554E-2,2.876E-1,3.641E-1,-1.0465E0,-2.61E-1,2.154E-1,3.7558448E-2,-6.9004307E-3,8.764346E-3,-1.563566E-2,-9.703847E-3,-3.181461E-2,-1.1905989E-2,2.7590839E-3,9.854502E-3,1.8964047E-2,2.6865335E-2],"split_indices":[4,1,1,1,2,1,1,0,0,1,1,1,1,1,0,0,0,0,0,0,0,0,0,0,0],"split_type":[0,0,0,0,0,0,0,0,0,0,0,0,0,0,0,0,0,0,0,0,0,0,0,0,0],"sum_hessian":[4.6889E4,1.9946E4,2.6943E4,6.09E3,1.3856E4,1.5217E4,1.1726E4,2.418E3,3.672E3,3.119E3,1.0737E4,4.844E3,1.0373E4,7.946E3,3.78E3,2.006E3,1.113E3,7.117E3,3.62E3,1.815E3,3.029E3,5.74E3,4.633E3,4.284E3,3.662E3],"tree_param":{"num_deleted":"0","num_feature":"5","num_nodes":"25","size_leaf_vector":"1"}},{"base_weights":[2.4661603E-3,-1.7336193E-1,1.3616538E-1,-1.849067E-1,-5.1766507E-2,6.798393E-1,6.44071E-2,-2.553465E-1,-1.6973272E-1,-1.4637381E-2,5.6062292E-2,8.0150284E-2,8.476487E-1,-1.1989664E-1,1.8724489E-1,-0E0,-2.3409225E-2,-1.7433139E-2,-1.153443E-2,-0E0,1.1943058E-2,-1.4055296E-2,2.2494443E-2,2.6752533E-2,9.605269E-2,-2.2085529E-2,-3.963115E-3,3.5736255E-2,-2.0642689E-4],"categories":[],"categories_nodes":[],"categories_segments":[],"categories_sizes":[],"default_left":[0,0,0,0,0,0,0,0,0,0,0,0,0,0,0,0,0,0,0,0,0,0,0,0,0,0,0,0,0],"id":7,"left_children":[1,3,5,7,9,11,13,15,17,-1,19,21,23,25,27,-1,-1,-1,-1,-1,-1,-1,-1,-1,-1,-1,-1,-1,-1],"loss_changes":[1.1034933E3,2.6590698E1,1.0357362E3,1.6393127E1,2.2220592E1,3.0474377E2,5.347556E2,1.5056915E0,1.1973816E1,0E0,4.1892805E0,2.7790468E1,2.6905957E2,8.6206085E1,5.570794E2,0E0,0E0,0E0,0E0,0E0,0E0,0E0,0E0,0E0,0E0,0E0,0E0,0E0,0E0],"parents":[2147483647,0,0,1,1,2,2,3,3,4,4,5,5,6,6,7,7,8,8,10,10,11,11,12,12,13,13,14,14],"right_children":[2,4,6,8,10,12,14,16,18,-1,20,22,24,26,28,-1,-1,-1,-1,-1,-1,-1,-1,-1,-1,-1,-1,-1,-1],"split_conditions":[-2.1E1,-8.1E1,8.5E1,-6.464E-1,-1.289E-1,-5.271E-1,-2.237E-1,-4.637E3,-3.57E2,-1.4637381E-2,2.513E-1,-9.15E-1,1.1E1,-7.338E-1,4.87E2,-0E0,-2.3409225E-2,-1.7433139E-2,-1.153443E-2,-0E0,1.1943058E-2,-1.4055296E-2,2.2494443E-2,2.6752533E-2,9.605269E-2,-2.2085529E-2,-3.963115E-3,3.5736255E-2,-2.0642689E-4],"split_indices":[0,0,0,1,1,1,1,0,0,0,1,1,0,1,0,0,0,0,0,0,0,0,0,0,0,0,0,0,0],"split_type":[0,0,0,0,0,0,0,0,0,0,0,0,0,0,0,0,0,0,0,0,0,0,0,0,0,0,0,0,0],"sum_hessian":[4.6953E4,2.0256E4,2.6697E4,1.8441E4,1.815E3,3.1E3,2.3597E4,3.177E3,1.5264E4,9.37E2,8.78E2,6.88E2,2.412E3,9.412E3,1.4185E4,3.4E1,3.143E3,9.937E3,5.327E3,4.76E2,4.02E2,2.67E2,4.21E2,6.73E2,1.739E3,3.56E3,5.852E3,6.815E3,7.37E3],"tree_param":{"num_deleted":"0","num_feature":"5","num_nodes":"29","size_leaf_vector":"1"}},{"base_weights":[-0E0,-1.4807855E-1,1.16290756E-1,-1.7140378E-1,-7.934231E-2,6.624545E-1,4.8339274E-2,-1.0276883E-1,-1.9257717E-1,-1.491313E-1,-3.7728315E-3,1.8594205E-1,8.746792E-1,-6.36761E-2,2.0470367E-1,-1.7448624E-3,-1.0429627E-2,-1.4410335E-2,-2.2773392E-2,-1.7367454E-2,-8.929989E-3,-4.220677E-3,7.305448E-3,-0E0,3.929222E-2,4.2262785E-2,9.107384E-2,-2.0214366E-2,-9.35791E-4,4.1023158E-2,1.1443738E-3],"categories":[],"categories_nodes":[],"categories_segments":[],"categories_sizes":[],"default_left":[0,0,0,0,0,0,0,0,0,0,0,0,0,0,0,0,0,0,0,0,0,0,0,0,0,0,0,0,0,0,0],"id":8,"left_children":[1,3,5,7,9,11,13,15,17,19,21,23,25,27,29,-1,-1,-1,-1,-1,-1,-1,-1,-1,-1,-1,-1,-1,-1,-1,-1],"loss_changes":[8.0856995E2,3.1135529E1,9.7145557E2,1.9967651E1,2.6835632E1,2.8500012E2,4.1139743E2,2.674385E0,1.9741333E1,3.5312653E0,9.09667E0,4.3174904E1,9.2853516E1,1.1363545E2,4.6135565E2,0E0,0E0,0E0,0E0,0E0,0E0,0E0,0E0,0E0,0E0,0E0,0E0,0E0,0E0,0E0,0E0],"parents":[2147483647,0,0,1,1,2,2,3,3,4,4,5,5,6,6,7,7,8,8,9,9,10,10,11,11,12,12,13,13,14,14],"right_children":[2,4,6,8,10,12,14,16,18,20,22,24,26,28,30,-1,-1,-1,-1,-1,-1,-1,-1,-1,-1,-1,-1,-1,-1,-1,-1],"split_conditions":[-1E1,-1.97E2,9.1E1,-1.037E3,-1.008E-1,-3.724E-1,4.24E-2,-3.98E3,1E0,-4.93E-1,-6.9E1,-6.266E-1,1.7E1,-7.462E-1,4.63E2,-1.7448624E-3,-1.0429627E-2,-1.4410335E-2,-2.2773392E-2,-1.7367454E-2,-8.929989E-3,-4.220677E-3,7.305448E-3,-0E0,3.929222E-2,4.2262785E-2,9.107384E-2,-2.0214366E-2,-9.35791E-4,4.1023158E-2,1.1443738E-3],"split_indices":[0,0,0,0,1,1,1,0,2,1,0,1,0,1,0,0,0,0,0,0,0,0,0,0,0,0,0,0,0,0,0],"split_type":[0,0,0,0,0,0,0,0,0,0,0,0,0,0,0,0,0,0,0,0,0,0,0,0,0,0,0,0,0,0,0],"sum_hessian":[4.6964E4,2.0639E4,2.6325E4,1.5325E4,5.314E3,2.9E3,2.3425E4,3.7E3,1.1625E4,2.709E3,2.605E3,9.05E2,1.995E3,1.3619E4,9.806E3,5.47E2,3.153E3,7.42E3,4.205E3,1.399E3,1.31E3,1.79E3,8.15E2,5.07E2,3.98E2,4.89E2,1.506E3,3.389E3,1.023E4,4.274E3,5.532E3],"tree_param":{"num_deleted":"0","num_feature":"5","num_nodes":"31","size_leaf_vector":"1"}},{"base_weights":[-3.6312728E-3,-1.5134715E-1,1.0240807E-1,-1.8607055E-1,-1.2029637E-1,2.5249022E-1,-6.1421152E-2,-9.799415E-2,-2.3488027E-1,-1.2618598E-1,-2.5543864E-3,4.282151E-1,1.8766019E-1,1.3285728E-2,-1.2121887E-1,-0E0,-9.277875E-3,-2.1473574E-2,-0E0,-2.5819635E-3,-1.1893004E-2,1.6756634E-4,5.877983E-2,2.4258978E-4,1.8931093E-2,-3.7279103E-3,6.069084E-3,-1.2167859E-2,-0E0],"categories":[],"categories_nodes":[],"categories_segments":[],"categories_sizes":[],"default_left":[0,0,0,0,0,0,0,0,0,0,0,0,0,0,0,0,0,0,0,0,0,0,0,0,0,0,0,0,0],"id":9,"left_children":[1,3,5,7,9,11,13,15,17,19,-1,21,23,25,27,-1,-1,-1,-1,-1,-1,-1,-1,-1,-1,-1,-1,-1,-1],"loss_changes":[7.339172E2,1.8743042E1,6.710217E2,3.6671448E1,4.479965E0,1.5737201E2,5.888969E1,7.220268E-1,2.579193E0,3.2570038E0,0E0,3.497547E2,3.831604E1,1.6825237E1,1.1193886E1,0E0,0E0,0E0,0E0,0E0,0E0,0E0,0E0,0E0,0E0,0E0,0E0,0E0,0E0],"parents":[2147483647,0,0,1,1,2,2,3,3,4,4,5,5,6,6,7,7,8,8,9,9,11,11,12,12,13,13,14,14],"right_children":[2,4,6,8,10,12,14,16,18,20,-1,22,24,26,28,-1,-1,-1,-1,-1,-1,-1,-1,-1,-1,-1,-1,-1,-1],"split_conditions":[-4.5E1,1E0,4.4E2,-1.037E3,-6.9E1,8.5E1,7.24E2,1E0,-1.39E2,-8.11E2,-2.5543864E-3,-2E0,1E0,1E0,1E0,-0E0,-9.277875E-3,-2.1473574E-2,-0E0,-2.5819635E-3,-1.1893004E-2,1.6756634E-4,5.877983E-2,2.4258978E-4,1.8931093E-2,-3.7279103E-3,6.069084E-3,-1.2167859E-2,-0E0],"split_indices":[0,4,0,0,0,0,0,2,0,0,0,0,4,4,3,0,0,0,0,0,0,0,0,0,0,0,0,0,0],"split_type":[0,0,0,0,0,0,0,0,0,0,0,0,0,0,0,0,0,0,0,0,0,0,0,0,0,0,0,0,0],"sum_hessian":[4.683E4,1.96E4,2.723E4,9.134E3,1.0466E4,1.4236E4,1.2994E4,3.314E3,5.82E3,9.758E3,7.08E2,3.804E3,1.0432E4,5.719E3,7.275E3,1.93E2,3.121E3,5.794E3,2.6E1,5.25E2,9.233E3,1.302E3,2.502E3,1.088E3,9.344E3,2.766E3,2.953E3,6.584E3,6.91E2],"tree_param":{"num_deleted":"0","num_feature":"5","num_nodes":"29","size_leaf_vector":"1"}},{"base_weights":[-0E0,-1.3002971E-1,9.799406E-2,-1.3792498E-1,-6.285072E-2,3.0973116E-1,-1.4188087E-2,-7.367718E-3,-1.5230545E-1,-7.640553E-3,-2.4146313E-2,4.8501894E-1,2.2561371E-1,6.2173683E-2,-1.148219E-1,-1.1465448E-2,-1.9382572E-2,-0E0,-4.0155947E-3,9.278246E-3,6.487364E-2,1.2283347E-2,3.146261E-2,-0E0,8.642E-3,-1.1443008E-2,-4.323985E-5],"categories":[],"categories_nodes":[],"categories_segments":[],"categories_sizes":[],"default_left":[0,0,0,0,0,0,0,0,0,0,0,0,0,0,0,0,0,0,0,0,0,0,0,0,0,0,0],"id":10,"left_children":[1,3,5,7,9,11,13,-1,15,-1,17,19,21,23,25,-1,-1,-1,-1,-1,-1,-1,-1,-1,-1,-1,-1],"loss_changes":[5.9589233E2,9.082214E0,6.367285E2,1.277597E1,9.782219E-1,1.3119269E2,1.3439311E2,0E0,1.988858E1,0E0,5.352868E-1,2.5469958E2,6.4954346E1,2.0298908E1,8.6414795E0,0E0,0E0,0E0,0E0,0E0,0E0,0E0,0E0,0E0,0E0,0E0,0E0],"parents":[2147483647,0,0,1,1,2,2,3,3,4,4,5,5,6,6,8,8,10,10,11,11,12,12,13,13,14,14],"right_children":[2,4,6,8,10,12,14,-1,16,-1,18,20,22,24,26,-1,-1,-1,-1,-1,-1,-1,-1,-1,-1,-1,-1],"split_conditions":[-2.7E1,-1E2,2.76E2,-1.037E3,-5.7E1,7.3E1,7.12E2,-7.367718E-3,1E0,-7.640553E-3,-4.5E1,1.1E1,1.91E2,1E0,1E0,-1.1465448E-2,-1.9382572E-2,-0E0,-4.0155947E-3,9.278246E-3,6.487364E-2,1.2283347E-2,3.146261E-2,-0E0,8.642E-3,-1.1443008E-2,-4.323985E-5],"split_indices":[0,0,0,0,0,0,0,0,2,0,0,0,0,4,3,0,0,0,0,0,0,0,0,0,0,0,0],"split_type":[0,0,0,0,0,0,0,0,0,0,0,0,0,0,0,0,0,0,0,0,0,0,0,0,0,0,0],"sum_hessian":[4.6783E4,2.0074E4,2.6709E4,1.7859E4,2.215E3,9.274E3,1.7435E4,3.716E3,1.4143E4,1.3E3,9.15E2,2.977E3,6.297E3,9.869E3,7.566E3,9.995E3,4.148E3,3.68E2,5.47E2,1.127E3,1.85E3,3.637E3,2.66E3,3.409E3,6.46E3,6.833E3,7.33E2],"tree_param":{"num_deleted":"0","num_feature":"5","num_nodes":"27","size_leaf_vector":"1"}},{"base_weights":[2.288213E-3,-1.1546462E-1,9.065419E-2,-1.3151267E-1,-6.299077E-2,2.8738365E-1,-7.0176553E-3,-7.1396716E-2,-1.4977285E-1,-1.2953857E-1,-9.406371E-5,3.9935622E-2,5.199794E-1,-7.177194E-2,1.3145344E-1,-1.9321772E-3,-7.3433127E-3,-1.1593419E-2,-1.7077647E-2,-1.9738598E-2,-9.747645E-3,-2.5889298E-3,2.949378E-3,-1.2784853E-2,1.6165562E-2,6.1726402E-2,3.7050944E-2,-2.0787504E-2,-3.186291E-3,2.5279224E-2,-2.3349274E-3],"categories":[],"categories_nodes":[],"categories_segments":[],"categories_sizes":[],"default_left":[0,0,0,0,0,0,0,0,0,0,0,0,0,0,0,0,0,0,0,0,0,0,0,0,0,0,0,0,0,0,0],"id":11,"left_children":[1,3,5,7,9,11,13,15,17,19,21,23,25,27,29,-1,-1,-1,-1,-1,-1,-1,-1,-1,-1,-1,-1,-1,-1,-1,-1],"loss_changes":[4.8678046E2,1.5347931E1,5.166476E2,1.4985565E1,1.909897E1,5.0840662E2,1.5972661E2,9.279175E-1,7.340088E0,1.9071465E0,2.3087692E0,1.0831387E2,7.332019E1,6.831887E1,1.3239563E2,0E0,0E0,0E0,0E0,0E0,0E0,0E0,0E0,0E0,0E0,0E0,0E0,0E0,0E0,0E0,0E0],"parents":[2147483647,0,0,1,1,2,2,3,3,4,4,5,5,6,6,7,7,8,8,9,9,10,10,11,11,12,12,13,13,14,14],"right_children":[2,4,6,8,10,12,14,16,18,20,22,24,26,28,30,-1,-1,-1,-1,-1,-1,-1,-1,-1,-1,-1,-1,-1,-1,-1,-1],"split_conditions":[-2.7E1,-1.97E2,2.63E2,-1.037E3,-1.464E-1,-1.289E-1,1.924E-1,-3.707E3,1E0,-1.0056E0,-9.4E1,-5.794E-1,9.7E1,-8.263E-1,6.88E2,-1.9321772E-3,-7.3433127E-3,-1.1593419E-2,-1.7077647E-2,-1.9738598E-2,-9.747645E-3,-2.5889298E-3,2.949378E-3,-1.2784853E-2,1.6165562E-2,6.1726402E-2,3.7050944E-2,-2.0787504E-2,-3.186291E-3,2.5279224E-2,-2.3349274E-3],"split_indices":[0,0,0,0,1,1,1,0,2,1,0,1,0,1,0,0,0,0,0,0,0,0,0,0,0,0,0,0,0,0,0],"split_type":[0,0,0,0,0,0,0,0,0,0,0,0,0,0,0,0,0,0,0,0,0,0,0,0,0,0,0,0,0,0,0],"sum_hessian":[4.68E4,2.0026E4,2.6774E4,1.5222E4,4.804E3,8.909E3,1.7865E4,3.646E3,1.1576E4,2.274E3,2.53E3,4.333E3,4.576E3,1.2211E4,5.654E3,7.08E2,2.938E3,7.454E3,4.122E3,3.89E2,1.885E3,1.479E3,1.051E3,1.852E3,2.481E3,1.861E3,2.715E3,2.273E3,9.938E3,2.949E3,2.705E3],"tree_param":{"num_deleted":"0","num_feature":"5","num_nodes":"31","size_leaf_vector":"1"}},{"base_weights":[5.939696E-5,-1.0546363E-1,8.3186425E-2,-1.4144498E-1,-7.5971656E-2,4.8112163E-1,3.5251264E-2,-7.759263E-2,-1.7985044E-1,-7.33821E-2,-1.6698055E-2,1.7144169E-1,5.8430403E-1,1.4059898E-1,-5.8988314E-2,-5.067619E-3,-9.332722E-3,-1.6413787E-2,-0E0,-6.81576E-3,-0E0,2.8047606E-3,2.5407406E-2,6.162317E-2,3.143078E-2,5.0936453E-3,1.5249621E-2,7.867497E-4,-9.396395E-3],"categories":[],"categories_nodes":[],"categories_segments":[],"categories_sizes":[],"default_left":[0,0,0,0,0,0,0,0,0,0,0,0,0,0,0,0,0,0,0,0,0,0,0,0,0,0,0,0,0],"id":12,"left_children":[1,3,5,7,9,11,13,15,17,19,-1,21,23,25,27,-1,-1,-1,-1,-1,-1,-1,-1,-1,-1,-1,-1,-1,-1],"loss_changes":[4.114908E2,2.020543E1,4.975012E2,2.0497726E1,1.1948776E0,8.386041E1,2.337761E2,6.9607735E-1,7.350464E-1,1.8621864E0,0E0,8.54981E0,3.874878E1,2.3884247E1,3.7878784E1,0E0,0E0,0E0,0E0,0E0,0E0,0E0,0E0,0E0,0E0,0E0,0E0,0E0,0E0],"parents":[2147483647,0,0,1,1,2,2,3,3,4,4,5,5,6,6,7,7,8,8,9,9,11,11,12,12,13,13,14,14],"right_children":[2,4,6,8,10,12,14,16,18,20,-1,22,24,26,28,-1,-1,-1,-1,-1,-1,-1,-1,-1,-1,-1,-1,-1,-1],"split_conditions":[-1E1,1E0,8.5E1,-9.91E2,-1.6E1,1.7E1,4.63E2,-2.089E3,-1.19E2,-2.1E1,-1.6698055E-2,4E0,6.6E1,1.75E2,7.12E2,-5.067619E-3,-9.332722E-3,-1.6413787E-2,-0E0,-6.81576E-3,-0E0,2.8047606E-3,2.5407406E-2,6.162317E-2,3.143078E-2,5.0936453E-3,1.5249621E-2,7.867497E-4,-9.396395E-3],"split_indices":[0,4,0,0,0,0,0,0,0,0,0,0,0,0,0,0,0,0,0,0,0,0,0,0,0,0,0,0,0],"split_type":[0,0,0,0,0,0,0,0,0,0,0,0,0,0,0,0,0,0,0,0,0,0,0,0,0,0,0,0,0],"sum_hessian":[4.693E4,2.0638E4,2.6292E4,9.177E3,1.1461E4,2.809E3,2.3483E4,3.523E3,5.654E3,1.1263E4,1.98E2,7.21E2,2.088E3,1.1127E4,1.2356E4,2.052E3,1.471E3,5.626E3,2.8E1,1.1108E4,1.55E2,3.45E2,3.76E2,1.474E3,6.14E2,2.782E3,8.345E3,4.829E3,7.527E3],"tree_param":{"num_deleted":"0","num_feature":"5","num_nodes":"29","size_leaf_vector":"1"}},{"base_weights":[2.0385154E-3,-1.0230978E-1,8.1602395E-2,-1.658334E-1,-8.8296086E-2,2.6698628E-1,-9.729796E-3,-0E0,-1.6799152E-1,-9.6594594E-2,2.9980992E-3,4.9725197E-2,5.003431E-1,-8.6605005E-2,9.44612E-2,-1.5422895E-2,-0E0,-3.3912805E-3,-9.266086E-3,-3.777358E-3,1.5648684E-2,-8.779344E-3,1.852398E-2,3.666547E-2,6.238975E-2,-1.8083958E-2,-4.949672E-3,1.7816987E-2,-5.731075E-3],"categories":[],"categories_nodes":[],"categories_segments":[],"categories_sizes":[],"default_left":[0,0,0,0,0,0,0,0,0,0,0,0,0,0,0,0,0,0,0,0,0,0,0,0,0,0,0,0,0],"id":13,"left_children":[1,3,5,7,9,11,13,-1,15,17,19,21,23,25,27,-1,-1,-1,-1,-1,-1,-1,-1,-1,-1,-1,-1,-1,-1],"loss_changes":[3.8798492E2,1.5985504E1,4.5184326E2,1.6241989E0,1.3332611E1,4.417229E2,1.4228204E2,0E0,1.1974564E0,3.8139648E0,1.0887189E1,1.0401941E2,6.7648315E1,3.511783E1,1.2116908E2,0E0,0E0,0E0,0E0,0E0,0E0,0E0,0E0,0E0,0E0,0E0,0E0,0E0,0E0],"parents":[2147483647,0,0,1,1,2,2,3,3,4,4,5,5,6,6,8,8,9,9,10,10,11,11,12,12,13,13,14,14],"right_children":[2,4,6,8,10,12,14,-1,16,18,20,22,24,26,28,-1,-1,-1,-1,-1,-1,-1,-1,-1,-1,-1,-1,-1,-1],"split_conditions":[-2.1E1,-6.464E-1,2.63E2,-4.637E3,-7.5E1,-7.28E-2,4.91E-2,-0E0,-2.7E1,-2.445E3,3.126E-1,-4.678E-1,4.068E-1,-8.263E-1,7.69E2,-1.5422895E-2,-0E0,-3.3912805E-3,-9.266086E-3,-3.777358E-3,1.5648684E-2,-8.779344E-3,1.852398E-2,3.666547E-2,6.238975E-2,-1.8083958E-2,-4.949672E-3,1.7816987E-2,-5.731075E-3],"split_indices":[0,1,0,0,0,1,1,0,0,0,1,1,1,1,0,0,0,0,0,0,0,0,0,0,0,0,0,0,0],"split_type":[0,0,0,0,0,0,0,0,0,0,0,0,0,0,0,0,0,0,0,0,0,0,0,0,0,0,0,0,0],"sum_hessian":[4.6751E4,2.0183E4,2.6568E4,3.547E3,1.6636E4,8.797E3,1.7771E4,3.3E1,3.514E3,1.5328E4,1.308E3,4.573E3,4.224E3,1.0269E4,7.502E3,3.483E3,3.1E1,1.399E3,1.3929E4,9.99E2,3.09E2,2.32E3,2.253E3,2.808E3,1.416E3,2.228E3,8.041E3,4.59E3,2.912E3],"tree_param":{"num_deleted":"0","num_feature":"5","num_nodes":"29","size_leaf_vector":"1"}},{"base_weights":[5.6835203E-3,-8.500494E-2,7.8356065E-2,-1.6376506E-1,-7.588812E-2,4.255382E-1,3.103734E-2,-0E0,-1.6605178E-1,-9.27879E-2,-4.9796816E-2,2.7129424E-1,7.821867E-1,-9.3121365E-2,1.273945E-1,-1.520658E-2,-0E0,-3.501E-3,-1.0368237E-2,-7.6322397E-3,-1.8338022E-3,-1.7510995E-2,3.034839E-2,-0E0,7.23601E-2,-1.8514128E-2,-4.512019E-3,-4.6098122E-4,2.2769315E-2],"categories":[],"categories_nodes":[],"categories_segments":[],"categories_sizes":[],"default_left":[0,0,0,0,0,0,0,0,0,0,0,0,0,0,0,0,0,0,0,0,0,0,0,0,0,0,0,0,0],"id":14,"left_children":[1,3,5,7,9,11,13,-1,15,17,19,21,23,25,27,-1,-1,-1,-1,-1,-1,-1,-1,-1,-1,-1,-1,-1,-1],"loss_changes":[3.096673E2,1.3108582E1,4.258128E2,1.0411949E0,7.171013E0,1.6312799E2,2.7568454E2,0E0,4.8503876E-1,1.1792984E1,6.8518257E0,6.4871475E1,1.573645E1,4.6231216E1,2.1405743E2,0E0,0E0,0E0,0E0,0E0,0E0,0E0,0E0,0E0,0E0,0E0,0E0,0E0,0E0],"parents":[2147483647,0,0,1,1,2,2,3,3,4,4,5,5,6,6,8,8,9,9,10,10,11,11,12,12,13,13,14,14],"right_children":[2,4,6,8,10,12,14,-1,16,18,20,22,24,26,28,-1,-1,-1,-1,-1,-1,-1,-1,-1,-1,-1,-1,-1,-1],"split_conditions":[-2E0,-9.15E-1,1.04E2,-4.637E3,-3.36E2,2.214E-1,-1.696E-1,-0E0,-1E1,-1.037E3,-1.053E-1,-9.332E-1,1E0,-8.263E-1,1E0,-1.520658E-2,-0E0,-3.501E-3,-1.0368237E-2,-7.6322397E-3,-1.8338022E-3,-1.7510995E-2,3.034839E-2,-0E0,7.23601E-2,-1.8514128E-2,-4.512019E-3,-4.6098122E-4,2.2769315E-2],"split_indices":[0,1,0,0,0,1,1,0,0,0,1,1,4,1,4,0,0,0,0,0,0,0,0,0,0,0,0,0,0],"split_type":[0,0,0,0,0,0,0,0,0,0,0,0,0,0,0,0,0,0,0,0,0,0,0,0,0,0,0,0,0],"sum_hessian":[4.6994E4,2.0858E4,2.6136E4,2.075E3,1.8783E4,3.115E3,2.3021E4,1.9E1,2.056E3,1.1218E4,7.565E3,2.19E3,9.25E2,1.0024E4,1.2997E4,2.041E3,1.5E1,3.269E3,7.949E3,3.388E3,4.177E3,2.46E2,1.944E3,8E0,9.17E2,2.776E3,7.248E3,6.233E3,6.764E3],"tree_param":{"num_deleted":"0","num_feature":"5","num_nodes":"29","size_leaf_vector":"1"}},{"base_weights":[-2.7243432E-3,-8.254943E-2,6.045728E-2,-8.893261E-2,-1.8993326E-2,3.973418E-1,2.6546491E-2,-1.0388838E-1,-7.367665E-2,2.1705877E-2,-3.1972524E-2,7.651914E-3,4.8994344E-1,1.1576915E-1,-4.1269448E-2,-5.249701E-3,-1.14477845E-2,-6.1181937E-3,-8.715724E-3,2.3639835E-3,-0E0,-1.1520751E-3,-5.0903726E-3,-0E0,4.4880033E-2,1.8298826E-3,1.4276384E-2,-1.9814871E-4,-9.081999E-3],"categories":[],"categories_nodes":[],"categories_segments":[],"categories_sizes":[],"default_left":[0,0,0,0,0,0,0,0,0,0,0,0,0,0,0,0,0,0,0,0,0,0,0,0,0,0,0,0,0],"id":15,"left_children":[1,3,5,7,9,11,13,15,17,19,21,-1,23,25,27,-1,-1,-1,-1,-1,-1,-1,-1,-1,-1,-1,-1,-1,-1],"loss_changes":[2.3552264E2,7.5453033E0,2.936436E2,2.8764496E0,1.1355908E0,6.3839874E1,1.4360284E2,7.9179077E0,6.7276E-2,6.690787E-2,2.3524415E-1,0E0,4.9405823E0,3.9192642E1,2.990115E1,0E0,0E0,0E0,0E0,0E0,0E0,0E0,0E0,0E0,0E0,0E0,0E0,0E0,0E0],"parents":[2147483647,0,0,1,1,2,2,3,3,4,4,5,5,6,6,7,7,8,8,9,9,10,10,12,12,13,13,14,14],"right_children":[2,4,6,8,10,12,14,16,18,20,22,-1,24,26,28,-1,-1,-1,-1,-1,-1,-1,-1,-1,-1,-1,-1,-1,-1],"split_conditions":[-1E1,-7.5E1,7.3E1,1E0,-6.3E1,1.1E1,4.17E2,-1.267E3,-1.39E2,1E0,-2.7E1,7.651914E-3,1E0,1.75E2,8.57E2,-5.249701E-3,-1.14477845E-2,-6.1181937E-3,-8.715724E-3,2.3639835E-3,-0E0,-1.1520751E-3,-5.0903726E-3,-0E0,4.4880033E-2,1.8298826E-3,1.4276384E-2,-1.9814871E-4,-9.081999E-3],"split_indices":[0,0,0,4,0,0,0,0,0,3,0,0,4,0,0,0,0,0,0,0,0,0,0,0,0,0,0,0,0],"split_type":[0,0,0,0,0,0,0,0,0,0,0,0,0,0,0,0,0,0,0,0,0,0,0,0,0,0,0,0,0],"sum_hessian":[4.6664E4,2.0671E4,2.5993E4,1.8673E4,1.998E3,2.356E3,2.3637E4,9.171E3,9.502E3,3.38E2,1.66E3,5.57E2,1.799E3,1.0257E4,1.338E4,3.087E3,6.084E3,7.669E3,1.833E3,3.34E2,4E0,1.101E3,5.59E2,9E0,1.79E3,3.154E3,7.103E3,8.111E3,5.269E3],"tree_param":{"num_deleted":"0","num_feature":"5","num_nodes":"29","size_leaf_vector":"1"}},{"base_weights":[-4.416689E-3,-1.2162384E-1,3.696356E-2,-1.9402425E-1,-8.5204974E-2,-6.1935116E-2,1.1544777E-1,-2.092214E-1,-0E0,-1.346227E-1,-5.062323E-2,-8.624283E-2,-4.1221533E-2,2.518893E-1,-1.1948817E-2,-1.2166456E-2,-2.4299016E-2,6.5856637E-3,-3.438609E-3,-1.3601346E-2,-2.11434E-3,-8.826592E-3,-2.4450459E-3,-5.2472935E-3,-9.361568E-3,-4.799728E-3,-1.0514256E-3,1.2456875E-2,3.94235E-2,4.5963633E-3,-6.737862E-3],"categories":[],"categories_nodes":[],"categories_segments":[],"categories_sizes":[],"default_left":[0,0,0,0,0,0,0,0,0,0,0,0,0,0,0,0,0,0,0,0,0,0,0,0,0,0,0,0,0,0,0],"id":16,"left_children":[1,3,5,7,9,11,13,15,17,19,21,23,25,27,29,-1,-1,-1,-1,-1,-1,-1,-1,-1,-1,-1,-1,-1,-1,-1,-1],"loss_changes":[2.2839552E2,3.025763E1,2.6940308E2,1.0300476E1,1.2665596E1,6.7048492E0,3.3847797E2,1.315538E1,6.396015E-1,4.2044754E0,4.4946203E0,2.0297394E0,2.3987875E0,1.9152765E2,3.903318E1,0E0,0E0,0E0,0E0,0E0,0E0,0E0,0E0,0E0,0E0,0E0,0E0,0E0,0E0,0E0,0E0],"parents":[2147483647,0,0,1,1,2,2,3,3,4,4,5,5,6,6,7,7,8,8,9,9,10,10,11,11,12,12,13,13,14,14],"right_children":[2,4,6,8,10,12,14,16,18,20,22,24,26,28,30,-1,-1,-1,-1,-1,-1,-1,-1,-1,-1,-1,-1,-1,-1,-1,-1],"split_conditions":[-4.601E-1,-9.685E-1,-1E1,1.037E3,1E0,1E0,4.24E2,-4.5E1,-1.7177E0,1.236E3,-7.462E-1,-9.91E2,3.064E-1,2.037E-1,7.58E2,-1.2166456E-2,-2.4299016E-2,6.5856637E-3,-3.438609E-3,-1.3601346E-2,-2.11434E-3,-8.826592E-3,-2.4450459E-3,-5.2472935E-3,-9.361568E-3,-4.799728E-3,-1.0514256E-3,1.2456875E-2,3.94235E-2,4.5963633E-3,-6.737862E-3],"split_indices":[1,1,0,0,4,4,0,0,1,0,1,0,1,1,0,0,0,0,0,0,0,0,0,0,0,0,0,0,0,0,0],"split_type":[0,0,0,0,0,0,0,0,0,0,0,0,0,0,0,0,0,0,0,0,0,0,0,0,0,0,0,0,0,0,0],"sum_hessian":[4.6955E4,1.2301E4,3.4654E4,4.045E3,8.256E3,1.5289E4,1.9365E4,3.714E3,3.31E2,3.306E3,4.95E3,6.861E3,8.428E3,9.38E3,9.985E3,1.678E3,2.036E3,4.3E1,2.88E2,2.85E3,4.56E2,1.56E3,3.39E3,2.717E3,4.144E3,5.868E3,2.56E3,5.779E3,3.601E3,4.917E3,5.068E3],"tree_param":{"num_deleted":"0","num_feature":"5","num_nodes":"31","size_leaf_vector":"1"}},{"base_weights":[9.597965E-4,-1.10285245E-1,3.653348E-2,-1.9729848E-1,-7.598399E-2,-5.5093456E-2,1.0725807E-1,-9.238699E-2,-2.3159412E-1,-8.0067165E-2,4.598576E-2,-7.6586954E-2,-3.3420885E-3,-3.0769479E-2,2.09924E-1,-0E0,-9.253304E-3,-2.3435114E-2,-3.9853672E-3,-0E0,-7.842729E-3,6.044987E-3,-0E0,-2.3241427E-3,-7.84303E-3,-6.557765E-3,4.9290955E-3,-5.465783E-3,-8.847963E-4,4.2485718E-2,1.3505084E-2],"categories":[],"categories_nodes":[],"categories_segments":[],"categories_sizes":[],"default_left":[0,0,0,0,0,0,0,0,0,0,0,0,0,0,0,0,0,0,0,0,0,0,0,0,0,0,0,0,0,0,0],"id":17,"left_children":[1,3,5,7,9,11,13,15,17,19,21,23,25,27,29,-1,-1,-1,-1,-1,-1,-1,-1,-1,-1,-1,-1,-1,-1,-1,-1],"loss_changes":[1.8430069E2,3.1494934E1,2.3013419E2,8.703285E0,4.3225327E0,1.6501823E1,2.855926E2,1.0183315E0,9.004341E0,4.1826744E0,4.054727E-1,4.478077E0,1.8473232E1,4.7230997E0,1.773158E2,0E0,0E0,0E0,0E0,0E0,0E0,0E0,0E0,0E0,0E0,0E0,0E0,0E0,0E0,0E0,0E0],"parents":[2147483647,0,0,1,1,2,2,3,3,4,4,5,5,6,6,7,7,8,8,9,9,10,10,11,11,12,12,13,13,14,14],"right_children":[2,4,6,8,10,12,14,16,18,20,22,24,26,28,30,-1,-1,-1,-1,-1,-1,-1,-1,-1,-1,-1,-1,-1,-1,-1,-1],"split_conditions":[-5.015E-1,-1.0669E0,1E0,-3.57E2,2.454E3,3.641E-1,-1E1,-3.98E3,9.84E2,-1.037E3,-5.271E-1,-1.037E3,1.8E2,-2.74E-2,9.1E1,-0E0,-9.253304E-3,-2.3435114E-2,-3.9853672E-3,-0E0,-7.842729E-3,6.044987E-3,-0E0,-2.3241427E-3,-7.84303E-3,-6.557765E-3,4.9290955E-3,-5.465783E-3,-8.847963E-4,4.2485718E-2,1.3505084E-2],"split_indices":[1,1,4,0,0,1,0,0,0,0,1,0,0,1,0,0,0,0,0,0,0,0,0,0,0,0,0,0,0,0,0],"split_type":[0,0,0,0,0,0,0,0,0,0,0,0,0,0,0,0,0,0,0,0,0,0,0,0,0,0,0,0,0,0,0],"sum_hessian":[4.6716E4,1.1266E4,3.545E4,3.121E3,8.145E3,1.5395E4,2.0055E4,8.25E2,2.296E3,7.943E3,2.02E2,1.0771E4,4.624E3,8.522E3,1.1533E4,4.8E1,7.77E2,1.977E3,3.19E2,5.48E2,7.395E3,1.88E2,1.4E1,1.855E3,8.916E3,2.168E3,2.456E3,3.4E3,5.122E3,2.191E3,9.342E3],"tree_param":{"num_deleted":"0","num_feature":"5","num_nodes":"31","size_leaf_vector":"1"}},{"base_weights":[-2.643067E-3,-1.0494464E-1,2.994426E-2,-1.6889447E-1,-7.769613E-2,-5.290751E-2,9.755309E-2,-1.8118343E-1,-0E0,-1.08598866E-1,-5.5697847E-2,-6.233153E-2,1.3445854E-2,2.8090093E-1,1.396929E-2,-1.1007564E-2,-2.0378362E-2,8.443631E-3,-1.1123023E-4,-0E0,-1.0826985E-2,-7.1159666E-3,-3.4592405E-3,-3.0670087E-3,-6.234353E-3,-0E0,2.0365015E-2,1.616569E-2,4.1575234E-2,7.365422E-3,-3.5710002E-3],"categories":[],"categories_nodes":[],"categories_segments":[],"categories_sizes":[],"default_left":[0,0,0,0,0,0,0,0,0,0,0,0,0,0,0,0,0,0,0,0,0,0,0,0,0,0,0,0,0,0,0],"id":18,"left_children":[1,3,5,7,9,11,13,15,17,19,21,23,25,27,29,-1,-1,-1,-1,-1,-1,-1,-1,-1,-1,-1,-1,-1,-1,-1,-1],"loss_changes":[1.5675732E2,1.7899063E1,1.9904074E2,7.68808E0,4.200199E0,1.0315338E1,2.978286E2,5.3618393E0,4.3354324E-1,3.7962532E0,1.0296993E0,1.7200432E0,6.3019295E0,1.0608496E2,4.851554E1,0E0,0E0,0E0,0E0,0E0,0E0,0E0,0E0,0E0,0E0,0E0,0E0,0E0,0E0,0E0,0E0],"parents":[2147483647,0,0,1,1,2,2,3,3,4,4,5,5,6,6,7,7,8,8,9,9,10,10,11,11,12,12,13,13,14,14],"right_children":[2,4,6,8,10,12,14,16,18,20,22,24,26,28,30,-1,-1,-1,-1,-1,-1,-1,-1,-1,-1,-1,-1,-1,-1,-1,-1],"split_conditions":[-5.015E-1,-1.0465E0,-2E0,1.487E3,1E0,-8.7E1,2.63E2,-5.1E1,1.873E3,-1.968E3,-2.7E1,-1.153E3,6.514E-1,2.154E-1,5.89E2,-1.1007564E-2,-2.0378362E-2,8.443631E-3,-1.1123023E-4,-0E0,-1.0826985E-2,-7.1159666E-3,-3.4592405E-3,-3.0670087E-3,-6.234353E-3,-0E0,2.0365015E-2,1.616569E-2,4.1575234E-2,7.365422E-3,-3.5710002E-3],"split_indices":[1,1,0,0,4,0,0,0,0,0,0,0,1,1,0,0,0,0,0,0,0,0,0,0,0,0,0,0,0,0,0],"split_type":[0,0,0,0,0,0,0,0,0,0,0,0,0,0,0,0,0,0,0,0,0,0,0,0,0,0,0,0,0,0,0],"sum_hessian":[4.6846E4,1.1375E4,3.5471E4,3.313E3,8.062E3,1.5887E4,1.9584E4,3.113E3,2E2,3.205E3,4.857E3,1.4014E4,1.873E3,6.103E3,1.3481E4,1.377E3,1.736E3,5E1,1.5E2,2.76E2,2.929E3,1.933E3,2.924E3,2.751E3,1.1263E4,1.741E3,1.32E2,3.884E3,2.219E3,6.031E3,7.45E3],"tree_param":{"num_deleted":"0","num_feature":"5","num_nodes":"31","size_leaf_vector":"1"}},{"base_weights":[7.3950354E-4,-6.860061E-2,4.7853548E-2,-1.1989648E-1,-3.6603004E-2,-4.7725182E-2,1.18146434E-1,-1.4530948E-1,-8.4789306E-2,-1.3840118E-2,-8.91246E-2,-6.837283E-2,-1.1388901E-2,2.2764097E-1,1.35601135E-2,-8.970287E-3,-1.5858682E-2,-0E0,-8.383797E-3,-5.0426163E-3,1.2576068E-3,-1.7315455E-4,-9.086772E-3,-0E0,-6.9539035E-3,1.378428E-5,-6.58013E-3,1.1919171E-2,3.2843187E-2,5.3224163E-3,-4.774623E-3],"categories":[],"categories_nodes":[],"categories_segments":[],"categories_sizes":[],"default_left":[0,0,0,0,0,0,0,0,0,0,0,0,0,0,0,0,0,0,0,0,0,0,0,0,0,0,0,0,0,0,0],"id":19,"left_children":[1,3,5,7,9,11,13,15,17,19,21,23,25,27,29,-1,-1,-1,-1,-1,-1,-1,-1,-1,-1,-1,-1,-1,-1,-1,-1],"loss_changes":[1.5312543E2,2.9828453E1,1.8870226E2,4.605713E0,1.3237403E1,8.247648E0,1.8345622E2,3.360382E0,2.5040684E0,9.892394E0,2.4802723E0,4.018627E0,3.6763613E0,9.775937E1,2.479434E1,0E0,0E0,0E0,0E0,0E0,0E0,0E0,0E0,0E0,0E0,0E0,0E0,0E0,0E0,0E0,0E0],"parents":[2147483647,0,0,1,1,2,2,3,3,4,4,5,5,6,6,7,7,8,8,9,9,10,10,11,11,12,12,13,13,14,14],"right_children":[2,4,6,8,10,12,14,16,18,20,22,24,26,28,30,-1,-1,-1,-1,-1,-1,-1,-1,-1,-1,-1,-1,-1,-1,-1,-1],"split_conditions":[-2.174E-1,-7.23E-1,-3.9E1,-9.685E-1,1E0,-3.57E2,4.24E2,-5.1E1,-1.037E3,-2.1E1,-1.822E3,-2.886E3,5.252E-1,2.629E-1,8.57E2,-8.970287E-3,-1.5858682E-2,-0E0,-8.383797E-3,-5.0426163E-3,1.2576068E-3,-1.7315455E-4,-9.086772E-3,-0E0,-6.9539035E-3,1.378428E-5,-6.58013E-3,1.1919171E-2,3.2843187E-2,5.3224163E-3,-4.774623E-3],"split_indices":[1,1,0,1,2,0,0,0,0,0,0,0,1,1,0,0,0,0,0,0,0,0,0,0,0,0,0,0,0,0,0],"split_type":[0,0,0,0,0,0,0,0,0,0,0,0,0,0,0,0,0,0,0,0,0,0,0,0,0,0,0,0,0,0,0],"sum_hessian":[4.6921E4,1.8916E4,2.8005E4,7.173E3,1.1743E4,1.1821E4,1.6184E4,4.032E3,3.141E3,8.296E3,3.447E3,7.401E3,4.42E3,7.87E3,8.314E3,1.658E3,2.374E3,1.95E2,2.946E3,3.424E3,4.872E3,4.62E2,2.985E3,8.09E2,6.592E3,3.61E3,8.1E2,4.608E3,3.262E3,5.016E3,3.298E3],"tree_param":{"num_deleted":"0","num_feature":"5","num_nodes":"31","size_leaf_vector":"1"}},{"base_weights":[-2.6090886E-3,-5.06798E-2,3.5947144E-2,-5.75262E-2,-8.782928E-3,2.4871747E-1,7.933434E-3,-2.595298E-2,-6.495336E-2,3.916782E-4,-6.436609E-2,2.5596524E-2,2.7984923E-1,4.040462E-2,-4.9552575E-2,-0E0,-2.9151954E-3,-4.4939276E-3,-9.007063E-3,-8.69838E-5,6.7575043E-3,-7.359004E-3,-0E0,-0E0,2.7351046E-3,3.4143887E-2,1.3869884E-2,-1.0560786E-2,5.2431035E-3,-5.4417835E-3,6.699193E-5],"categories":[],"categories_nodes":[],"categories_segments":[],"categories_sizes":[],"default_left":[0,0,0,0,0,0,0,0,0,0,0,0,0,0,0,0,0,0,0,0,0,0,0,0,0,0,0,0,0,0,0],"id":20,"left_children":[1,3,5,7,9,11,13,15,17,19,21,23,25,27,29,-1,-1,-1,-1,-1,-1,-1,-1,-1,-1,-1,-1,-1,-1,-1,-1],"loss_changes":[8.747286E1,5.5267677E0,1.5336203E2,3.5008392E0,2.0888467E0,1.8459702E1,4.2983444E1,5.642092E-1,6.430626E0,8.270124E-1,4.2092776E-1,9.6345514E-2,2.7633698E1,3.973214E1,4.7462025E0,0E0,0E0,0E0,0E0,0E0,0E0,0E0,0E0,0E0,0E0,0E0,0E0,0E0,0E0,0E0,0E0],"parents":[2147483647,0,0,1,1,2,2,3,3,4,4,5,5,6,6,7,7,8,8,9,9,10,10,11,11,12,12,13,13,14,14],"right_children":[2,4,6,8,10,12,14,16,18,20,22,24,26,28,30,-1,-1,-1,-1,-1,-1,-1,-1,-1,-1,-1,-1,-1,-1,-1,-1],"split_conditions":[4E0,-1E2,1.04E2,-1.037E3,-1.6E1,1.7E1,1E0,-3.707E3,1E0,-2.1E1,-2E0,1E0,6.6E1,1.51E2,2.454E3,-0E0,-2.9151954E-3,-4.4939276E-3,-9.007063E-3,-8.69838E-5,6.7575043E-3,-7.359004E-3,-0E0,-0E0,2.7351046E-3,3.4143887E-2,1.3869884E-2,-1.0560786E-2,5.2431035E-3,-5.4417835E-3,6.699193E-5],"split_indices":[0,0,0,0,0,0,2,0,2,0,0,4,0,0,0,0,0,0,0,0,0,0,0,0,0,0,0,0,0,0,0],"split_type":[0,0,0,0,0,0,0,0,0,0,0,0,0,0,0,0,0,0,0,0,0,0,0,0,0,0,0,0,0,0,0],"sum_hessian":[4.7133E4,2.1068E4,2.6065E4,1.7949E4,3.119E3,3E3,2.3065E4,3.618E3,1.4331E4,2.557E3,5.62E2,3.98E2,2.602E3,1.4826E4,8.239E3,7.03E2,2.915E3,1.0019E4,4.312E3,2.408E3,1.49E2,4.19E2,1.43E2,4E0,3.94E2,1.448E3,1.154E3,1.43E3,1.3396E4,6.962E3,1.277E3],"tree_param":{"num_deleted":"0","num_feature":"5","num_nodes":"31","size_leaf_vector":"1"}},{"base_weights":[5.05996E-3,-3.8113248E-2,7.126398E-2,-8.999246E-2,-1.2734444E-2,-3.637547E-2,1.4993937E-1,-1.3308308E-1,-6.4658016E-2,-5.5611562E-2,1.5133387E-2,-6.223171E-2,-8.333128E-3,2.4022576E-1,-2.256028E-2,-1.3352917E-2,6.3499995E-3,-6.2977932E-3,-0E0,3.4033923E-4,-5.8483924E-3,-3.8984376E-3,5.5999653E-3,-8.076887E-4,-8.68926E-3,-0E0,-1.27021745E-2,3.029647E-2,1.4451608E-2,-5.123147E-3,7.0495065E-3],"categories":[],"categories_nodes":[],"categories_segments":[],"categories_sizes":[],"default_left":[0,0,0,0,0,0,0,0,0,0,0,0,0,0,0,0,0,0,0,0,0,0,0,0,0,0,0,0,0,0,0],"id":21,"left_children":[1,3,5,7,9,11,13,15,17,19,21,23,25,27,29,-1,-1,-1,-1,-1,-1,-1,-1,-1,-1,-1,-1,-1,-1,-1,-1],"loss_changes":[1.3498796E2,3.6671387E1,1.5905438E2,8.554604E0,2.3271847E1,5.138669E0,1.7040027E2,9.9321785E0,1.9864368E0,4.464205E0,3.1278366E1,6.2018585E0,3.50433E0,5.018637E1,1.2344357E1,0E0,0E0,0E0,0E0,0E0,0E0,0E0,0E0,0E0,0E0,0E0,0E0,0E0,0E0,0E0,0E0],"parents":[2147483647,0,0,1,1,2,2,3,3,4,4,5,5,6,6,7,7,8,8,9,9,10,10,11,11,12,12,13,13,14,14],"right_children":[2,4,6,8,10,12,14,16,18,20,22,24,26,28,30,-1,-1,-1,-1,-1,-1,-1,-1,-1,-1,-1,-1,-1,-1,-1,-1],"split_conditions":[6.99E-2,-6.072E-1,-5.1E1,-1.0465E0,1E0,1E0,6.59E2,1.731E3,1.129E3,-1.822E3,4E0,-9.75E2,8.793E-1,2.41E2,6.28E-1,-1.3352917E-2,6.3499995E-3,-6.2977932E-3,-0E0,3.4033923E-4,-5.8483924E-3,-3.8984376E-3,5.5999653E-3,-8.076887E-4,-8.68926E-3,-0E0,-1.27021745E-2,3.029647E-2,1.4451608E-2,-5.123147E-3,7.0495065E-3],"split_indices":[1,1,0,1,4,4,0,0,0,0,0,0,1,0,1,0,0,0,0,0,0,0,0,0,0,0,0,0,0,0,0],"split_type":[0,0,0,0,0,0,0,0,0,0,0,0,0,0,0,0,0,0,0,0,0,0,0,0,0,0,0,0,0,0,0],"sum_hessian":[4.7137E4,2.846E4,1.8677E4,9.248E3,1.9212E4,7.845E3,1.0832E4,3.31E3,5.938E3,7.678E3,1.1534E4,3.937E3,3.908E3,7.14E3,3.692E3,3.134E3,1.76E2,5.58E3,3.58E2,8.73E2,6.805E3,5.056E3,6.478E3,1.606E3,2.331E3,3.715E3,1.93E2,3.278E3,3.862E3,2.818E3,8.74E2],"tree_param":{"num_deleted":"0","num_feature":"5","num_nodes":"31","size_leaf_vector":"1"}},{"base_weights":[-0E0,-4.449932E-2,5.6956798E-2,-8.17682E-2,-2.1274662E-2,-2.8300961E-2,1.2800817E-1,-1.2457828E-1,-5.8463546E-3,-6.2800266E-2,5.242027E-3,1.7469369E-2,-4.184594E-2,7.484583E-2,2.0038217E-1,-1.4609029E-2,-4.980918E-3,-0E0,-5.7914066E-3,-1.2065594E-4,4.6982565E-3,-1.0596521E-3,1.1221238E-2,-4.6667014E-3,-4.511342E-4,2.4669876E-3,7.2356863E-3,2.3088267E-2,1.6728505E-2],"categories":[],"categories_nodes":[],"categories_segments":[],"categories_sizes":[],"default_left":[0,0,0,0,0,0,0,0,0,0,0,0,0,0,0,0,0,0,0,0,0,0,0,0,0,0,0,0,0],"id":22,"left_children":[1,3,5,7,9,11,13,15,-1,17,19,21,23,25,27,-1,-1,-1,-1,-1,-1,-1,-1,-1,-1,-1,-1,-1,-1],"loss_changes":[1.1760432E2,2.1810066E1,1.2377935E2,5.9111176E0,1.8313084E1,5.881283E0,4.065895E1,5.226757E0,0E0,2.0759583E-1,3.3804743E0,6.941951E0,2.094118E0,6.4873505E-1,6.413574E-1,0E0,0E0,0E0,0E0,0E0,0E0,0E0,0E0,0E0,0E0,0E0,0E0,0E0,0E0],"parents":[2147483647,0,0,1,1,2,2,3,3,4,4,5,5,6,6,7,7,9,9,10,10,11,11,12,12,13,13,14,14],"right_children":[2,4,6,8,10,12,14,16,-1,18,20,22,24,26,28,-1,-1,-1,-1,-1,-1,-1,-1,-1,-1,-1,-1,-1,-1],"split_conditions":[1.63E-2,-5.703E-1,1E0,-1.1161E0,1E0,1E0,3.849E-1,1E0,-5.8463546E-3,-5.518E-1,-5.61E-2,5.738E-1,6.168E-1,5.39E-2,4.587E-1,-1.4609029E-2,-4.980918E-3,-0E0,-5.7914066E-3,-1.2065594E-4,4.6982565E-3,-1.0596521E-3,1.1221238E-2,-4.6667014E-3,-4.511342E-4,2.4669876E-3,7.2356863E-3,2.3088267E-2,1.6728505E-2],"split_indices":[1,1,4,1,4,2,1,2,0,1,1,1,1,1,1,0,0,0,0,0,0,0,0,0,0,0,0,0,0],"split_type":[0,0,0,0,0,0,0,0,0,0,0,0,0,0,0,0,0,0,0,0,0,0,0,0,0,0,0,0,0],"sum_hessian":[4.643E4,2.6125E4,2.0305E4,9.901E3,1.6224E4,9.18E3,1.1125E4,2.734E3,7.167E3,6.437E3,9.787E3,1.965E3,7.215E3,6.476E3,4.649E3,1.726E3,1.008E3,1.38E2,6.299E3,8.428E3,1.359E3,1.484E3,4.81E2,5.567E3,1.648E3,7.4E2,5.736E3,9.68E2,3.681E3],"tree_param":{"num_deleted":"0","num_feature":"5","num_nodes":"29","size_leaf_vector":"1"}},{"base_weights":[3.0987312E-3,-6.231949E-2,3.2748703E-2,-9.648897E-2,-3.4577988E-2,-2.5429364E-2,8.033229E-2,-1.05684966E-1,5.4115433E-2,-6.184665E-2,-1.499888E-2,-4.1875657E-2,-8.67687E-4,4.193756E-1,4.826423E-2,-5.8429735E-3,-1.2908686E-2,-0E0,6.503388E-3,-6.6102967E-3,-0E0,-3.0860503E-3,-0E0,-2.0198147E-5,-4.9579535E-3,7.336142E-3,-7.685577E-4,1.3660969E-2,4.5219395E-2,2.8056436E-4,1.4079491E-2],"categories":[],"categories_nodes":[],"categories_segments":[],"categories_sizes":[],"default_left":[0,0,0,0,0,0,0,0,0,0,0,0,0,0,0,0,0,0,0,0,0,0,0,0,0,0,0,0,0,0,0],"id":23,"left_children":[1,3,5,7,9,11,13,15,17,19,21,23,25,27,29,-1,-1,-1,-1,-1,-1,-1,-1,-1,-1,-1,-1,-1,-1,-1,-1],"loss_changes":[9.073215E1,1.2765335E1,8.9989105E1,9.254082E0,3.7543402E0,5.5171747E0,1.9064746E2,7.534706E0,3.9322376E-1,2.1235523E0,1.2452993E0,4.059408E0,3.1534443E0,2.703836E1,7.756918E1,0E0,0E0,0E0,0E0,0E0,0E0,0E0,0E0,0E0,0E0,0E0,0E0,0E0,0E0,0E0,0E0],"parents":[2147483647,0,0,1,1,2,2,3,3,4,4,5,5,6,6,7,7,8,8,9,9,10,10,11,11,12,12,13,13,14,14],"right_children":[2,4,6,8,10,12,14,16,18,20,22,24,26,28,30,-1,-1,-1,-1,-1,-1,-1,-1,-1,-1,-1,-1,-1,-1,-1,-1],"split_conditions":[-3.724E-1,-7.853E-1,-2E0,1.731E3,1E0,-3.57E2,7.3E1,3.5E1,-1.4262E0,1.129E3,-2.1E1,-1.536E3,-2.993E-1,1.7E1,3.641E-1,-5.8429735E-3,-1.2908686E-2,-0E0,6.503388E-3,-6.6102967E-3,-0E0,-3.0860503E-3,-0E0,-2.0198147E-5,-4.9579535E-3,7.336142E-3,-7.685577E-4,1.3660969E-2,4.5219395E-2,2.8056436E-4,1.4079491E-2],"split_indices":[1,1,0,0,4,0,0,0,1,0,0,0,1,0,1,0,0,0,0,0,0,0,0,0,0,0,0,0,0,0,0],"split_type":[0,0,0,0,0,0,0,0,0,0,0,0,0,0,0,0,0,0,0,0,0,0,0,0,0,0,0,0,0,0,0],"sum_hessian":[4.6896E4,1.4544E4,3.2352E4,6.391E3,8.153E3,1.4482E4,1.787E4,6.072E3,3.19E2,3.241E3,4.912E3,8.484E3,5.998E3,1.523E3,1.6347E4,2.942E3,3.13E3,6E1,2.59E2,2.743E3,4.98E2,2.037E3,2.875E3,2.125E3,6.359E3,4.23E2,5.575E3,3.66E2,1.157E3,1.1536E4,4.811E3],"tree_param":{"num_deleted":"0","num_feature":"5","num_nodes":"31","size_leaf_vector":"1"}},{"base_weights":[3.7973346E-3,-2.2532225E-2,8.011561E-2,-9.396113E-2,-1.21335825E-2,-2.7425041E-2,1.6733308E-1,-5.4553177E-2,-1.22735575E-1,-4.940031E-2,1.2946723E-2,-3.717341E-2,2.2922842E-2,2.7792677E-1,5.1212283E-3,-5.8490695E-3,-0E0,-1.6770132E-2,-6.3419435E-3,-3.6758644E-5,-5.3374087E-3,-2.494755E-3,4.234317E-3,-3.8319716E-4,-4.8558298E-3,6.2400773E-3,-7.205845E-3,3.2668762E-2,1.7506203E-2,4.076346E-3,-3.0763515E-3],"categories":[],"categories_nodes":[],"categories_segments":[],"categories_sizes":[],"default_left":[0,0,0,0,0,0,0,0,0,0,0,0,0,0,0,0,0,0,0,0,0,0,0,0,0,0,0,0,0,0,0],"id":24,"left_children":[1,3,5,7,9,11,13,15,17,19,21,23,25,27,29,-1,-1,-1,-1,-1,-1,-1,-1,-1,-1,-1,-1,-1,-1,-1,-1],"loss_changes":[9.498255E1,2.5097643E1,1.14986275E2,3.5396957E0,2.8849264E1,2.7605987E0,1.1880119E2,1.001718E0,5.854458E0,5.226389E0,2.482381E1,2.0457392E0,3.4088352E0,2.3401886E1,4.367019E0,0E0,0E0,0E0,0E0,0E0,0E0,0E0,0E0,0E0,0E0,0E0,0E0,0E0,0E0,0E0,0E0],"parents":[2147483647,0,0,1,1,2,2,3,3,4,4,5,5,6,6,7,7,8,8,9,9,10,10,11,11,12,12,13,13,14,14],"right_children":[2,4,6,8,10,12,14,16,18,20,22,24,26,28,30,-1,-1,-1,-1,-1,-1,-1,-1,-1,-1,-1,-1,-1,-1,-1,-1],"split_conditions":[2.751E-1,-9.332E-1,-1E1,1.1E1,1E0,-1.26E2,5.89E2,-1E2,3.88E2,-9.91E2,1.1E1,-8.28E2,-3.9E1,2.57E2,9.26E2,-5.8490695E-3,-0E0,-1.6770132E-2,-6.3419435E-3,-3.6758644E-5,-5.3374087E-3,-2.494755E-3,4.234317E-3,-3.8319716E-4,-4.8558298E-3,6.2400773E-3,-7.205845E-3,3.2668762E-2,1.7506203E-2,4.076346E-3,-3.0763515E-3],"split_indices":[1,1,0,0,4,0,0,0,0,0,0,0,0,0,0,0,0,0,0,0,0,0,0,0,0,0,0,0,0,0,0],"split_type":[0,0,0,0,0,0,0,0,0,0,0,0,0,0,0,0,0,0,0,0,0,0,0,0,0,0,0,0,0,0,0],"sum_hessian":[4.7045E4,3.4902E4,1.2143E4,4.34E3,3.0562E4,5.398E3,6.745E3,1.946E3,2.394E3,1.2419E4,1.8143E4,4.652E3,7.46E2,3.982E3,2.763E3,1.639E3,3.07E2,1.036E3,1.358E3,2.123E3,1.0296E4,8.14E3,1.0003E4,1.696E3,2.956E3,5.68E2,1.78E2,1.987E3,1.995E3,1.467E3,1.296E3],"tree_param":{"num_deleted":"0","num_feature":"5","num_nodes":"31","size_leaf_vector":"1"}},{"base_weights":[3.1631936E-3,-2.792137E-2,4.732489E-2,-7.1814656E-2,-1.2676811E-2,-2.3012217E-2,1.0601943E-1,-7.8625984E-2,-0E0,-4.965928E-2,1.1386872E-2,-2.8646406E-2,7.3691118E-3,1.8792477E-1,-4.792958E-3,-1.1617058E-2,-5.8291983E-3,3.6575813E-3,-0E0,-5.625808E-4,-4.8863497E-3,-2.1750792E-3,3.6250122E-3,-0E0,-3.4813674E-3,-7.093913E-4,1.1317412E-2,3.3658657E-2,1.2911062E-2,2.222063E-3,-4.1602347E-3],"categories":[],"categories_nodes":[],"categories_segments":[],"categories_sizes":[],"default_left":[0,0,0,0,0,0,0,0,0,0,0,0,0,0,0,0,0,0,0,0,0,0,0,0,0,0,0,0,0,0,0],"id":25,"left_children":[1,3,5,7,9,11,13,15,17,19,21,23,25,27,29,-1,-1,-1,-1,-1,-1,-1,-1,-1,-1,-1,-1,-1,-1,-1,-1],"loss_changes":[6.423414E1,1.7605309E1,8.068905E1,3.9094963E0,1.8444061E1,1.6650796E0,9.7898026E1,3.0563507E0,1.1048042E-1,9.960823E-1,1.2438195E1,2.3912263E0,2.962361E0,4.7454453E1,5.5352087E0,0E0,0E0,0E0,0E0,0E0,0E0,0E0,0E0,0E0,0E0,0E0,0E0,0E0,0E0,0E0,0E0],"parents":[2147483647,0,0,1,1,2,2,3,3,4,4,5,5,6,6,7,7,8,8,9,9,10,10,11,11,12,12,13,13,14,14],"right_children":[2,4,6,8,10,12,14,16,18,20,22,24,26,28,30,-1,-1,-1,-1,-1,-1,-1,-1,-1,-1,-1,-1,-1,-1,-1,-1],"split_conditions":[4.91E-2,-7.338E-1,4E0,1.129E3,1E0,-1E2,5.72E2,-1.3394E0,-1.619E0,-1.968E3,4E0,-9.91E2,6.28E-1,1.04E2,9.26E2,-1.1617058E-2,-5.8291983E-3,3.6575813E-3,-0E0,-5.625808E-4,-4.8863497E-3,-2.1750792E-3,3.6250122E-3,-0E0,-3.4813674E-3,-7.093913E-4,1.1317412E-2,3.3658657E-2,1.2911062E-2,2.222063E-3,-4.1602347E-3],"split_indices":[1,1,0,0,4,0,0,1,1,0,0,0,1,0,0,0,0,0,0,0,0,0,0,0,0,0,0,0,0,0,0],"split_type":[0,0,0,0,0,0,0,0,0,0,0,0,0,0,0,0,0,0,0,0,0,0,0,0,0,0,0,0,0,0,0],"sum_hessian":[4.6682E4,2.7294E4,1.9388E4,6.904E3,2.039E4,8.759E3,1.0629E4,6.392E3,5.12E2,8.165E3,1.2225E4,7.605E3,1.154E3,6.152E3,4.477E3,1.329E3,5.063E3,6.8E1,4.44E2,8.71E2,7.294E3,5.338E3,6.887E3,1.726E3,5.879E3,9.63E2,1.91E2,1.2E3,4.952E3,2.502E3,1.975E3],"tree_param":{"num_deleted":"0","num_feature":"5","num_nodes":"31","size_leaf_vector":"1"}},{"base_weights":[-1.8051818E-3,-2.1269053E-2,8.0300465E-2,-8.9780524E-2,-1.2869581E-2,-1.2192687E-2,1.5504602E-1,-3.245897E-2,-1.0242906E-1,3.5810242E-3,-4.881978E-2,1.1868537E-1,-2.6337381E-2,3.1939283E-1,6.478374E-2,-0E0,-5.577867E-3,-1.1471693E-2,-3.4260077E-3,-2.6853653E-3,2.7831073E-3,-5.111654E-3,-1.2816248E-3,-0E0,2.0321613E-2,-0E0,-3.8321738E-3,2.3656813E-2,3.997625E-2,8.718173E-3,-3.4737783E-3],"categories":[],"categories_nodes":[],"categories_segments":[],"categories_sizes":[],"default_left":[0,0,0,0,0,0,0,0,0,0,0,0,0,0,0,0,0,0,0,0,0,0,0,0,0,0,0,0,0,0,0],"id":26,"left_children":[1,3,5,7,9,11,13,15,17,19,21,23,25,27,29,-1,-1,-1,-1,-1,-1,-1,-1,-1,-1,-1,-1,-1,-1,-1,-1],"loss_changes":[7.428529E1,2.1001808E1,6.2546913E1,1.8753357E0,2.037082E1,6.54775E0,7.060021E1,4.4866496E-1,3.6511078E0,2.0692703E1,2.2354813E0,3.2262654E0,1.4766831E0,6.826294E0,1.0833223E1,0E0,0E0,0E0,0E0,0E0,0E0,0E0,0E0,0E0,0E0,0E0,0E0,0E0,0E0,0E0,0E0],"parents":[2147483647,0,0,1,1,2,2,3,3,4,4,5,5,6,6,7,7,8,8,9,9,10,10,11,11,12,12,13,13,14,14],"right_children":[2,4,6,8,10,12,14,16,18,20,22,24,26,28,30,-1,-1,-1,-1,-1,-1,-1,-1,-1,-1,-1,-1,-1,-1,-1,-1],"split_conditions":[3.849E-1,-9.685E-1,-1E1,-5.43E2,1E0,4.142E-1,3.33E2,-1.1994E0,5.19E2,1.1E1,1.129E3,-4.44E2,5.538E-1,6.771E-1,1.236E3,-0E0,-5.577867E-3,-1.1471693E-2,-3.4260077E-3,-2.6853653E-3,2.7831073E-3,-5.111654E-3,-1.2816248E-3,-0E0,2.0321613E-2,-0E0,-3.8321738E-3,2.3656813E-2,3.997625E-2,8.718173E-3,-3.4737783E-3],"split_indices":[1,1,0,0,2,1,0,1,0,0,0,0,1,1,0,0,0,0,0,0,0,0,0,0,0,0,0,0,0,0,0],"split_type":[0,0,0,0,0,0,0,0,0,0,0,0,0,0,0,0,0,0,0,0,0,0,0,0,0,0,0,0,0,0,0],"sum_hessian":[4.6771E4,3.7885E4,8.886E3,4.036E3,3.3849E4,3.925E3,4.961E3,8.41E2,3.195E3,2.3074E4,1.0775E4,3.29E2,3.596E3,1.728E3,3.233E3,4.87E2,3.54E2,2.247E3,9.48E2,1.0241E4,1.2833E4,8.688E3,2.087E3,1.72E2,1.57E2,1.364E3,2.232E3,1.204E3,5.24E2,2.54E3,6.93E2],"tree_param":{"num_deleted":"0","num_feature":"5","num_nodes":"31","size_leaf_vector":"1"}},{"base_weights":[-2.4809802E-3,-2.8224E-2,4.6513323E-2,-5.6931533E-2,-9.04661E-3,7.8457095E-2,-9.180512E-3,-9.473008E-2,-4.3399528E-2,-5.0272446E-2,1.839114E-2,6.134592E-2,1.6327923E-2,-1.6056769E-2,2.980833E-3,-3.7569867E-3,-1.2208229E-2,-1.4390892E-3,-4.4584833E-3,-6.8995036E-4,-4.8363986E-3,-3.9753897E-4,2.5317715E-3,2.2913602E-3,7.274979E-3,-6.99687E-4,-9.069071E-3,1.7167997E-3,-7.393176E-5],"categories":[],"categories_nodes":[],"categories_segments":[],"categories_sizes":[],"default_left":[0,0,0,0,0,0,0,0,0,0,0,0,0,0,0,0,0,0,0,0,0,0,0,0,0,0,0,0,0],"id":27,"left_children":[1,3,5,7,9,11,13,15,17,19,21,23,-1,25,27,-1,-1,-1,-1,-1,-1,-1,-1,-1,-1,-1,-1,-1,-1],"loss_changes":[5.9317646E1,1.6557749E1,2.9243462E1,5.192505E0,2.146098E1,1.6039993E1,5.862066E-1,5.145981E0,9.2920494E-1,4.8713303E-1,2.5873356E0,5.209572E0,0E0,2.0384953E0,2.4247059E-1,0E0,0E0,0E0,0E0,0E0,0E0,0E0,0E0,0E0,0E0,0E0,0E0,0E0,0E0],"parents":[2147483647,0,0,1,1,2,2,3,3,4,4,5,5,6,6,7,7,8,8,9,9,10,10,11,11,13,13,14,14],"right_children":[2,4,6,8,10,12,14,16,18,20,22,24,-1,26,28,-1,-1,-1,-1,-1,-1,-1,-1,-1,-1,-1,-1,-1,-1],"split_conditions":[1.529E-1,-4.601E-1,1E0,-1.0669E0,1E0,7.35E-1,6.168E-1,1E0,-8.829E-1,-3.93E-1,-2.741E-1,3.064E-1,1.6327923E-2,5.738E-1,7.516E-1,-3.7569867E-3,-1.2208229E-2,-1.4390892E-3,-4.4584833E-3,-6.8995036E-4,-4.8363986E-3,-3.9753897E-4,2.5317715E-3,2.2913602E-3,7.274979E-3,-6.99687E-4,-9.069071E-3,1.7167997E-3,-7.393176E-5],"split_indices":[1,1,2,1,4,1,1,4,1,1,1,1,0,1,1,0,0,0,0,0,0,0,0,0,0,0,0,0,0],"split_type":[0,0,0,0,0,0,0,0,0,0,0,0,0,0,0,0,0,0,0,0,0,0,0,0,0,0,0,0,0],"sum_hessian":[4.7143E4,3.1009E4,1.6134E4,1.2256E4,1.8753E4,1.0342E4,5.792E3,3.079E3,9.177E3,7.607E3,1.1146E4,8.913E3,1.429E3,4.109E3,1.683E3,1.396E3,1.683E3,1.801E3,7.376E3,6.64E2,6.943E3,3.034E3,8.112E3,3.185E3,5.728E3,3.821E3,2.88E2,7.19E2,9.64E2],"tree_param":{"num_deleted":"0","num_feature":"5","num_nodes":"29","size_leaf_vector":"1"}},{"base_weights":[-0E0,-1.7067749E-2,4.8655603E-2,-6.7690566E-2,-9.087337E-3,-3.1404212E-2,1.0576012E-1,-2.7633455E-2,-9.710381E-2,6.525119E-3,-4.4954978E-2,-1.8639773E-2,-8.0086164E-2,1.6777594E-1,-1.5276781E-2,8.352423E-4,-3.3804628E-3,-1.253307E-2,-2.9218937E-3,-2.4567414E-3,2.9534202E-3,-4.1171839E-4,-4.906377E-3,-3.5921414E-3,-0E0,-0E0,-8.288717E-3,1.130953E-2,2.630354E-2,1.2690296E-3,-4.4070957E-3],"categories":[],"categories_nodes":[],"categories_segments":[],"categories_sizes":[],"default_left":[0,0,0,0,0,0,0,0,0,0,0,0,0,0,0,0,0,0,0,0,0,0,0,0,0,0,0,0,0,0,0],"id":28,"left_children":[1,3,5,7,9,11,13,15,17,19,21,23,25,27,29,-1,-1,-1,-1,-1,-1,-1,-1,-1,-1,-1,-1,-1,-1,-1,-1],"loss_changes":[3.8773327E1,1.3437495E1,5.591262E1,4.4457397E0,1.7179523E1,2.3268118E0,5.4641E1,9.442271E-1,5.4095383E0,1.822687E1,2.9428616E0,1.6782743E0,5.852828E-1,2.1812195E1,2.572423E0,0E0,0E0,0E0,0E0,0E0,0E0,0E0,0E0,0E0,0E0,0E0,0E0,0E0,0E0,0E0,0E0],"parents":[2147483647,0,0,1,1,2,2,3,3,4,4,5,5,6,6,7,7,8,8,9,9,10,10,11,11,12,12,13,13,14,14],"right_children":[2,4,6,8,10,12,14,16,18,20,22,24,26,28,30,-1,-1,-1,-1,-1,-1,-1,-1,-1,-1,-1,-1,-1,-1,-1,-1],"split_conditions":[2.751E-1,-9.15E-1,-6.3E1,-2E0,1E0,7.516E-1,1E0,-1.822E3,5.28E2,4E0,-1.037E3,-5.72E2,-1.822E3,6.638E-1,9.26E2,8.352423E-4,-3.3804628E-3,-1.253307E-2,-2.9218937E-3,-2.4567414E-3,2.9534202E-3,-4.1171839E-4,-4.906377E-3,-3.5921414E-3,-0E0,-0E0,-8.288717E-3,1.130953E-2,2.630354E-2,1.2690296E-3,-4.4070957E-3],"split_indices":[1,1,0,0,2,1,2,0,0,0,0,0,0,1,0,0,0,0,0,0,0,0,0,0,0,0,0,0,0,0,0],"split_type":[0,0,0,0,0,0,0,0,0,0,0,0,0,0,0,0,0,0,0,0,0,0,0,0,0,0,0,0,0,0,0],"sum_hessian":[4.6845E4,3.4742E4,1.2103E4,4.598E3,3.0144E4,4.982E3,7.121E3,2.059E3,2.539E3,2.0851E4,9.293E3,4.074E3,9.08E2,4.751E3,2.37E3,2.57E2,1.802E3,1.485E3,1.054E3,8.967E3,1.1884E4,1.857E3,7.436E3,1.979E3,2.095E3,1.38E2,7.7E2,3.552E3,1.199E3,1.136E3,1.234E3],"tree_param":{"num_deleted":"0","num_feature":"5","num_nodes":"31","size_leaf_vector":"1"}},{"base_weights":[-3.237812E-4,-4.7703113E-2,1.4406349E-2,-9.5911495E-2,-3.83397E-2,-2.7790682E-2,4.8648838E-2,-2.7826002E-2,-1.3601273E-1,-0E0,-4.2173754E-2,-3.8813647E-2,-1.0684672E-2,3.114332E-1,2.3719093E-2,-3.3716634E-3,-0E0,-1.9281436E-2,-5.2220235E-3,-2.816281E-3,6.3396065E-4,-5.7459525E-3,-2.6703665E-3,-3.056969E-3,-8.493823E-3,2.2091596E-4,-5.874208E-3,7.616102E-3,3.3986375E-2,7.3461497E-4,1.265979E-2],"categories":[],"categories_nodes":[],"categories_segments":[],"categories_sizes":[],"default_left":[0,0,0,0,0,0,0,0,0,0,0,0,0,0,0,0,0,0,0,0,0,0,0,0,0,0,0,0,0,0,0],"id":29,"left_children":[1,3,5,7,9,11,13,15,17,19,21,23,25,27,29,-1,-1,-1,-1,-1,-1,-1,-1,-1,-1,-1,-1,-1,-1,-1,-1],"loss_changes":[3.2993313E1,4.0316906E0,5.1680496E1,3.3490486E0,1.3310633E0,2.6069155E0,1.2699773E2,3.3536804E-1,3.8479233E0,2.3876874E-1,1.6065378E0,1.6575632E0,5.0831313E0,2.0483078E1,3.1563644E1,0E0,0E0,0E0,0E0,0E0,0E0,0E0,0E0,0E0,0E0,0E0,0E0,0E0,0E0,0E0,0E0],"parents":[2147483647,0,0,1,1,2,2,3,3,4,4,5,5,6,6,7,7,8,8,9,9,10,10,11,11,12,12,13,13,14,14],"right_children":[2,4,6,8,10,12,14,16,18,20,22,24,26,28,30,-1,-1,-1,-1,-1,-1,-1,-1,-1,-1,-1,-1,-1,-1,-1,-1],"split_conditions":[-5.015E-1,-1.2991E0,-2E0,-6.3E1,-8.92E2,-3.46E2,7.3E1,-1.32E2,4.03E2,-2.886E3,1E0,-3.99E2,-6.3E1,1.7E1,6.168E-1,-3.3716634E-3,-0E0,-1.9281436E-2,-5.2220235E-3,-2.816281E-3,6.3396065E-4,-5.7459525E-3,-2.6703665E-3,-3.056969E-3,-8.493823E-3,2.2091596E-4,-5.874208E-3,7.616102E-3,3.3986375E-2,7.3461497E-4,1.265979E-2],"split_indices":[1,1,0,0,0,0,0,0,0,0,4,0,0,0,1,0,0,0,0,0,0,0,0,0,0,0,0,0,0,0,0],"split_type":[0,0,0,0,0,0,0,0,0,0,0,0,0,0,0,0,0,0,0,0,0,0,0,0,0,0,0,0,0,0,0],"sum_hessian":[4.6903E4,1.1249E4,3.5654E4,1.694E3,9.555E3,1.587E4,1.9784E4,7E2,9.94E2,9.1E2,8.645E3,9.374E3,6.496E3,1.687E3,1.8097E4,6.37E2,6.3E1,4.54E2,5.4E2,2.13E2,6.97E2,3.034E3,5.611E3,8.695E3,6.79E2,5.11E3,1.386E3,3.91E2,1.296E3,1.6001E4,2.096E3],"tree_param":{"num_deleted":"0","num_feature":"5","num_nodes":"31","size_leaf_vector":"1"}},{"base_weights":[1.2142715E-3,-4.9652E-2,1.7672276E-2,-5.6551255E-2,4.5347475E-2,-2.3095004E-2,5.080018E-2,-3.3771012E-2,-7.956965E-2,-0E0,4.5992345E-2,3.1289905E-3,-2.9770052E-2,3.220277E-1,2.7878301E-2,-3.8583742E-3,7.922092E-3,-1.2565045E-2,-6.256248E-3,4.8550395E-3,-0E0,3.5033955E-3,-4.284098E-4,-2.3903693E-3,-6.877912E-3,-2.2366902E-2,3.0040119E-2,9.942551E-4,1.084817E-2],"categories":[],"categories_nodes":[],"categories_segments":[],"categories_sizes":[],"default_left":[0,0,0,0,0,0,0,0,0,0,0,0,0,0,0,0,0,0,0,0,0,0,0,0,0,0,0,0,0],"id":30,"left_children":[1,3,5,7,9,11,13,15,17,-1,19,21,23,25,27,-1,-1,-1,-1,-1,-1,-1,-1,-1,-1,-1,-1,-1,-1],"loss_changes":[3.9067497E1,7.536709E0,4.829387E1,4.7129974E0,3.4483552E-2,2.9827032E0,1.20030106E2,5.4741006E0,1.6168785E0,0E0,2.6105642E-3,1.0918964E0,1.2514343E0,8.070175E0,2.724493E1,0E0,0E0,0E0,0E0,0E0,0E0,0E0,0E0,0E0,0E0,0E0,0E0,0E0,0E0],"parents":[2147483647,0,0,1,1,2,2,3,3,4,4,5,5,6,6,7,7,8,8,10,10,11,11,12,12,13,13,14,14],"right_children":[2,4,6,8,10,12,14,16,18,-1,20,22,24,26,28,-1,-1,-1,-1,-1,-1,-1,-1,-1,-1,-1,-1,-1,-1],"split_conditions":[-5.103E-1,1.357E3,-2E0,7.3E1,1E0,-9.91E2,6.6E1,2.2E1,-1.3394E0,-0E0,-6.895E-1,-1.52E-1,-3.4E1,1E0,5.44E-1,-3.8583742E-3,7.922092E-3,-1.2565045E-2,-6.256248E-3,4.8550395E-3,-0E0,3.5033955E-3,-4.284098E-4,-2.3903693E-3,-6.877912E-3,-2.2366902E-2,3.0040119E-2,9.942551E-4,1.084817E-2],"split_indices":[1,0,0,0,2,0,0,0,1,0,1,1,0,4,1,0,0,0,0,0,0,0,0,0,0,0,0,0,0],"split_type":[0,0,0,0,0,0,0,0,0,0,0,0,0,0,0,0,0,0,0,0,0,0,0,0,0,0,0,0,0],"sum_hessian":[4.6964E4,1.1365E4,3.5599E4,1.0672E4,6.93E2,1.5854E4,1.9745E4,5.534E3,5.138E3,3E0,6.9E2,2.98E3,1.2874E4,1.512E3,1.8233E4,5.223E3,3.11E2,6.8E2,4.458E3,5.12E2,1.78E2,7.2E2,2.26E3,1.213E4,7.44E2,9E0,1.503E3,1.5458E4,2.775E3],"tree_param":{"num_deleted":"0","num_feature":"5","num_nodes":"29","size_leaf_vector":"1"}},{"base_weights":[-1.1604008E-3,-2.2633746E-2,2.165803E-2,-4.7948365E-3,-3.953434E-2,-2.2215903E-2,5.801836E-2,-1.9755466E-2,1.18226156E-1,-1.2278184E-1,-2.6678454E-2,-1.0871605E-2,-6.842885E-2,-1.5539767E-2,1.1600624E-1,6.54406E-4,-2.1783388E-3,-1.1447408E-2,1.5497892E-2,-1.1519252E-2,-0E0,1.0353504E-2,-3.8872557E-3,-2.7393803E-3,1.4526346E-3,-0E0,-6.649872E-3,1.8872917E-3,-2.551724E-3,1.81846E-2,2.7515884E-3],"categories":[],"categories_nodes":[],"categories_segments":[],"categories_sizes":[],"default_left":[0,0,0,0,0,0,0,0,0,0,0,0,0,0,0,0,0,0,0,0,0,0,0,0,0,0,0,0,0,0,0],"id":31,"left_children":[1,3,5,7,9,11,13,15,17,19,21,23,25,27,29,-1,-1,-1,-1,-1,-1,-1,-1,-1,-1,-1,-1,-1,-1,-1,-1],"loss_changes":[2.2924507E1,6.9722185E0,3.6171303E1,2.1378408E1,1.1934113E1,4.6768336E0,5.3675385E1,1.3576632E0,1.6309504E1,1.153759E0,2.3645977E1,4.379629E0,7.104206E-1,2.520411E0,4.864515E1,0E0,0E0,0E0,0E0,0E0,0E0,0E0,0E0,0E0,0E0,0E0,0E0,0E0,0E0,0E0,0E0],"parents":[2147483647,0,0,1,1,2,2,3,3,4,4,5,5,6,6,7,7,8,8,9,9,10,10,11,11,12,12,13,13,14,14],"right_children":[2,4,6,8,10,12,14,16,18,20,22,24,26,28,30,-1,-1,-1,-1,-1,-1,-1,-1,-1,-1,-1,-1,-1,-1,-1,-1],"split_conditions":[-4.96E-2,8.5E1,1E0,4E0,1.8E2,9.84E2,4E0,-1.822E3,-9.15E-1,1E0,2.36E2,3.6E2,-5.6E-3,9.73E-2,2.52E2,6.54406E-4,-2.1783388E-3,-1.1447408E-2,1.5497892E-2,-1.1519252E-2,-0E0,1.0353504E-2,-3.8872557E-3,-2.7393803E-3,1.4526346E-3,-0E0,-6.649872E-3,1.8872917E-3,-2.551724E-3,1.81846E-2,2.7515884E-3],"split_indices":[1,0,4,0,0,0,0,0,1,2,0,0,1,1,0,0,0,0,0,0,0,0,0,0,0,0,0,0,0,0,0],"split_type":[0,0,0,0,0,0,0,0,0,0,0,0,0,0,0,0,0,0,0,0,0,0,0,0,0,0,0,0,0,0,0],"sum_hessian":[4.677E4,2.4271E4,2.2499E4,1.2032E4,1.2239E4,1.0099E4,1.24E4,1.0784E4,1.248E3,1.556E3,1.0683E4,8.244E3,1.855E3,5.407E3,6.993E3,1.21E3,9.574E3,1.94E2,1.054E3,1.531E3,2.5E1,1.048E3,9.635E3,4.968E3,3.276E3,1.01E2,1.754E3,1.229E3,4.178E3,3.483E3,3.51E3],"tree_param":{"num_deleted":"0","num_feature":"5","num_nodes":"31","size_leaf_vector":"1"}},{"base_weights":[-0E0,-2.298601E-2,3.051798E-2,-4.5187604E-3,-1.5502713E-2,-8.692568E-3,6.4034574E-2,-2.8608555E-2,-6.0557467E-3,2.4146585E-2,-1.1803932E-2,3.3424776E-2,8.879647E-2,-3.2479796E-3,-1.4245085E-3,-1.2168048E-3,5.6225574E-4,2.3302652E-3,-0E0,-1.4686605E-3,6.402404E-4,4.43289E-3,-1.6951055E-3,8.2222E-3,-0E0],"categories":[],"categories_nodes":[],"categories_segments":[],"categories_sizes":[],"default_left":[0,0,0,0,0,0,0,0,0,0,0,0,0,0,0,0,0,0,0,0,0,0,0,0,0],"id":32,"left_children":[1,3,5,-1,7,9,11,13,15,17,19,21,23,-1,-1,-1,-1,-1,-1,-1,-1,-1,-1,-1,-1],"loss_changes":[3.30143E1,4.8340044E0,2.7120155E1,0E0,2.3400865E0,8.4926426E-1,7.4277763E0,3.8278913E-1,1.1877236E0,2.6345253E-4,7.836182E-1,4.3044786E0,5.524025E-1,0E0,0E0,0E0,0E0,0E0,0E0,0E0,0E0,0E0,0E0,0E0,0E0],"parents":[2147483647,0,0,1,1,2,2,4,4,5,5,6,6,7,7,8,8,9,9,10,10,11,11,12,12],"right_children":[2,4,6,-1,8,10,12,14,16,18,20,22,24,-1,-1,-1,-1,-1,-1,-1,-1,-1,-1,-1,-1],"split_conditions":[2.63E-2,-8.263E-1,1E0,-4.5187604E-3,1E0,6.99E-2,3.002E-1,-2.358E-1,-1.994E-1,6.51E-2,7.188E-1,2.396E-1,1.0444E0,-3.2479796E-3,-1.4245085E-3,-1.2168048E-3,5.6225574E-4,2.3302652E-3,-0E0,-1.4686605E-3,6.402404E-4,4.43289E-3,-1.6951055E-3,8.2222E-3,-0E0],"split_indices":[1,1,4,0,4,1,1,1,1,1,1,1,1,0,0,0,0,0,0,0,0,0,0,0,0],"split_type":[0,0,0,0,0,0,0,0,0,0,0,0,0,0,0,0,0,0,0,0,0,0,0,0,0],"sum_hessian":[4.6995E4,2.6687E4,2.0308E4,5.606E3,2.1081E4,9.252E3,1.1056E4,8.485E3,1.2596E4,5.84E2,8.668E3,5.085E3,5.971E3,5.078E3,3.407E3,8.274E3,4.322E3,5.18E2,6.6E1,7.375E3,1.293E3,4.042E3,1.043E3,5.816E3,1.55E2],"tree_param":{"num_deleted":"0","num_feature":"5","num_nodes":"25","size_leaf_vector":"1"}},{"base_weights":[-5.23685E-3,-2.0799672E-2,2.2040451E-2,-8.267341E-3,-3.2093644E-2,-2.449067E-2,6.0560897E-2,-2.4064649E-2,2.4609713E-1,-9.437168E-2,-2.0010335E-2,-2.1048088E-2,-3.0781016E-1,1.12661935E-1,-9.133644E-3,-0E0,-2.8631398E-3,-5.25404E-3,2.897396E-2,-6.75807E-3,-1.5442011E-2,8.223996E-3,-3.1961037E-3,-1.3254379E-3,-5.769623E-3,-0E0,-3.259984E-2,7.9483455E-3,2.6299028E-2,4.1015106E-4,-3.7151019E-3],"categories":[],"categories_nodes":[],"categories_segments":[],"categories_sizes":[],"default_left":[0,0,0,0,0,0,0,0,0,0,0,0,0,0,0,0,0,0,0,0,0,0,0,0,0,0,0,0,0,0,0],"id":33,"left_children":[1,3,5,7,9,11,13,15,17,19,21,23,25,27,29,-1,-1,-1,-1,-1,-1,-1,-1,-1,-1,-1,-1,-1,-1,-1,-1],"loss_changes":[1.9854668E1,3.9284601E0,3.042424E1,5.66822E1,1.0728022E1,4.7775445E0,3.454776E1,2.3797917E0,2.0207E1,1.7275925E0,2.1424303E1,1.4381509E0,1.375248E0,2.101426E1,1.9784862E0,0E0,0E0,0E0,0E0,0E0,0E0,0E0,0E0,0E0,0E0,0E0,0E0,0E0,0E0,0E0,0E0],"parents":[2147483647,0,0,1,1,2,2,3,3,4,4,5,5,6,6,7,7,8,8,9,9,10,10,11,11,12,12,13,13,14,14],"right_children":[2,4,6,8,10,12,14,16,18,20,22,24,26,28,30,-1,-1,-1,-1,-1,-1,-1,-1,-1,-1,-1,-1,-1,-1,-1,-1],"split_conditions":[1.255E-1,6E1,-1E1,1.7E1,1.8E2,-1.6E1,5.72E2,-8.45E2,-7.717E-1,-4.44E-2,2.47E2,7.863E-1,1.529E-1,7.516E-1,1E3,-0E0,-2.8631398E-3,-5.25404E-3,2.897396E-2,-6.75807E-3,-1.5442011E-2,8.223996E-3,-3.1961037E-3,-1.3254379E-3,-5.769623E-3,-0E0,-3.259984E-2,7.9483455E-3,2.6299028E-2,4.1015106E-4,-3.7151019E-3],"split_indices":[1,0,0,0,0,0,0,0,1,1,0,1,1,1,0,0,0,0,0,0,0,0,0,0,0,0,0,0,0,0,0],"split_type":[0,0,0,0,0,0,0,0,0,0,0,0,0,0,0,0,0,0,0,0,0,0,0,0,0,0,0,0,0,0,0],"sum_hessian":[4.6793E4,2.9976E4,1.6817E4,1.4536E4,1.544E4,7.525E3,9.292E3,1.3715E4,8.21E2,2.404E3,1.3036E4,7.462E3,6.3E1,5.381E3,3.911E3,3.321E3,1.0394E4,1.38E2,6.83E2,1.983E3,4.21E2,1.511E3,1.1525E4,6.636E3,8.26E2,6E0,5.7E1,4.749E3,6.32E2,2.564E3,1.347E3],"tree_param":{"num_deleted":"0","num_feature":"5","num_nodes":"31","size_leaf_vector":"1"}},{"base_weights":[-0E0,-3.531849E-2,1.7791035E-2,-1.5162644E-2,-5.344883E-2,-1.4472232E-2,4.4707987E-2,-2.8762072E-2,1.306434E-1,-6.2430244E-2,2.7240023E-3,-1.0501131E-2,-7.3335245E-2,2.9499507E-1,2.2685053E-2,1.5294217E-3,-3.5822878E-3,-1.7112778E-2,2.928957E-2,-9.446643E-3,-4.7854716E-3,2.878489E-3,-8.120577E-4,-7.076323E-5,-1.6401239E-3,-7.5166915E-3,-0E0,2.7653448E-2,-0E0,-6.9279564E-3,3.2969203E-3],"categories":[],"categories_nodes":[],"categories_segments":[],"categories_sizes":[],"default_left":[0,0,0,0,0,0,0,0,0,0,0,0,0,0,0,0,0,0,0,0,0,0,0,0,0,0,0,0,0,0,0],"id":34,"left_children":[1,3,5,7,9,11,13,15,17,19,21,23,25,27,29,-1,-1,-1,-1,-1,-1,-1,-1,-1,-1,-1,-1,-1,-1,-1,-1],"loss_changes":[2.941707E1,5.17877E0,2.7439257E1,1.4291317E1,4.514801E0,2.6466482E0,9.23828E1,3.5840263E0,3.7761948E1,1.6333942E0,5.1055056E-1,8.3327496E-1,1.0924368E0,3.3050537E0,2.1015415E1,0E0,0E0,0E0,0E0,0E0,0E0,0E0,0E0,0E0,0E0,0E0,0E0,0E0,0E0,0E0,0E0],"parents":[2147483647,0,0,1,1,2,2,3,3,4,4,5,5,6,6,7,7,8,8,9,9,10,10,11,11,12,12,13,13,14,14],"right_children":[2,4,6,8,10,12,14,16,18,20,22,24,26,28,30,-1,-1,-1,-1,-1,-1,-1,-1,-1,-1,-1,-1,-1,-1,-1,-1],"split_conditions":[-3.318E-1,6.6E1,4E0,4E0,1.129E3,8.059E-1,7.3E1,-9.91E2,-8.127E-1,1.8E2,2.184E3,1.083E-1,-1E1,8.288E-1,1.63E2,1.5294217E-3,-3.5822878E-3,-1.7112778E-2,2.928957E-2,-9.446643E-3,-4.7854716E-3,2.878489E-3,-8.120577E-4,-7.076323E-5,-1.6401239E-3,-7.5166915E-3,-0E0,2.7653448E-2,-0E0,-6.9279564E-3,3.2969203E-3],"split_indices":[1,0,0,0,0,1,0,0,1,0,0,1,0,1,0,0,0,0,0,0,0,0,0,0,0,0,0,0,0,0,0],"split_type":[0,0,0,0,0,0,0,0,0,0,0,0,0,0,0,0,0,0,0,0,0,0,0,0,0,0,0,0,0,0,0],"sum_hessian":[4.6959E4,1.5634E4,3.1325E4,7.607E3,8.027E3,1.4116E4,1.7209E4,7.007E3,6E2,7.04E3,9.87E2,1.3348E4,7.68E2,1.363E3,1.5846E4,1.19E3,5.817E3,2.1E2,3.9E2,1.187E3,5.853E3,4.75E2,5.12E2,6.286E3,7.062E3,7.63E2,5E0,1.316E3,4.7E1,1.846E3,1.4E4],"tree_param":{"num_deleted":"0","num_feature":"5","num_nodes":"31","size_leaf_vector":"1"}},{"base_weights":[-1.8204615E-3,-2.2234648E-2,1.9622907E-2,-7.1054045E-3,-3.6204305E-2,4.3740083E-2,-2.2874972E-2,-1.6959723E-2,1.5180536E-1,-1.0125424E-1,-2.3973426E-2,-1.2451786E-2,8.765915E-2,-6.2554874E-3,-5.5626184E-2,-1.3512518E-3,-1.6376E-2,-0E0,2.0805156E-2,-9.454958E-3,-0E0,8.5888365E-3,-3.0248845E-3,6.883278E-4,-3.77078E-3,2.3297181E-2,5.100888E-3,-2.2719055E-3,3.9331694E-3,-3.2943934E-3,-7.2269887E-3],"categories":[],"categories_nodes":[],"categories_segments":[],"categories_sizes":[],"default_left":[0,0,0,0,0,0,0,0,0,0,0,0,0,0,0,0,0,0,0,0,0,0,0,0,0,0,0,0,0,0,0],"id":35,"left_children":[1,3,5,7,9,11,13,15,17,19,21,23,25,27,29,-1,-1,-1,-1,-1,-1,-1,-1,-1,-1,-1,-1,-1,-1,-1,-1],"loss_changes":[2.0457233E1,4.7568884E0,2.33088E1,1.748994E1,8.78195E0,3.6429993E1,3.9046993E0,2.2948737E0,9.105185E0,4.3444633E-1,1.1037156E1,3.9264774E0,4.1337296E1,4.9712152E0,2.8123045E-1,0E0,0E0,0E0,0E0,0E0,0E0,0E0,0E0,0E0,0E0,0E0,0E0,0E0,0E0,0E0,0E0],"parents":[2147483647,0,0,1,1,2,2,3,3,4,4,5,5,6,6,7,7,8,8,9,9,10,10,11,11,12,12,13,13,14,14],"right_children":[2,4,6,8,10,12,14,16,18,20,22,24,26,28,30,-1,-1,-1,-1,-1,-1,-1,-1,-1,-1,-1,-1,-1,-1,-1,-1],"split_conditions":[-4.96E-2,7.3E1,1E0,2.8E1,1.86E2,4E0,8.57E2,-5.61E-2,-7.007E-1,-7.28E-2,2.25E2,3.442E-1,9.1E1,4.95E2,4.51E-1,-1.3512518E-3,-1.6376E-2,-0E0,2.0805156E-2,-9.454958E-3,-0E0,8.5888365E-3,-3.0248845E-3,6.883278E-4,-3.77078E-3,2.3297181E-2,5.100888E-3,-2.2719055E-3,3.9331694E-3,-3.2943934E-3,-7.2269887E-3],"split_indices":[1,0,2,0,0,0,0,1,1,1,0,1,0,0,1,0,0,0,0,0,0,0,0,0,0,0,0,0,0,0,0],"split_type":[0,0,0,0,0,0,0,0,0,0,0,0,0,0,0,0,0,0,0,0,0,0,0,0,0,0,0,0,0,0,0],"sum_hessian":[4.6686E4,2.4103E4,2.2583E4,1.1839E4,1.2264E4,1.4524E4,8.059E3,1.1194E4,6.45E2,1.84E3,1.0424E4,6.294E3,8.23E3,5.504E3,2.555E3,1.11E4,9.4E1,1.88E2,4.57E2,1.782E3,5.8E1,6.99E2,9.725E3,3.567E3,2.727E3,1.256E3,6.974E3,4.107E3,1.397E3,1.592E3,9.63E2],"tree_param":{"num_deleted":"0","num_feature":"5","num_nodes":"31","size_leaf_vector":"1"}},{"base_weights":[-8.643977E-4,5.4402216E-3,-2.569645E-2,-1.0817367E-2,2.7362801E-2,-3.2440837E-2,7.6257177E-3,-8.614477E-3,-6.348724E-2,1.9529568E-1,9.823244E-3,-3.722331E-2,-4.1845048E-4,-0E0,9.564822E-3,-9.169809E-4,1.1870074E-2,-5.8810194E-3,-0E0,7.984757E-3,2.0318134E-2,-4.989703E-3,2.9903266E-3,-4.0575312E-3,-6.427663E-4,4.5568537E-4,-1.551894E-2,2.187471E-3,-0E0],"categories":[],"categories_nodes":[],"categories_segments":[],"categories_sizes":[],"default_left":[0,0,0,0,0,0,0,0,0,0,0,0,0,0,0,0,0,0,0,0,0,0,0,0,0,0,0,0,0],"id":36,"left_children":[1,3,5,7,9,11,13,15,17,19,21,23,25,-1,27,-1,-1,-1,-1,-1,-1,-1,-1,-1,-1,-1,-1,-1,-1],"loss_changes":[7.49921E0,1.3368816E1,2.3833995E0,1.8895872E0,4.5595078E1,9.7784233E-1,3.1922527E-2,3.2654233E0,1.0412574E-1,2.0545769E0,2.15786E1,1.1684475E0,2.485873E0,0E0,8.406846E-2,0E0,0E0,0E0,0E0,0E0,0E0,0E0,0E0,0E0,0E0,0E0,0E0,0E0,0E0],"parents":[2147483647,0,0,1,1,2,2,3,3,4,4,5,5,6,6,7,7,8,8,9,9,10,10,11,11,12,12,14,14],"right_children":[2,4,6,8,10,12,14,16,18,20,22,24,26,-1,28,-1,-1,-1,-1,-1,-1,-1,-1,-1,-1,-1,-1,-1,-1],"split_conditions":[5.89E2,1.1E1,2.315E3,-1.6E1,6E1,1E0,2.454E3,-2.1E1,1E0,2.2E1,1.8E2,1.129E3,1E3,-0E0,3.179E3,-9.169809E-4,1.1870074E-2,-5.8810194E-3,-0E0,7.984757E-3,2.0318134E-2,-4.989703E-3,2.9903266E-3,-4.0575312E-3,-6.427663E-4,4.5568537E-4,-1.551894E-2,2.187471E-3,-0E0],"split_indices":[0,0,0,0,0,3,0,0,3,0,0,0,0,0,0,0,0,0,0,0,0,0,0,0,0,0,0,0,0],"split_type":[0,0,0,0,0,0,0,0,0,0,0,0,0,0,0,0,0,0,0,0,0,0,0,0,0,0,0,0,0],"sum_hessian":[4.6893E4,3.7148E4,9.745E3,2.1126E4,1.6022E4,8.299E3,1.446E3,2.042E4,7.06E2,1.473E3,1.4549E4,7.009E3,1.29E3,1.78E2,1.268E3,2.0261E4,1.59E2,7.04E2,2E0,3.65E2,1.108E3,3.736E3,1.0813E4,5.415E3,1.594E3,1.206E3,8.4E1,3.45E2,9.23E2],"tree_param":{"num_deleted":"0","num_feature":"5","num_nodes":"29","size_leaf_vector":"1"}},{"base_weights":[5.468327E-4,-8.458876E-3,2.778664E-2,-9.470243E-2,-6.465662E-3,5.599608E-2,-1.6790088E-2,-2.0615121E-2,-1.3376314E-2,-2.0527912E-2,2.87278E-3,4.5248248E-2,9.797662E-2,-3.1410176E-2,3.4891886E-3,-0E0,-4.295991E-3,1.5504731E-4,-1.9495332E-3,-1.1406818E-3,1.4236288E-3,4.6780333E-3,-0E0,1.0935426E-2,3.9432095E-3,-0E0,-3.5555563E-3,4.829737E-3,-4.054665E-4],"categories":[],"categories_nodes":[],"categories_segments":[],"categories_sizes":[],"default_left":[0,0,0,0,0,0,0,0,0,0,0,0,0,0,0,0,0,0,0,0,0,0,0,0,0,0,0,0,0],"id":37,"left_children":[1,3,5,7,9,11,13,15,-1,17,19,21,23,25,27,-1,-1,-1,-1,-1,-1,-1,-1,-1,-1,-1,-1,-1,-1],"loss_changes":[1.1613622E1,5.211955E0,1.517545E1,1.4170427E0,4.6290464E0,2.1998024E0,1.544574E0,2.710416E-1,0E0,4.4286633E-1,4.016372E0,1.5751534E0,3.7323666E-1,7.547772E-1,1.0318288E0,0E0,0E0,0E0,0E0,0E0,0E0,0E0,0E0,0E0,0E0,0E0,0E0,0E0,0E0],"parents":[2147483647,0,0,1,1,2,2,3,3,4,4,5,5,6,6,7,7,9,9,10,10,11,11,12,12,13,13,14,14],"right_children":[2,4,6,8,10,12,14,16,-1,18,20,22,24,26,28,-1,-1,-1,-1,-1,-1,-1,-1,-1,-1,-1,-1,-1,-1],"split_conditions":[2.812E-1,-1.5449E0,1E0,1E0,1E0,7.35E-1,6.168E-1,-1.7177E0,-1.3376314E-2,-1.3779E0,-3.318E-1,6.39E-1,9.122E-1,3.316E-1,6.771E-1,-0E0,-4.295991E-3,1.5504731E-4,-1.9495332E-3,-1.1406818E-3,1.4236288E-3,4.6780333E-3,-0E0,1.0935426E-2,3.9432095E-3,-0E0,-3.5555563E-3,4.829737E-3,-4.054665E-4],"split_indices":[1,1,2,4,4,1,1,1,0,1,1,1,1,1,1,0,0,0,0,0,0,0,0,0,0,0,0,0,0],"split_type":[0,0,0,0,0,0,0,0,0,0,0,0,0,0,0,0,0,0,0,0,0,0,0,0,0,0,0,0,0],"sum_hessian":[4.6728E4,3.4903E4,1.1825E4,7E2,3.4203E4,7.349E3,4.476E3,3.52E2,3.48E2,1.3982E4,2.0221E4,5.999E3,1.35E3,2.824E3,1.652E3,1.64E2,1.88E2,2.25E2,1.3757E4,8.892E3,1.1329E4,5.227E3,7.72E2,8.56E2,4.94E2,5.12E2,2.312E3,3.63E2,1.289E3],"tree_param":{"num_deleted":"0","num_feature":"5","num_nodes":"29","size_leaf_vector":"1"}},{"base_weights":[-4.773141E-4,-2.2498488E-2,1.5051705E-2,1.7569046E-3,-3.1244608E-2,8.849019E-2,8.1333594E-4,2.1695875E-2,-5.663015E-3,-1.4899328E-2,-3.352132E-2,2.376111E-2,1.8729728E-1,-1.00039005E-1,1.1914796E-2,-0E0,6.381769E-3,9.759575E-4,-1.1601876E-3,1.9563811E-3,-3.1083974E-3,-1.5952076E-3,-3.4882443E-3,-1.0042813E-2,3.6895678E-3,-0E0,2.399913E-2,-0E0,-1.0578321E-2,1.3763995E-2,-2.8224493E-4],"categories":[],"categories_nodes":[],"categories_segments":[],"categories_sizes":[],"default_left":[0,0,0,0,0,0,0,0,0,0,0,0,0,0,0,0,0,0,0,0,0,0,0,0,0,0,0,0,0,0,0],"id":38,"left_children":[1,3,5,7,9,11,13,15,17,19,21,23,25,27,29,-1,-1,-1,-1,-1,-1,-1,-1,-1,-1,-1,-1,-1,-1,-1,-1],"loss_changes":[1.613604E1,4.3984594E0,2.7918755E1,8.604898E-1,1.69096E-1,2.6209923E1,2.5076296E1,1.9753067E0,4.0511006E-1,1.6561334E0,5.3375626E-1,5.5183487E0,2.3475067E1,3.2269363E0,4.4762596E1,0E0,0E0,0E0,0E0,0E0,0E0,0E0,0E0,0E0,0E0,0E0,0E0,0E0,0E0,0E0,0E0],"parents":[2147483647,0,0,1,1,2,2,3,3,4,4,5,5,6,6,7,7,8,8,9,9,10,10,11,11,12,12,13,13,14,14],"right_children":[2,4,6,8,10,12,14,16,18,20,22,24,26,28,30,-1,-1,-1,-1,-1,-1,-1,-1,-1,-1,-1,-1,-1,-1,-1,-1],"split_conditions":[-4.5E1,-8.92E2,1.04E2,-2.445E3,-7E2,5.9E-2,1.75E2,-3.17E3,1E0,1E0,-4.678E-1,-1.0465E0,4E0,1.15E2,2.36E2,-0E0,6.381769E-3,9.759575E-4,-1.1601876E-3,1.9563811E-3,-3.1083974E-3,-1.5952076E-3,-3.4882443E-3,-1.0042813E-2,3.6895678E-3,-0E0,2.399913E-2,-0E0,-1.0578321E-2,1.3763995E-2,-2.8224493E-4],"split_indices":[0,0,0,0,0,1,0,0,2,2,1,1,0,0,0,0,0,0,0,0,0,0,0,0,0,0,0,0,0,0,0],"split_type":[0,0,0,0,0,0,0,0,0,0,0,0,0,0,0,0,0,0,0,0,0,0,0,0,0,0,0,0,0,0,0],"sum_hessian":[4.7016E4,1.9651E4,2.7365E4,4.972E3,1.4679E4,4.355E3,2.301E4,1.633E3,3.339E3,2.213E3,1.2466E4,2.679E3,1.676E3,2.212E3,2.0798E4,1.077E3,5.56E2,6.78E2,2.661E3,6.27E2,1.586E3,3.289E3,9.177E3,2.47E2,2.432E3,4.97E2,1.179E3,3.41E2,1.871E3,2.071E3,1.8727E4],"tree_param":{"num_deleted":"0","num_feature":"5","num_nodes":"31","size_leaf_vector":"1"}},{"base_weights":[9.782421E-4,9.219773E-3,-2.0561313E-2,-1.8507529E-3,4.9891077E-2,-3.1536985E-2,-0E0,5.1062563E-3,-7.915142E-2,1.8075985E-1,5.919236E-3,-4.345693E-2,1.3764955E-2,1.1764464E-2,-3.0953025E-2,-4.1671138E-4,6.711277E-3,-1.0859972E-2,-5.7587615E-4,-1.1852852E-2,2.195545E-2,-1.1754604E-3,1.2972599E-2,-2.4159946E-3,-8.850793E-3,2.9248495E-3,-5.198767E-3,4.4093333E-4,1.106652E-2,-4.4322233E-3,-0E0],"categories":[],"categories_nodes":[],"categories_segments":[],"categories_sizes":[],"default_left":[0,0,0,0,0,0,0,0,0,0,0,0,0,0,0,0,0,0,0,0,0,0,0,0,0,0,0,0,0,0,0],"id":39,"left_children":[1,3,5,7,9,11,13,15,17,19,21,23,25,27,29,-1,-1,-1,-1,-1,-1,-1,-1,-1,-1,-1,-1,-1,-1,-1,-1],"loss_changes":[8.239683E0,1.5769257E1,3.082975E0,1.4949545E1,4.1510403E1,4.825177E0,1.4055614E0,1.6820206E1,5.779563E0,3.5612507E1,1.5549909E1,5.286868E0,1.9456642E0,1.4556901E0,8.907886E-1,0E0,0E0,0E0,0E0,0E0,0E0,0E0,0E0,0E0,0E0,0E0,0E0,0E0,0E0,0E0,0E0],"parents":[2147483647,0,0,1,1,2,2,3,3,4,4,5,5,6,6,7,7,8,8,9,9,10,10,11,11,12,12,13,13,14,14],"right_children":[2,4,6,8,10,12,14,16,18,20,22,24,26,28,30,-1,-1,-1,-1,-1,-1,-1,-1,-1,-1,-1,-1,-1,-1,-1,-1],"split_conditions":[4.47E2,1.91E2,1.924E-1,1.15E2,2.47E2,1.487E3,1.357E3,1.1E1,1.63E2,-7.462E-1,4.663E-1,8.85E2,4.91E-2,1.129E3,3.927E3,-4.1671138E-4,6.711277E-3,-1.0859972E-2,-5.7587615E-4,-1.1852852E-2,2.195545E-2,-1.1754604E-3,1.2972599E-2,-2.4159946E-3,-8.850793E-3,2.9248495E-3,-5.198767E-3,4.4093333E-4,1.106652E-2,-4.4322233E-3,-0E0],"split_indices":[0,0,1,0,0,0,0,0,0,1,1,0,1,0,0,0,0,0,0,0,0,0,0,0,0,0,0,0,0,0,0],"split_type":[0,0,0,0,0,0,0,0,0,0,0,0,0,0,0,0,0,0,0,0,0,0,0,0,0,0,0,0,0,0,0],"sum_hessian":[4.6913E4,3.4192E4,1.2721E4,2.6726E4,7.466E3,8.507E3,4.214E3,2.4427E4,2.299E3,1.833E3,5.633E3,6.871E3,1.636E3,3.211E3,1.003E3,2.131E4,3.117E3,1.41E3,8.89E2,2.79E2,1.554E3,4.901E3,7.32E2,5.345E3,1.526E3,1.386E3,2.5E2,3.088E3,1.23E2,7.78E2,2.25E2],"tree_param":{"num_deleted":"0","num_feature":"5","num_nodes":"31","size_leaf_vector":"1"}},{"base_weights":[1.6220128E-4,-1.1694206E-2,9.238509E-3,2.8799288E-2,-1.9045338E-2,-1.0724203E-2,2.6258685E-2,-0E0,3.0254747E-3,-3.0221615E-2,-4.6317535E-3,-6.977945E-3,-9.152725E-3,1.4072077E-2,1.3498737E-2,-4.6320225E-4,-3.232803E-3,2.273826E-3,-2.0738072E-3,2.0691582E-3,-1.0398217E-3,-3.4826703E-3,2.92168E-3],"categories":[],"categories_nodes":[],"categories_segments":[],"categories_sizes":[],"default_left":[0,0,0,0,0,0,0,0,0,0,0,0,0,0,0,0,0,0,0,0,0,0,0],"id":40,"left_children":[1,3,5,7,9,11,13,-1,-1,15,17,-1,19,-1,21,-1,-1,-1,-1,-1,-1,-1,-1],"loss_changes":[5.0320234E0,5.8716908E0,9.280571E0,3.8783622E-1,2.4788709E0,5.969552E-1,2.2916998E1,0E0,0E0,9.37253E-1,4.1709085E0,0E0,7.9205024E-1,0E0,1.2993765E1,0E0,0E0,0E0,0E0,0E0,0E0,0E0,0E0],"parents":[2147483647,0,0,1,1,2,2,3,3,4,4,5,5,6,6,9,9,10,10,12,12,14,14],"right_children":[2,4,6,8,10,12,14,-1,-1,16,18,-1,20,-1,22,-1,-1,-1,-1,-1,-1,-1,-1],"split_conditions":[1E0,-1.401E3,1.7E1,-4.31E3,6.48E2,-1.822E3,6E1,-0E0,3.0254747E-3,-8.6E2,8.71E2,-6.977945E-3,-7E2,1.4072077E-2,1.75E2,-4.6320225E-4,-3.232803E-3,2.273826E-3,-2.0738072E-3,2.0691582E-3,-1.0398217E-3,-3.4826703E-3,2.92168E-3],"split_indices":[4,0,0,0,0,0,0,0,0,0,0,0,0,0,0,0,0,0,0,0,0,0,0],"split_type":[0,0,0,0,0,0,0,0,0,0,0,0,0,0,0,0,0,0,0,0,0,0,0],"sum_hessian":[4.6938E4,1.998E4,2.6958E4,2.907E3,1.7073E4,1.2196E4,1.4762E4,3.83E2,2.524E3,9.312E3,7.761E3,1.68E2,1.2028E4,1.277E3,1.3485E4,1.893E3,7.419E3,2.788E3,4.973E3,5.78E2,1.145E4,3.459E3,1.0026E4],"tree_param":{"num_deleted":"0","num_feature":"5","num_nodes":"23","size_leaf_vector":"1"}},{"base_weights":[-5.38336E-3,-1.9746413E-2,3.9395755E-3,3.1846317E-3,-4.207363E-2,-1.7495807E-2,2.2057964E-2,-7.856662E-3,1.5918809E-1,-5.142717E-2,1.0762613E-2,-1.0945342E-2,-4.056012E-2,1.5685192E-1,6.1695734E-3,-3.318877E-4,-1.0158524E-2,-1.09365955E-2,2.1536756E-2,-4.24121E-3,-1.1017005E-2,2.7348734E-3,-7.815468E-3,-1.3747116E-3,7.264332E-4,-1.4583095E-3,-7.248627E-3,-0E0,1.681973E-2,-8.110638E-3,1.5550905E-3],"categories":[],"categories_nodes":[],"categories_segments":[],"categories_sizes":[],"default_left":[0,0,0,0,0,0,0,0,0,0,0,0,0,0,0,0,0,0,0,0,0,0,0,0,0,0,0,0,0,0,0],"id":41,"left_children":[1,3,5,7,9,11,13,15,17,19,21,23,25,27,29,-1,-1,-1,-1,-1,-1,-1,-1,-1,-1,-1,-1,-1,-1,-1,-1],"loss_changes":[6.437062E0,9.973362E0,1.1012678E1,1.6932825E1,5.1314163E0,1.5251384E0,3.195634E1,2.8130667E0,1.5086853E1,1.4758663E0,2.0733542E0,8.6367404E-1,1.711688E0,7.3672104E0,1.3991814E1,0E0,0E0,0E0,0E0,0E0,0E0,0E0,0E0,0E0,0E0,0E0,0E0,0E0,0E0,0E0,0E0],"parents":[2147483647,0,0,1,1,2,2,3,3,4,4,5,5,6,6,7,7,8,8,9,9,10,10,11,11,12,12,13,13,14,14],"right_children":[2,4,6,8,10,12,14,16,18,20,22,24,26,28,30,-1,-1,-1,-1,-1,-1,-1,-1,-1,-1,-1,-1,-1,-1,-1,-1],"split_conditions":[-2.174E-1,6.6E1,1.1E1,1.1E1,1E3,5.252E-1,9.7E1,-1E1,-9.15E-1,9.12E2,-3.058E-1,3.849E-1,-3.26E2,-8.93E-2,1.69E2,-3.318877E-4,-1.0158524E-2,-1.09365955E-2,2.1536756E-2,-4.24121E-3,-1.1017005E-2,2.7348734E-3,-7.815468E-3,-1.3747116E-3,7.264332E-4,-1.4583095E-3,-7.248627E-3,-0E0,1.681973E-2,-8.110638E-3,1.5550905E-3],"split_indices":[1,0,0,0,0,1,0,0,1,0,1,1,0,1,0,0,0,0,0,0,0,0,0,0,0,0,0,0,0,0,0],"split_type":[0,0,0,0,0,0,0,0,0,0,0,0,0,0,0,0,0,0,0,0,0,0,0,0,0,0,0,0,0,0,0],"sum_hessian":[4.7152E4,1.8888E4,2.8264E4,9.146E3,9.742E3,1.275E4,1.5514E4,8.495E3,6.51E2,8.402E3,1.34E3,1.0193E4,2.557E3,1.584E3,1.393E4,8.237E3,2.58E2,1.2E2,5.31E2,7.972E3,4.3E2,1.184E3,1.56E2,8.685E3,1.508E3,1.696E3,8.61E2,2.32E2,1.352E3,1.36E3,1.257E4],"tree_param":{"num_deleted":"0","num_feature":"5","num_nodes":"31","size_leaf_vector":"1"}},{"base_weights":[1.346349E-3,-8.543996E-3,3.0208305E-2,-1.3712122E-2,1.2678313E-3,3.1776086E-3,5.3108472E-2,-9.577997E-3,-5.693734E-2,1.3358723E-2,-2.1229498E-2,-9.544319E-3,7.99181E-3,3.0984161E-2,9.222977E-2,-1.4972232E-3,6.866947E-4,-5.469461E-3,-0E0,3.887736E-3,3.9128892E-4,1.1059166E-3,-2.2790292E-3,7.8758155E-4,-8.988765E-3,1.1467345E-3,-1.1046026E-4,4.344422E-3,-3.910374E-3,1.2798431E-2,1.1810876E-3],"categories":[],"categories_nodes":[],"categories_segments":[],"categories_sizes":[],"default_left":[0,0,0,0,0,0,0,0,0,0,0,0,0,0,0,0,0,0,0,0,0,0,0,0,0,0,0,0,0,0,0],"id":42,"left_children":[1,3,5,7,9,11,13,15,17,19,21,23,25,27,29,-1,-1,-1,-1,-1,-1,-1,-1,-1,-1,-1,-1,-1,-1,-1,-1],"loss_changes":[1.3520094E1,1.8531711E0,7.0752525E0,3.6286373E0,3.0476341E0,3.3844343E-1,4.592499E0,2.5936875E0,3.722143E-2,1.673722E0,5.860404E-1,2.5382245E0,2.8475866E-1,5.302304E0,7.241274E0,0E0,0E0,0E0,0E0,0E0,0E0,0E0,0E0,0E0,0E0,0E0,0E0,0E0,0E0,0E0,0E0],"parents":[2147483647,0,0,1,1,2,2,3,3,4,4,5,5,6,6,7,7,8,8,9,9,10,10,11,11,12,12,13,13,14,14],"right_children":[2,4,6,8,10,12,14,16,18,20,22,24,26,28,30,-1,-1,-1,-1,-1,-1,-1,-1,-1,-1,-1,-1,-1,-1,-1,-1],"split_conditions":[2.751E-1,-7.76E-2,1E0,-1.348E-1,1E0,3.641E-1,5.956E-1,-3.318E-1,1E0,-5.6E-3,-6.09E-2,3.442E-1,7.863E-1,5.252E-1,7.863E-1,-1.4972232E-3,6.866947E-4,-5.469461E-3,-0E0,3.887736E-3,3.9128892E-4,1.1059166E-3,-2.2790292E-3,7.8758155E-4,-8.988765E-3,1.1467345E-3,-1.1046026E-4,4.344422E-3,-3.910374E-3,1.2798431E-2,1.1810876E-3],"split_indices":[1,1,4,1,2,1,1,1,3,1,1,1,1,1,1,0,0,0,0,0,0,0,0,0,0,0,0,0,0,0,0],"split_type":[0,0,0,0,0,0,0,0,0,0,0,0,0,0,0,0,0,0,0,0,0,0,0,0,0,0,0,0,0,0,0],"sum_hessian":[4.6772E4,3.4634E4,1.2138E4,2.3205E4,1.1429E4,5.723E3,6.415E3,2.1344E4,1.861E3,7.659E3,3.77E3,1.127E3,4.596E3,4.225E3,2.19E3,1.554E4,5.804E3,1.675E3,1.86E2,1.599E3,6.06E3,1.81E2,3.589E3,8.64E2,2.63E2,3.621E3,9.75E2,3.528E3,6.97E2,1.296E3,8.94E2],"tree_param":{"num_deleted":"0","num_feature":"5","num_nodes":"31","size_leaf_vector":"1"}},{"base_weights":[-5.0174835E-4,-1.0273948E-2,2.6159268E-2,-3.5646574E-3,-2.7623506E-2,-1.7800782E-2,5.670143E-2,-2.4893608E-2,9.280088E-3,7.481225E-2,-2.9759675E-2,-4.869016E-3,-6.449653E-2,1.03016615E-1,2.6006598E-3,-2.8841775E-3,3.2668547E-3,2.0933008E-2,6.266189E-4,-0E0,1.8378716E-2,-3.1942527E-3,-0E0,-0E0,-3.5069042E-3,-4.176119E-4,-8.717617E-3,6.5653967E-3,1.7843742E-2,2.2038035E-3,-4.71387E-3],"categories":[],"categories_nodes":[],"categories_segments":[],"categories_sizes":[],"default_left":[0,0,0,0,0,0,0,0,0,0,0,0,0,0,0,0,0,0,0,0,0,0,0,0,0,0,0,0,0,0,0],"id":43,"left_children":[1,3,5,7,9,11,13,15,17,19,21,23,25,27,29,-1,-1,-1,-1,-1,-1,-1,-1,-1,-1,-1,-1,-1,-1,-1,-1],"loss_changes":[1.2062728E1,3.766281E0,1.6860722E1,7.0149107E0,1.6804304E0,2.4495573E0,1.7672346E1,4.0051703E0,6.30717E0,1.0400809E0,1.5063181E0,5.980246E-1,9.939463E-1,9.103275E0,3.893639E0,0E0,0E0,0E0,0E0,0E0,0E0,0E0,0E0,0E0,0E0,0E0,0E0,0E0,0E0,0E0,0E0],"parents":[2147483647,0,0,1,1,2,2,3,3,4,4,5,5,6,6,7,7,8,8,9,9,10,10,11,11,12,12,13,13,14,14],"right_children":[2,4,6,8,10,12,14,16,18,20,22,24,26,28,30,-1,-1,-1,-1,-1,-1,-1,-1,-1,-1,-1,-1,-1,-1,-1,-1],"split_conditions":[2.693E-1,4.4E2,-9.4E1,-4.143E-1,-1.7177E0,-2.45E2,4.79E2,3.27E2,-4.079E-1,1.357E3,1E0,1E0,4.51E-1,6.771E-1,1.236E3,-2.8841775E-3,3.2668547E-3,2.0933008E-2,6.266189E-4,-0E0,1.8378716E-2,-3.1942527E-3,-0E0,-0E0,-3.5069042E-3,-4.176119E-4,-8.717617E-3,6.5653967E-3,1.7843742E-2,2.2038035E-3,-4.71387E-3],"split_indices":[1,0,0,1,1,0,0,0,1,0,3,3,1,1,0,0,0,0,0,0,0,0,0,0,0,0,0,0,0,0,0],"split_type":[0,0,0,0,0,0,0,0,0,0,0,0,0,0,0,0,0,0,0,0,0,0,0,0,0,0,0,0,0,0,0],"sum_hessian":[4.6774E4,3.4442E4,1.2332E4,2.5161E4,9.281E3,4.951E3,7.381E3,9.685E3,1.5476E4,1.15E2,9.166E3,4.008E3,9.43E2,3.899E3,3.482E3,8.82E3,8.65E2,1.3E2,1.5346E4,7.4E1,4.1E1,7.786E3,1.38E3,3.543E3,4.65E2,4.1E2,5.33E2,2.996E3,9.03E2,2.594E3,8.88E2],"tree_param":{"num_deleted":"0","num_feature":"5","num_nodes":"31","size_leaf_vector":"1"}},{"base_weights":[-5.455838E-3,-1.4575402E-2,1.4091006E-2,-3.945089E-3,-2.4312438E-2,-2.3571765E-2,4.09131E-2,-1.3896625E-2,1.5984018E-1,-6.8046E-2,-1.5274147E-2,2.1049393E-2,-3.210584E-2,9.541028E-2,-2.1020318E-3,-7.4030604E-4,-2.7907984E-3,3.1010767E-2,7.1023037E-3,-6.7795496E-3,7.0716854E-4,1.0913055E-2,-2.2804437E-3,4.3363054E-3,-2.283503E-3,-2.0904783E-3,-5.1110014E-3,5.083776E-3,1.2765687E-2,-7.893247E-4,3.1403904E-3],"categories":[],"categories_nodes":[],"categories_segments":[],"categories_sizes":[],"default_left":[0,0,0,0,0,0,0,0,0,0,0,0,0,0,0,0,0,0,0,0,0,0,0,0,0,0,0,0,0,0,0],"id":44,"left_children":[1,3,5,7,9,11,13,15,17,19,21,23,25,27,29,-1,-1,-1,-1,-1,-1,-1,-1,-1,-1,-1,-1,-1,-1,-1,-1],"loss_changes":[8.420501E0,3.1405272E0,1.5034742E1,2.4786263E1,5.897991E0,2.3764167E0,2.1203701E1,1.1513402E0,9.566353E0,1.8610582E0,1.7717312E1,1.1854501E0,5.237646E-1,5.4669113E0,9.58148E-1,0E0,0E0,0E0,0E0,0E0,0E0,0E0,0E0,0E0,0E0,0E0,0E0,0E0,0E0,0E0,0E0],"parents":[2147483647,0,0,1,1,2,2,3,3,4,4,5,5,6,6,7,7,8,8,9,9,10,10,11,11,12,12,13,13,14,14],"right_children":[2,4,6,8,10,12,14,16,18,20,22,24,26,28,30,-1,-1,-1,-1,-1,-1,-1,-1,-1,-1,-1,-1,-1,-1,-1,-1],"split_conditions":[1.924E-1,6.6E1,-7.5E1,2.2E1,1.91E2,-2.089E3,3.88E2,-1.39E2,3.5E1,1.415E-1,2.3E2,6.894E-1,-2.29E2,1.75E2,8.288E-1,-7.4030604E-4,-2.7907984E-3,3.1010767E-2,7.1023037E-3,-6.7795496E-3,7.0716854E-4,1.0913055E-2,-2.2804437E-3,4.3363054E-3,-2.283503E-3,-2.0904783E-3,-5.1110014E-3,5.083776E-3,1.2765687E-2,-7.893247E-4,3.1403904E-3],"split_indices":[1,0,0,0,0,0,0,0,0,1,0,1,0,0,1,0,0,0,0,0,0,0,0,0,0,0,0,0,0,0,0],"split_type":[0,0,0,0,0,0,0,0,0,0,0,0,0,0,0,0,0,0,0,0,0,0,0,0,0,0,0,0,0,0,0],"sum_hessian":[4.7216E4,3.2467E4,1.4749E4,1.5904E4,1.6563E4,6.014E3,8.735E3,1.5038E4,8.66E2,2.689E3,1.3874E4,8.19E2,5.195E3,3.933E3,4.802E3,1.1553E4,3.485E3,2.39E2,6.27E2,2.569E3,1.2E2,8.85E2,1.2989E4,6.26E2,1.93E2,4.008E3,1.187E3,2.19E3,1.743E3,4.251E3,5.51E2],"tree_param":{"num_deleted":"0","num_feature":"5","num_nodes":"31","size_leaf_vector":"1"}},{"base_weights":[3.0577048E-3,-3.2032456E-2,6.530052E-3,-4.302168E-2,1.8396078E-2,3.0223213E-3,3.3471614E-2,-0E0,-6.8402015E-2,9.754252E-3,-0E0,1.1958197E-2,-1.2254733E-2,-3.050348E-2,6.9716126E-2,5.349229E-4,-2.6524933E-3,-6.440903E-3,-0E0,2.0372914E-4,-0E0,3.5860998E-4,5.672789E-3,-9.109344E-3,-5.653475E-4,-0E0,-4.060395E-3,9.570472E-3,-1.1442619E-3],"categories":[],"categories_nodes":[],"categories_segments":[],"categories_sizes":[],"default_left":[0,0,0,0,0,0,0,0,0,0,0,0,0,0,0,0,0,0,0,0,0,0,0,0,0,0,0,0,0],"id":45,"left_children":[1,3,5,7,9,11,13,15,17,-1,19,21,23,25,27,-1,-1,-1,-1,-1,-1,-1,-1,-1,-1,-1,-1,-1,-1],"loss_changes":[5.518674E0,2.4214315E0,3.7699134E0,3.2670212E0,6.65698E-1,5.2143426E0,1.1171774E1,3.9941445E-1,2.0025444E-1,0E0,1.8109959E-3,9.363337E0,6.486785E0,9.163331E-1,9.721456E0,0E0,0E0,0E0,0E0,0E0,0E0,0E0,0E0,0E0,0E0,0E0,0E0,0E0,0E0],"parents":[2147483647,0,0,1,1,2,2,3,3,4,4,5,5,6,6,7,7,8,8,10,10,11,11,12,12,13,13,14,14],"right_children":[2,4,6,8,10,12,14,16,18,-1,20,22,24,26,28,-1,-1,-1,-1,-1,-1,-1,-1,-1,-1,-1,-1,-1,-1],"split_conditions":[-9.685E-1,7.82E2,5.738E-1,-1.6E2,-1.7177E0,2.82E2,-2.13E2,-1.1161E0,7.12E2,9.754252E-3,1.873E3,1.63E2,3.14E2,6.514E-1,7.58E2,5.349229E-4,-2.6524933E-3,-6.440903E-3,-0E0,2.0372914E-4,-0E0,3.5860998E-4,5.672789E-3,-9.109344E-3,-5.653475E-4,-0E0,-4.060395E-3,9.570472E-3,-1.1442619E-3],"split_indices":[1,0,1,0,1,0,0,1,0,0,0,0,0,1,0,0,0,0,0,0,0,0,0,0,0,0,0,0,0],"split_type":[0,0,0,0,0,0,0,0,0,0,0,0,0,0,0,0,0,0,0,0,0,0,0,0,0,0,0,0,0],"sum_hessian":[4.6922E4,4.023E3,4.2899E4,3.43E3,5.93E2,3.8213E4,4.686E3,1.375E3,2.055E3,7.5E1,5.18E2,2.4432E4,1.3781E4,1.617E3,3.069E3,9.45E2,4.3E2,1.953E3,1.02E2,3.6E2,1.58E2,2.1219E4,3.213E3,8.01E2,1.298E4,4.05E2,1.212E3,2.208E3,8.61E2],"tree_param":{"num_deleted":"0","num_feature":"5","num_nodes":"29","size_leaf_vector":"1"}},{"base_weights":[3.6963648E-3,-6.051338E-3,1.6644726E-2,1.9119896E-3,-5.947332E-2,1.664658E-1,1.1263485E-3,-7.5817956E-3,1.1600735E-1,-6.786506E-2,-1.8000154E-2,-6.122935E-2,1.8531929E-1,-2.425694E-3,2.7783135E-2,-4.4873892E-4,-3.931617E-3,5.9903204E-3,1.293501E-2,-3.779046E-3,-1.0193815E-2,5.751908E-4,-3.3640862E-3,-9.801268E-3,-0E0,1.0273459E-2,2.5682783E-2,8.5924414E-4,-1.0653809E-3,-6.7736185E-3,3.6551026E-3],"categories":[],"categories_nodes":[],"categories_segments":[],"categories_sizes":[],"default_left":[0,0,0,0,0,0,0,0,0,0,0,0,0,0,0,0,0,0,0,0,0,0,0,0,0,0,0,0,0,0,0],"id":46,"left_children":[1,3,5,7,9,11,13,15,17,19,21,23,25,27,29,-1,-1,-1,-1,-1,-1,-1,-1,-1,-1,-1,-1,-1,-1,-1,-1],"loss_changes":[5.96916E0,1.162193E1,4.6064358E1,2.5466862E1,5.611067E-1,8.975189E0,1.9500465E0,1.5979525E0,7.6449394E-1,2.0430298E0,5.868402E-1,5.7440555E-1,9.250774E0,1.7942815E0,2.833831E0,0E0,0E0,0E0,0E0,0E0,0E0,0E0,0E0,0E0,0E0,0E0,0E0,0E0,0E0,0E0,0E0],"parents":[2147483647,0,0,1,1,2,2,3,3,4,4,5,5,6,6,7,7,8,8,9,9,10,10,11,11,12,12,13,13,14,14],"right_children":[2,4,6,8,10,12,14,16,18,20,22,24,26,28,30,-1,-1,-1,-1,-1,-1,-1,-1,-1,-1,-1,-1,-1,-1,-1,-1],"split_conditions":[1.8E2,6.6E1,2.36E2,4E0,1.58E2,1E0,1E0,-3.9E1,2.8E1,1.27E2,1.63E2,2.25E2,2.14E2,5.28E2,3.53E2,-4.4873892E-4,-3.931617E-3,5.9903204E-3,1.293501E-2,-3.779046E-3,-1.0193815E-2,5.751908E-4,-3.3640862E-3,-9.801268E-3,-0E0,1.0273459E-2,2.5682783E-2,8.5924414E-4,-1.0653809E-3,-6.7736185E-3,3.6551026E-3],"split_indices":[0,0,0,0,0,4,3,0,0,0,0,0,0,0,0,0,0,0,0,0,0,0,0,0,0,0,0,0,0,0,0],"split_type":[0,0,0,0,0,0,0,0,0,0,0,0,0,0,0,0,0,0,0,0,0,0,0,0,0,0,0,0,0,0,0],"sum_hessian":[4.6639E4,2.6265E4,2.0374E4,2.2731E4,3.534E3,1.865E3,1.8509E4,2.0922E4,1.809E3,2.783E3,7.51E2,1.11E2,1.754E3,1.6075E4,2.434E3,1.9683E4,1.239E3,7.26E2,1.083E3,1.858E3,9.25E2,1.5E2,6.01E2,8.5E1,2.6E1,1.053E3,7.01E2,6.69E3,9.385E3,1.96E2,2.238E3],"tree_param":{"num_deleted":"0","num_feature":"5","num_nodes":"31","size_leaf_vector":"1"}},{"base_weights":[2.9625334E-3,-1.3017334E-2,1.5119748E-2,-1.5033349E-2,6.7635356E-3,1.7014401E-2,-7.055659E-2,9.7176945E-3,-2.0152109E-2,7.5646173E-3,3.475805E-2,-1.0285333E-2,6.32615E-2,-9.592373E-5,1.5922921E-3,-3.1464675E-3,-8.5291424E-4,1.8499051E-3,-6.3075908E-3,1.464223E-2,1.2441915E-3,2.8688401E-2,-8.918907E-3],"categories":[],"categories_nodes":[],"categories_segments":[],"categories_sizes":[],"default_left":[0,0,0,0,0,0,0,0,0,0,0,0,0,0,0,0,0,0,0,0,0,0,0],"id":47,"left_children":[1,3,5,7,-1,9,11,13,15,17,19,-1,21,-1,-1,-1,-1,-1,-1,-1,-1,-1,-1],"loss_changes":[9.124432E0,3.0604692E0,3.9503446E0,2.5666838E0,0E0,4.0986505E0,3.2048318E0,3.8913232E-1,2.231444E0,1.6877945E1,2.2310799E1,0E0,4.7637873E0,0E0,0E0,0E0,0E0,0E0,0E0,0E0,0E0,0E0,0E0],"parents":[2147483647,0,0,1,1,2,2,3,3,5,5,6,6,7,7,8,8,9,9,10,10,12,12],"right_children":[2,4,6,8,-1,10,12,14,16,18,20,-1,22,-1,-1,-1,-1,-1,-1,-1,-1,-1,-1],"split_conditions":[1E0,4.24E3,7.12E2,-1.267E3,6.7635356E-3,1.97E2,9.54E2,-3.458E3,3.6E2,1.15E2,2.36E2,-1.0285333E-2,1.236E3,-9.592373E-5,1.5922921E-3,-3.1464675E-3,-8.5291424E-4,1.8499051E-3,-6.3075908E-3,1.464223E-2,1.2441915E-3,2.8688401E-2,-8.918907E-3],"split_indices":[4,0,0,0,0,0,0,0,0,0,0,0,0,0,0,0,0,0,0,0,0,0,0],"split_type":[0,0,0,0,0,0,0,0,0,0,0,0,0,0,0,0,0,0,0,0,0,0,0],"sum_hessian":[4.6883E4,1.998E4,2.6903E4,1.9617E4,3.63E2,2.641E4,4.93E2,3.101E3,1.6516E4,1.7519E4,8.891E3,4.18E2,7.5E1,8.84E2,2.217E3,6.734E3,9.782E3,1.5109E4,2.41E3,1.217E3,7.674E3,4.8E1,2.7E1],"tree_param":{"num_deleted":"0","num_feature":"5","num_nodes":"23","size_leaf_vector":"1"}},{"base_weights":[8.4045524E-4,-1.0242896E-2,9.383375E-3,-1.9881204E-2,-9.164823E-5,-1.516308E-3,2.7520254E-2,-1.1918216E-2,-1.22770555E-1,1.7976498E-2,-2.0114461E-2,7.2042616E-3,-1.1692406E-1,1.16595104E-1,4.5713536E-3,-1.3636359E-3,4.8930553E-4,-1.67994E-2,-1.6220992E-3,2.5013538E-2,1.2857636E-3,-4.897902E-3,-0E0,-3.8865325E-4,4.637919E-3,-1.3482497E-2,-7.482046E-4,8.371576E-4,1.667561E-2,-2.5118415E-3,1.9419101E-3],"categories":[],"categories_nodes":[],"categories_segments":[],"categories_sizes":[],"default_left":[0,0,0,0,0,0,0,0,0,0,0,0,0,0,0,0,0,0,0,0,0,0,0,0,0,0,0,0,0,0,0],"id":48,"left_children":[1,3,5,7,9,11,13,15,17,19,21,23,25,27,29,-1,-1,-1,-1,-1,-1,-1,-1,-1,-1,-1,-1,-1,-1,-1,-1],"loss_changes":[4.42863E0,1.8006065E0,5.510426E0,7.0309825E0,3.6819165E0,1.7463745E1,2.0207678E1,5.6827796E-1,2.5805407E0,2.785469E0,3.0534372E0,8.056934E0,2.9606133E0,1.3236713E1,4.44285E0,0E0,0E0,0E0,0E0,0E0,0E0,0E0,0E0,0E0,0E0,0E0,0E0,0E0,0E0,0E0,0E0],"parents":[2147483647,0,0,1,1,2,2,3,3,4,4,5,5,6,6,7,7,8,8,9,9,10,10,11,11,12,12,13,13,14,14],"right_children":[2,4,6,8,10,12,14,16,18,20,22,24,26,28,30,-1,-1,-1,-1,-1,-1,-1,-1,-1,-1,-1,-1,-1,-1,-1,-1],"split_conditions":[1E0,3.6E2,1.63E2,1.7E1,8.71E2,1.21E2,2.3E2,-4.67E2,2.94E2,3.67E2,1.037E3,1.1E1,1.51E2,1.91E2,3.27E2,-1.3636359E-3,4.8930553E-4,-1.67994E-2,-1.6220992E-3,2.5013538E-2,1.2857636E-3,-4.897902E-3,-0E0,-3.8865325E-4,4.637919E-3,-1.3482497E-2,-7.482046E-4,8.371576E-4,1.667561E-2,-2.5118415E-3,1.9419101E-3],"split_indices":[4,0,0,0,0,0,0,0,0,0,0,0,0,0,0,0,0,0,0,0,0,0,0,0,0,0,0,0,0,0,0],"split_type":[0,0,0,0,0,0,0,0,0,0,0,0,0,0,0,0,0,0,0,0,0,0,0,0,0,0,0,0,0,0,0],"sum_hessian":[4.6843E4,1.9993E4,2.685E4,9.862E3,1.0131E4,1.6503E4,1.0347E4,9.224E3,6.38E2,5.121E3,5.01E3,1.5281E4,1.222E3,2.05E3,8.297E3,8.208E3,1.016E3,3.54E2,2.84E2,4.5E1,5.076E3,1.748E3,3.262E3,1.1969E4,3.312E3,8.92E2,3.3E2,8.32E2,1.218E3,2.685E3,5.612E3],"tree_param":{"num_deleted":"0","num_feature":"5","num_nodes":"31","size_leaf_vector":"1"}},{"base_weights":[3.8477906E-4,-9.9592265E-3,9.562558E-3,-5.7540108E-3,-8.055061E-2,5.4367155E-2,-8.455828E-3,3.8956841E-3,-8.762305E-3,-2.0996403E-2,-4.0578194E-2,3.1493265E-2,1.4643243E-1,-5.493759E-2,-1.228772E-3,-1.3393415E-3,1.3026653E-3,-1.3739436E-3,-1.7373502E-4,-0E0,-7.8303935E-3,1.14004705E-2,6.658155E-4,1.4387213E-2,-2.953203E-3,-5.217277E-3,-0E0,5.002124E-3,-8.239409E-4],"categories":[],"categories_nodes":[],"categories_segments":[],"categories_sizes":[],"default_left":[0,0,0,0,0,0,0,0,0,0,0,0,0,0,0,0,0,0,0,0,0,0,0,0,0,0,0,0,0],"id":49,"left_children":[1,3,5,7,9,11,13,15,17,-1,19,21,23,25,27,-1,-1,-1,-1,-1,-1,-1,-1,-1,-1,-1,-1,-1,-1],"loss_changes":[4.4245214E0,5.7181945E0,2.0630032E1,6.307138E-1,4.539339E0,1.4041706E1,5.537091E0,8.216969E-1,5.723897E-1,0E0,1.2278501E0,1.2447702E1,3.9464111E0,3.3797693E-1,6.4980884E0,0E0,0E0,0E0,0E0,0E0,0E0,0E0,0E0,0E0,0E0,0E0,0E0,0E0,0E0],"parents":[2147483647,0,0,1,1,2,2,3,3,4,4,5,5,6,6,7,7,8,8,10,10,11,11,12,12,13,13,14,14],"right_children":[2,4,6,8,10,12,14,16,18,-1,20,22,24,26,28,-1,-1,-1,-1,-1,-1,-1,-1,-1,-1,-1,-1,-1,-1],"split_conditions":[2.2E1,-1.6E1,2.57E2,-9.59E2,-1E1,2.14E2,3.33E2,-2.886E3,-3.57E2,-2.0996403E-2,1.1E1,6E1,1E0,1E0,4.03E2,-1.3393415E-3,1.3026653E-3,-1.3739436E-3,-1.7373502E-4,-0E0,-7.8303935E-3,1.14004705E-2,6.658155E-4,1.4387213E-2,-2.953203E-3,-5.217277E-3,-0E0,5.002124E-3,-8.239409E-4],"split_indices":[0,0,0,0,0,0,0,0,0,0,0,0,3,2,0,0,0,0,0,0,0,0,0,0,0,0,0,0,0],"split_type":[0,0,0,0,0,0,0,0,0,0,0,0,0,0,0,0,0,0,0,0,0,0,0,0,0,0,0,0,0],"sum_hessian":[4.6638E4,2.1527E4,2.5111E4,2.0421E4,1.106E3,7.326E3,1.7785E4,4.238E3,1.6183E4,1.91E2,9.15E2,5.936E3,1.39E3,2.248E3,1.5537E4,1.254E3,2.984E3,7.802E3,8.381E3,5.47E2,3.68E2,1.148E3,4.788E3,1.344E3,4.6E1,2.16E3,8.8E1,1.778E3,1.3759E4],"tree_param":{"num_deleted":"0","num_feature":"5","num_nodes":"29","size_leaf_vector":"1"}},{"base_weights":[-1.4937797E-3,-6.094422E-3,1.818719E-2,-2.9655807E-3,-5.423798E-2,-2.197549E-2,5.176083E-2,-1.9645091E-2,2.9459507E-3,-7.887929E-2,-0E0,-1.591043E-2,-1.3616028E-1,1.3945518E-1,-2.8257729E-3,-2.1526236E-3,8.446767E-3,-7.766101E-4,1.0882051E-3,-0E0,-7.841012E-3,1.2092574E-3,-3.3926598E-3,-4.2824462E-4,-4.629945E-3,-1.6182445E-2,-0E0,1.0919726E-2,2.7905574E-2,1.6003855E-3,-1.3118321E-3],"categories":[],"categories_nodes":[],"categories_segments":[],"categories_sizes":[],"default_left":[0,0,0,0,0,0,0,0,0,0,0,0,0,0,0,0,0,0,0,0,0,0,0,0,0,0,0,0,0,0,0],"id":50,"left_children":[1,3,5,7,9,11,13,15,17,19,21,23,25,27,29,-1,-1,-1,-1,-1,-1,-1,-1,-1,-1,-1,-1,-1,-1,-1,-1],"loss_changes":[4.1226354E0,5.288835E0,1.1697889E1,3.66957E0,2.7415895E0,1.4235711E0,2.3740623E1,3.9000516E0,2.742186E0,1.0244331E0,3.9885974E-1,9.9535406E-1,1.4917035E0,2.7143898E0,6.554311E-1,0E0,0E0,0E0,0E0,0E0,0E0,0E0,0E0,0E0,0E0,0E0,0E0,0E0,0E0,0E0,0E0],"parents":[2147483647,0,0,1,1,2,2,3,3,4,4,5,5,6,6,7,7,8,8,9,9,10,10,11,11,12,12,13,13,14,14],"right_children":[2,4,6,8,10,12,14,16,18,20,22,24,26,28,30,-1,-1,-1,-1,-1,-1,-1,-1,-1,-1,-1,-1,-1,-1,-1,-1],"split_conditions":[3.999E-1,3.19E-1,-1E1,-5.794E-1,3.703E-1,-3.9E1,3.88E2,2.454E3,-2.7E1,-1.536E3,1E0,8.059E-1,9.895E-1,9.122E-1,5.89E2,-2.1526236E-3,8.446767E-3,-7.766101E-4,1.0882051E-3,-0E0,-7.841012E-3,1.2092574E-3,-3.3926598E-3,-4.2824462E-4,-4.629945E-3,-1.6182445E-2,-0E0,1.0919726E-2,2.7905574E-2,1.6003855E-3,-1.3118321E-3],"split_indices":[1,1,0,1,1,0,0,0,0,0,2,1,1,1,0,0,0,0,0,0,0,0,0,0,0,0,0,0,0,0,0],"split_type":[0,0,0,0,0,0,0,0,0,0,0,0,0,0,0,0,0,0,0,0,0,0,0,0,0,0,0,0,0,0,0],"sum_hessian":[4.6571E4,3.8068E4,8.503E3,3.5897E4,2.171E3,3.766E3,4.737E3,9.738E3,2.6159E4,1.467E3,7.04E2,3.641E3,1.25E2,1.872E3,2.865E3,9.467E3,2.71E2,1.1131E4,1.5028E4,1.04E2,1.363E3,4.79E2,2.25E2,2.928E3,7.13E2,1.2E2,5E0,1.721E3,1.51E2,7.95E2,2.07E3],"tree_param":{"num_deleted":"0","num_feature":"5","num_nodes":"31","size_leaf_vector":"1"}},{"base_weights":[-4.343945E-3,-1.0784206E-2,2.1591648E-2,-3.782105E-2,-7.325556E-3,-6.9048633E-3,4.61807E-2,-5.2395374E-2,7.3807877E-3,1.7874578E-3,-1.309065E-2,-1.96573E-3,-2.2160567E-1,1.2975775E-1,5.3870548E-3,-0E0,-6.305185E-3,3.447469E-3,-0E0,-1.7143694E-4,2.4032837E-3,-2.8034085E-3,-3.8591045E-4,2.3845478E-3,-1.7102245E-3,-0E0,-2.538211E-2,5.884581E-3,1.9081598E-2,-9.1461354E-4,4.949334E-3],"categories":[],"categories_nodes":[],"categories_segments":[],"categories_sizes":[],"default_left":[0,0,0,0,0,0,0,0,0,0,0,0,0,0,0,0,0,0,0,0,0,0,0,0,0,0,0,0,0,0,0],"id":51,"left_children":[1,3,5,7,9,11,13,15,17,19,21,23,25,27,29,-1,-1,-1,-1,-1,-1,-1,-1,-1,-1,-1,-1,-1,-1,-1,-1],"loss_changes":[7.689405E0,3.157102E0,6.6242714E0,2.98588E0,1.8491963E0,2.532566E0,1.5950742E1,3.172268E0,4.3941823E-1,1.3210804E0,3.0345256E0,1.8328229E0,9.7215486E-1,6.0638695E0,2.935913E0,0E0,0E0,0E0,0E0,0E0,0E0,0E0,0E0,0E0,0E0,0E0,0E0,0E0,0E0,0E0,0E0],"parents":[2147483647,0,0,1,1,2,2,3,3,4,4,5,5,6,6,7,7,8,8,9,9,10,10,11,11,12,12,13,13,14,14],"right_children":[2,4,6,8,10,12,14,16,18,20,22,24,26,28,30,-1,-1,-1,-1,-1,-1,-1,-1,-1,-1,-1,-1,-1,-1,-1,-1],"split_conditions":[3.781E-1,-9.685E-1,-1E1,5.89E2,-1.12E2,-2.1E1,2.94E2,-6.13E2,-1.3394E0,-2.13E2,1.86E2,-8.11E2,3.999E-1,1.63E2,7.35E-1,-0E0,-6.305185E-3,3.447469E-3,-0E0,-1.7143694E-4,2.4032837E-3,-2.8034085E-3,-3.8591045E-4,2.3845478E-3,-1.7102245E-3,-0E0,-2.538211E-2,5.884581E-3,1.9081598E-2,-9.1461354E-4,4.949334E-3],"split_indices":[1,1,0,0,0,0,0,0,1,0,0,0,1,0,1,0,0,0,0,0,0,0,0,0,0,0,0,0,0,0,0],"split_type":[0,0,0,0,0,0,