{"learner":{"attributes":{"scikit_learn":"{\"_estimator_type\": \"regressor\"}"},"feature_names":["sgRNA_'Cut'_Site_TSS_Offset","rs3ChenSeqScore"],"feature_types":["int","float"],"gradient_booster":{"model":{"gbtree_model_param":{"num_parallel_tree":"1","num_trees":"83"},"iteration_indptr":[0,1,2,3,4,5,6,7,8,9,10,11,12,13,14,15,16,17,18,19,20,21,22,23,24,25,26,27,28,29,30,31,32,33,34,35,36,37,38,39,40,41,42,43,44,45,46,47,48,49,50,51,52,53,54,55,56,57,58,59,60,61,62,63,64,65,66,67,68,69,70,71,72,73,74,75,76,77,78,79,80,81,82,83],"tree_info":[0,0,0,0,0,0,0,0,0,0,0,0,0,0,0,0,0,0,0,0,0,0,0,0,0,0,0,0,0,0,0,0,0,0,0,0,0,0,0,0,0,0,0,0,0,0,0,0,0,0,0,0,0,0,0,0,0,0,0,0,0,0,0,0,0,0,0,0,0,0,0,0,0,0,0,0,0,0,0,0,0,0,0],"trees":[{"base_weights":[-3.4233856E-3,-3.0641E-1,2.1763244E-1,-3.606876E-1,-2.2132865E-1,5.551577E-1,-1.0463272E-1,-3.136436E-2,-5.183919E-2,-3.0425439E-2,-1.3246213E-2,1.14518225E-1,5.1921606E-2,6.9945483E-3,-3.019782E-2],"categories":[],"categories_nodes":[],"categories_segments":[],"categories_sizes":[],"default_left":[0,0,0,0,0,0,0,0,0,0,0,0,0,0,0],"id":0,"left_children":[1,3,5,7,9,11,13,-1,-1,-1,-1,-1,-1,-1,-1],"loss_changes":[3.2357698E3,9.3466675E1,3.0386128E3,6.832178E1,1.7627869E1,6.8895557E2,3.0701843E2,0E0,0E0,0E0,0E0,0E0,0E0,0E0,0E0],"parents":[2147483647,0,0,1,1,2,2,3,3,4,4,5,5,6,6],"right_children":[2,4,6,8,10,12,14,-1,-1,-1,-1,-1,-1,-1,-1],"split_conditions":[-3.9E1,-3.57E2,4.03E2,-1.037E3,-7.5E1,9.1E1,7.12E2,-3.136436E-2,-5.183919E-2,-3.0425439E-2,-1.3246213E-2,1.14518225E-1,5.1921606E-2,6.9945483E-3,-3.019782E-2],"split_indices":[0,0,0,0,0,0,0,0,0,0,0,0,0,0,0],"split_type":[0,0,0,0,0,0,0,0,0,0,0,0,0,0,0],"sum_hessian":[4.8303E4,2.0376E4,2.7927E4,1.2428E4,7.948E3,1.364E4,1.4287E4,3.799E3,8.629E3,6.809E3,1.139E3,3.972E3,9.668E3,6.518E3,7.769E3],"tree_param":{"num_deleted":"0","num_feature":"2","num_nodes":"15","size_leaf_vector":"1"}},{"base_weights":[-9.204084E-3,-2.7260357E-1,1.8533753E-1,-3.2389373E-1,-1.9424024E-1,5.7046336E-1,-2.5234915E-2,-2.870397E-2,-4.6248846E-2,-2.7376877E-2,-1.17281405E-2,1.00188084E-1,5.458542E-2,1.8717691E-2,-2.0486517E-2],"categories":[],"categories_nodes":[],"categories_segments":[],"categories_sizes":[],"default_left":[0,0,0,0,0,0,0,0,0,0,0,0,0,0,0],"id":1,"left_children":[1,3,5,7,9,11,13,-1,-1,-1,-1,-1,-1,-1,-1],"loss_changes":[2.4674568E3,8.167737E1,2.2463435E3,4.9509277E1,1.8100067E1,2.9944092E2,4.246906E2,0E0,0E0,0E0,0E0,0E0,0E0,0E0,0E0],"parents":[2147483647,0,0,1,1,2,2,3,3,4,4,5,5,6,6],"right_children":[2,4,6,8,10,12,14,-1,-1,-1,-1,-1,-1,-1,-1],"split_conditions":[-3.4E1,-3.57E2,2.76E2,-1.037E3,-8.1E1,9.1E1,5.89E2,-2.870397E-2,-4.6248846E-2,-2.7376877E-2,-1.17281405E-2,1.00188084E-1,5.458542E-2,1.8717691E-2,-2.0486517E-2],"split_indices":[0,0,0,0,0,0,0,0,0,0,0,0,0,0,0],"split_type":[0,0,0,0,0,0,0,0,0,0,0,0,0,0,0],"sum_hessian":[4.8144E4,2.0453E4,2.7691E4,1.235E4,8.103E3,9.787E3,1.7904E4,3.744E3,8.606E3,6.634E3,1.469E3,3.754E3,6.033E3,7.897E3,1.0007E4],"tree_param":{"num_deleted":"0","num_feature":"2","num_nodes":"15","size_leaf_vector":"1"}},{"base_weights":[4.418897E-3,-2.9475057E-1,1.0990022E-1,-4.2405593E-1,-2.1869183E-1,2.500411E-3,1.7557816E-1,-5.6442495E-2,-4.6083264E-2,-3.295546E-2,-1.8760597E-2,-5.9199873E-3,6.465406E-3,1.5207068E-2,2.7947243E-2],"categories":[],"categories_nodes":[],"categories_segments":[],"categories_sizes":[],"default_left":[0,0,0,0,0,0,0,0,0,0,0,0,0,0,0],"id":2,"left_children":[1,3,5,7,9,11,13,-1,-1,-1,-1,-1,-1,-1,-1],"loss_changes":[1.5170525E3,1.22505615E2,2.506311E2,5.07428E0,2.2934174E1,3.2394363E1,5.5164978E1,0E0,0E0,0E0,0E0,0E0,0E0,0E0,0E0],"parents":[2147483647,0,0,1,1,2,2,3,3,4,4,5,5,6,6],"right_children":[2,4,6,8,10,12,14,-1,-1,-1,-1,-1,-1,-1,-1],"split_conditions":[-4.601E-1,-9.15E-1,-1.64E-2,-1.0465E0,-5.975E-1,-2.237E-1,2.812E-1,-5.6442495E-2,-4.6083264E-2,-3.295546E-2,-1.8760597E-2,-5.9199873E-3,6.465406E-3,1.5207068E-2,2.7947243E-2],"split_indices":[1,1,1,1,1,1,1,0,0,0,0,0,0,0,0],"split_type":[0,0,0,0,0,0,0,0,0,0,0,0,0,0,0],"sum_hessian":[4.8069E4,1.2527E4,3.5542E4,4.63E3,7.897E3,1.3492E4,2.205E4,3.338E3,1.292E3,4.932E3,2.965E3,6.693E3,6.799E3,9.965E3,1.2085E4],"tree_param":{"num_deleted":"0","num_feature":"2","num_nodes":"15","size_leaf_vector":"1"}},{"base_weights":[-2.3254596E-3,-2.2761285E-1,9.963858E-2,-3.448668E-1,-1.3996083E-1,2.509629E-2,1.7559983E-1,-4.8496693E-2,-3.8013622E-2,-2.4246497E-2,-1.1698057E-2,-1.8652246E-3,6.106791E-3,1.7224021E-2,2.6221113E-2],"categories":[],"categories_nodes":[],"categories_segments":[],"categories_sizes":[],"default_left":[0,0,0,0,0,0,0,0,0,0,0,0,0,0,0],"id":3,"left_children":[1,3,5,7,9,11,13,-1,-1,-1,-1,-1,-1,-1,-1],"loss_changes":[1.1084086E3,1.5405511E2,1.8793674E2,1.0151428E1,2.0940826E1,1.5534235E1,2.0282593E1,0E0,0E0,0E0,0E0,0E0,0E0,0E0,0E0],"parents":[2147483647,0,0,1,1,2,2,3,3,4,4,5,5,6,6],"right_children":[2,4,6,8,10,12,14,-1,-1,-1,-1,-1,-1,-1,-1],"split_conditions":[-3.657E-1,-7.853E-1,1.529E-1,-1.0465E0,-5.518E-1,-1.575E-1,3.924E-1,-4.8496693E-2,-3.8013622E-2,-2.4246497E-2,-1.1698057E-2,-1.8652246E-3,6.106791E-3,1.7224021E-2,2.6221113E-2],"split_indices":[1,1,1,1,1,1,1,0,0,0,0,0,0,0,0],"split_type":[0,0,0,0,0,0,0,0,0,0,0,0,0,0,0],"sum_hessian":[4.8241E4,1.5031E4,3.321E4,6.422E3,8.609E3,1.6768E4,1.6442E4,3.398E3,3.024E3,4.102E3,4.507E3,6.163E3,1.0605E4,7.367E3,9.075E3],"tree_param":{"num_deleted":"0","num_feature":"2","num_nodes":"15","size_leaf_vector":"1"}},{"base_weights":[5.703023E-3,-2.2011101E-1,8.526496E-2,-2.9893133E-1,-1.2922464E-1,8.317397E-3,1.3863236E-1,-4.218447E-2,-3.0783074E-2,-2.2755176E-2,-1.3239808E-2,-3.2042523E-3,5.188129E-3,1.2165821E-2,2.0653868E-2],"categories":[],"categories_nodes":[],"categories_segments":[],"categories_sizes":[],"default_left":[0,0,0,0,0,0,0,0,0,0,0,0,0,0,0],"id":4,"left_children":[1,3,5,7,9,11,13,-1,-1,-1,-1,-1,-1,-1,-1],"loss_changes":[8.6395624E2,8.934955E1,1.4595502E2,1.2261902E1,7.012703E0,1.6065365E1,2.1814697E1,0E0,0E0,0E0,0E0,0E0,0E0,0E0,0E0],"parents":[2147483647,0,0,1,1,2,2,3,3,4,4,5,5,6,6],"right_children":[2,4,6,8,10,12,14,-1,-1,-1,-1,-1,-1,-1,-1],"split_conditions":[-4.601E-1,-7.59E-1,1.63E-2,-9.685E-1,-6.464E-1,-2.057E-1,2.513E-1,-4.218447E-2,-3.0783074E-2,-2.2755176E-2,-1.3239808E-2,-3.2042523E-3,5.188129E-3,1.2165821E-2,2.0653868E-2],"split_indices":[1,1,1,1,1,1,1,0,0,0,0,0,0,0,0],"split_type":[0,0,0,0,0,0,0,0,0,0,0,0,0,0,0],"sum_hessian":[4.8084E4,1.2524E4,3.556E4,6.699E3,5.825E3,1.4569E4,2.0991E4,4.099E3,2.6E3,1.88E3,3.945E3,7.173E3,7.396E3,7.751E3,1.324E4],"tree_param":{"num_deleted":"0","num_feature":"2","num_nodes":"15","size_leaf_vector":"1"}},{"base_weights":[-1.1688763E-3,-2.345778E-1,1.6671124E-1,-2.7822703E-1,-1.8343729E-1,5.022046E-1,-3.1452812E-2,-2.4800958E-2,-4.0665593E-2,-2.512889E-2,-8.790118E-3,7.4894363E-3,7.035285E-2,1.4409322E-2,-2.1667942E-2],"categories":[],"categories_nodes":[],"categories_segments":[],"categories_sizes":[],"default_left":[0,0,0,0,0,0,0,0,0,0,0,0,0,0,0],"id":5,"left_children":[1,3,5,7,9,11,13,-1,-1,-1,-1,-1,-1,-1,-1],"loss_changes":[1.89305E3,4.4652588E1,1.8683605E3,3.8274536E1,1.6081268E1,2.5048633E2,3.596733E2,0E0,0E0,0E0,0E0,0E0,0E0,0E0,0E0],"parents":[2147483647,0,0,1,1,2,2,3,3,4,4,5,5,6,6],"right_children":[2,4,6,8,10,12,14,-1,-1,-1,-1,-1,-1,-1,-1],"split_conditions":[-4.5E1,-4.44E2,2.82E2,-1.037E3,-8.1E1,-1E1,6.38E2,-2.4800958E-2,-4.0665593E-2,-2.512889E-2,-8.790118E-3,7.4894363E-3,7.035285E-2,1.4409322E-2,-2.1667942E-2],"split_indices":[0,0,0,0,0,0,0,0,0,0,0,0,0,0,0],"split_type":[0,0,0,0,0,0,0,0,0,0,0,0,0,0,0],"sum_hessian":[4.8302E4,2.0208E4,2.8094E4,1.0887E4,9.321E3,1.0431E4,1.7663E4,3.781E3,7.106E3,8.208E3,1.113E3,1.141E3,9.29E3,8.66E3,9.003E3],"tree_param":{"num_deleted":"0","num_feature":"2","num_nodes":"15","size_leaf_vector":"1"}},{"base_weights":[-4.4880243E-4,-2.0959027E-1,1.5691248E-1,-2.594316E-1,-1.6674869E-1,4.8475835E-1,-1.3827219E-2,-2.3269817E-2,-3.8891427E-2,-2.3662165E-2,-1.1036391E-2,9.268141E-2,4.323141E-2,1.2806609E-2,-1.9682702E-2],"categories":[],"categories_nodes":[],"categories_segments":[],"categories_sizes":[],"default_left":[0,0,0,0,0,0,0,0,0,0,0,0,0,0,0],"id":6,"left_children":[1,3,5,7,9,11,13,-1,-1,-1,-1,-1,-1,-1,-1],"loss_changes":[1.5887297E3,4.3845764E1,1.5421602E3,3.425476E1,1.789264E1,3.329624E2,2.9596228E2,0E0,0E0,0E0,0E0,0E0,0E0,0E0,0E0],"parents":[2147483647,0,0,1,1,2,2,3,3,4,4,5,5,6,6],"right_children":[2,4,6,8,10,12,14,-1,-1,-1,-1,-1,-1,-1,-1],"split_conditions":[-2.7E1,-5.28E2,2.7E2,-1.037E3,-1E2,8.5E1,6.88E2,-2.3269817E-2,-3.8891427E-2,-2.3662165E-2,-1.1036391E-2,9.268141E-2,4.323141E-2,1.2806609E-2,-1.9682702E-2],"split_indices":[0,0,0,0,0,0,0,0,0,0,0,0,0,0,0],"split_type":[0,0,0,0,0,0,0,0,0,0,0,0,0,0,0],"sum_hessian":[4.8265E4,2.0724E4,2.7541E4,9.564E3,1.116E4,9.43E3,1.8111E4,3.743E3,5.821E3,8.868E3,2.292E3,3.435E3,5.995E3,9.996E3,8.115E3],"tree_param":{"num_deleted":"0","num_feature":"2","num_nodes":"15","size_leaf_vector":"1"}},{"base_weights":[3.927057E-3,-1.4675878E-1,9.984833E-2,-2.3364522E-1,-6.975267E-2,5.2406333E-2,1.4960839E-1,-3.488829E-2,-2.3931563E-2,-1.6317857E-2,-5.804333E-3,4.255748E-3,9.843372E-3,1.5842006E-2,2.2505408E-2],"categories":[],"categories_nodes":[],"categories_segments":[],"categories_sizes":[],"default_left":[0,0,0,0,0,0,0,0,0,0,0,0,0,0,0],"id":7,"left_children":[1,3,5,7,9,11,13,-1,-1,-1,-1,-1,-1,-1,-1],"loss_changes":[6.982595E2,1.2547577E2,6.954697E1,1.608725E1,1.3977043E1,7.1425476E0,9.679962E0,0E0,0E0,0E0,0E0,0E0,0E0,0E0,0E0],"parents":[2147483647,0,0,1,1,2,2,3,3,4,4,5,5,6,6],"right_children":[2,4,6,8,10,12,14,-1,-1,-1,-1,-1,-1,-1,-1],"split_conditions":[-2.358E-1,-6.364E-1,2.154E-1,-9.332E-1,-5.015E-1,2.63E-2,4.908E-1,-3.488829E-2,-2.3931563E-2,-1.6317857E-2,-5.804333E-3,4.255748E-3,9.843372E-3,1.5842006E-2,2.2505408E-2],"split_indices":[1,1,1,1,1,1,1,0,0,0,0,0,0,0,0],"split_type":[0,0,0,0,0,0,0,0,0,0,0,0,0,0,0],"sum_hessian":[4.8303E4,1.8785E4,2.9518E4,8.819E3,9.966E3,1.5121E4,1.4397E4,4.495E3,4.324E3,2.845E3,7.121E3,8.727E3,6.394E3,7.783E3,6.614E3],"tree_param":{"num_deleted":"0","num_feature":"2","num_nodes":"15","size_leaf_vector":"1"}},{"base_weights":[3.673742E-4,-1.6959243E-1,1.3352208E-1,-1.9926883E-1,-8.362197E-2,7.812403E-1,6.4073704E-2,-1.7503297E-2,-2.7143894E-2,-1.39042E-2,-4.6680514E-3,4.7903527E-2,1.1969695E-1,2.9141475E-2,-1.078983E-2],"categories":[],"categories_nodes":[],"categories_segments":[],"categories_sizes":[],"default_left":[0,0,0,0,0,0,0,0,0,0,0,0,0,0,0],"id":8,"left_children":[1,3,5,7,9,11,13,-1,-1,-1,-1,-1,-1,-1,-1],"loss_changes":[1.0944563E3,5.397003E1,1.2192126E3,1.4504578E1,6.6253967E0,1.7268127E2,6.094187E2,0E0,0E0,0E0,0E0,0E0,0E0,0E0,0E0],"parents":[2147483647,0,0,1,1,2,2,3,3,4,4,5,5,6,6],"right_children":[2,4,6,8,10,12,14,-1,-1,-1,-1,-1,-1,-1,-1],"split_conditions":[-1E1,-1.97E2,7.9E1,-1.401E3,-7.5E1,1.7E1,4.63E2,-1.7503297E-2,-2.7143894E-2,-1.39042E-2,-4.6680514E-3,4.7903527E-2,1.1969695E-1,2.9141475E-2,-1.078983E-2],"split_indices":[0,0,0,0,0,0,0,0,0,0,0,0,0,0,0],"split_type":[0,0,0,0,0,0,0,0,0,0,0,0,0,0,0],"sum_hessian":[4.8354E4,2.1239E4,2.7115E4,1.578E4,5.459E3,2.621E3,2.4494E4,3.211E3,1.2569E4,3.478E3,1.981E3,7.69E2,1.852E3,1.1588E4,1.2906E4],"tree_param":{"num_deleted":"0","num_feature":"2","num_nodes":"15","size_leaf_vector":"1"}},{"base_weights":[-2.9158043E-3,-1.6719018E-1,1.11402705E-1,-2.0471236E-1,-1.3328442E-1,2.7877748E-1,-6.272919E-2,-1.6207453E-2,-3.2250185E-2,-1.9226644E-2,-1.3033019E-2,9.1264366E-5,3.992221E-2,1.6213385E-3,-1.6180376E-2],"categories":[],"categories_nodes":[],"categories_segments":[],"categories_sizes":[],"default_left":[0,0,0,0,0,0,0,0,0,0,0,0,0,0,0],"id":9,"left_children":[1,3,5,7,9,11,13,-1,-1,-1,-1,-1,-1,-1,-1],"loss_changes":[9.050004E2,2.4858704E1,8.282967E2,3.578427E1,5.7003937E0,1.489414E2,6.8740776E1,0E0,0E0,0E0,0E0,0E0,0E0,0E0,0E0],"parents":[2147483647,0,0,1,1,2,2,3,3,4,4,5,5,6,6],"right_children":[2,4,6,8,10,12,14,-1,-1,-1,-1,-1,-1,-1,-1],"split_conditions":[-5.7E1,-5.43E2,4.17E2,-1.037E3,-1.97E2,-2E0,7.24E2,-1.6207453E-2,-3.2250185E-2,-1.9226644E-2,-1.3033019E-2,9.1264366E-5,3.992221E-2,1.6213385E-3,-1.6180376E-2],"split_indices":[0,0,0,0,0,0,0,0,0,0,0,0,0,0,0],"split_type":[0,0,0,0,0,0,0,0,0,0,0,0,0,0,0],"sum_hessian":[4.8181E4,1.9772E4,2.8409E4,9.368E3,1.0404E4,1.4486E4,1.3923E4,3.73E3,5.638E3,6.39E3,4.014E3,1.704E3,1.2782E4,6.45E3,7.473E3],"tree_param":{"num_deleted":"0","num_feature":"2","num_nodes":"15","size_leaf_vector":"1"}},{"base_weights":[2.4733297E-5,-1.352628E-1,1.0369724E-1,-1.6211021E-1,-9.859775E-2,3.4563985E-1,-1.5170206E-2,-1.3373799E-2,-2.3773758E-2,-1.3731539E-2,-3.8466821E-3,7.173666E-2,3.0494135E-2,6.8736607E-3,-1.595493E-2],"categories":[],"categories_nodes":[],"categories_segments":[],"categories_sizes":[],"default_left":[0,0,0,0,0,0,0,0,0,0,0,0,0,0,0],"id":10,"left_children":[1,3,5,7,9,11,13,-1,-1,-1,-1,-1,-1,-1,-1],"loss_changes":[6.760432E2,2.0371216E1,7.851014E2,1.7369568E1,5.958603E0,2.0729724E2,1.4139597E2,0E0,0E0,0E0,0E0,0E0,0E0,0E0,0E0],"parents":[2147483647,0,0,1,1,2,2,3,3,4,4,5,5,6,6],"right_children":[2,4,6,8,10,12,14,-1,-1,-1,-1,-1,-1,-1,-1],"split_conditions":[-2.1E1,-3.78E2,2.63E2,-1.037E3,-5.7E1,7.3E1,7.58E2,-1.3373799E-2,-2.3773758E-2,-1.3731539E-2,-3.8466821E-3,7.173666E-2,3.0494135E-2,6.8736607E-3,-1.595493E-2],"split_indices":[0,0,0,0,0,0,0,0,0,0,0,0,0,0,0],"split_type":[0,0,0,0,0,0,0,0,0,0,0,0,0,0,0],"sum_hessian":[4.8194E4,2.0906E4,2.7288E4,1.2052E4,8.854E3,8.989E3,1.8299E4,3.814E3,8.238E3,7.71E3,1.144E3,2.87E3,6.119E3,1.125E4,7.049E3],"tree_param":{"num_deleted":"0","num_feature":"2","num_nodes":"15","size_leaf_vector":"1"}},{"base_weights":[2.8574097E-3,-1.1291676E-1,9.52156E-2,-1.341835E-1,-5.4345984E-2,5.740692E-1,3.5914905E-2,-9.383055E-3,-1.822765E-2,-9.9181635E-3,-2.8772848E-3,3.768695E-2,7.982996E-2,1.8875798E-2,-6.8472642E-3],"categories":[],"categories_nodes":[],"categories_segments":[],"categories_sizes":[],"default_left":[0,0,0,0,0,0,0,0,0,0,0,0,0,0,0],"id":11,"left_children":[1,3,5,7,9,11,13,-1,-1,-1,-1,-1,-1,-1,-1],"loss_changes":[5.1460754E2,2.6462555E1,7.598545E2,9.220398E0,4.2772923E0,4.543152E1,2.4348357E2,0E0,0E0,0E0,0E0,0E0,0E0,0E0,0E0],"parents":[2147483647,0,0,1,1,2,2,3,3,4,4,5,5,6,6],"right_children":[2,4,6,8,10,12,14,-1,-1,-1,-1,-1,-1,-1,-1],"split_conditions":[-2E0,-1.97E2,9.7E1,-2.089E3,-8.1E1,1.7E1,4.47E2,-9.383055E-3,-1.822765E-2,-9.9181635E-3,-2.8772848E-3,3.768695E-2,7.982996E-2,1.8875798E-2,-6.8472642E-3],"split_indices":[0,0,0,0,0,0,0,0,0,0,0,0,0,0,0],"split_type":[0,0,0,0,0,0,0,0,0,0,0,0,0,0,0],"sum_hessian":[4.812E4,2.135E4,2.677E4,1.5652E4,5.698E3,2.945E3,2.3825E4,2.25E3,1.3402E4,3.218E3,2.48E3,5.13E2,2.432E3,1.0549E4,1.3276E4],"tree_param":{"num_deleted":"0","num_feature":"2","num_nodes":"15","size_leaf_vector":"1"}},{"base_weights":[1.3753164E-3,-1.0094919E-1,8.1604965E-2,-1.3793983E-1,-7.137417E-2,4.9131387E-1,3.2620125E-2,-1.1792175E-2,-2.1553317E-2,-8.658641E-3,-2.8945256E-2,2.0920914E-2,7.6243244E-2,1.6102325E-2,-7.739675E-3],"categories":[],"categories_nodes":[],"categories_segments":[],"categories_sizes":[],"default_left":[0,0,0,0,0,0,0,0,0,0,0,0,0,0,0],"id":12,"left_children":[1,3,5,7,9,11,13,-1,-1,-1,-1,-1,-1,-1,-1],"loss_changes":[3.9650558E2,2.3060837E1,5.430404E2,1.3476593E1,5.13501E0,1.04421265E2,2.1515701E2,0E0,0E0,0E0,0E0,0E0,0E0,0E0,0E0],"parents":[2147483647,0,0,1,1,2,2,3,3,4,4,5,5,6,6],"right_children":[2,4,6,8,10,12,14,-1,-1,-1,-1,-1,-1,-1,-1],"split_conditions":[-1E1,-5.43E2,8.5E1,-9.91E2,-1.6E1,1.7E1,4.87E2,-1.1792175E-2,-2.1553317E-2,-8.658641E-3,-2.8945256E-2,2.0920914E-2,7.6243244E-2,1.6102325E-2,-7.739675E-3],"split_indices":[0,0,0,0,0,0,0,0,0,0,0,0,0,0,0],"split_type":[0,0,0,0,0,0,0,0,0,0,0,0,0,0,0],"sum_hessian":[4.8292E4,2.122E4,2.7072E4,9.413E3,1.1807E4,2.886E3,2.4186E4,3.982E3,5.431E3,1.1604E4,2.03E2,7.41E2,2.145E3,1.2037E4,1.2149E4],"tree_param":{"num_deleted":"0","num_feature":"2","num_nodes":"15","size_leaf_vector":"1"}},{"base_weights":[2.3927265E-3,-1.0453522E-1,7.279198E-2,-1.3392884E-1,-8.178847E-2,2.1438658E-1,-1.4830012E-2,-1.0685638E-2,-2.2165181E-2,-1.0007821E-2,-1.3037487E-2,4.954798E-4,3.433345E-2,4.875966E-3,-1.2959973E-2],"categories":[],"categories_nodes":[],"categories_segments":[],"categories_sizes":[],"default_left":[0,0,0,0,0,0,0,0,0,0,0,0,0,0,0],"id":13,"left_children":[1,3,5,7,9,11,13,-1,-1,-1,-1,-1,-1,-1,-1],"loss_changes":[3.6218222E2,1.2603531E1,3.601339E2,1.6800415E1,4.682846E-1,1.3339716E2,8.398744E1,0E0,0E0,0E0,0E0,0E0,0E0,0E0,0E0],"parents":[2147483647,0,0,1,1,2,2,3,3,4,4,5,5,6,6],"right_children":[2,4,6,8,10,12,14,-1,-1,-1,-1,-1,-1,-1,-1],"split_conditions":[-7.5E1,-6.27E2,2.76E2,-1.037E3,-1.12E2,4E0,7.69E2,-1.0685638E-2,-2.2165181E-2,-1.0007821E-2,-1.3037487E-2,4.954798E-4,3.433345E-2,4.875966E-3,-1.2959973E-2],"split_indices":[0,0,0,0,0,0,0,0,0,0,0,0,0,0,0],"split_type":[0,0,0,0,0,0,0,0,0,0,0,0,0,0,0],"sum_hessian":[4.8108E4,1.9095E4,2.9013E4,8.311E3,1.0784E4,1.1091E4,1.7922E4,3.801E3,4.51E3,9.643E3,1.141E3,2.373E3,8.718E3,1.1136E4,6.786E3],"tree_param":{"num_deleted":"0","num_feature":"2","num_nodes":"15","size_leaf_vector":"1"}},{"base_weights":[6.8999613E-3,-1.1381727E-1,9.9619284E-2,-2.2212216E-1,-7.2381005E-2,6.217807E-2,1.6657612E-1,-2.9407483E-2,-2.3277145E-2,-1.2921338E-2,-3.1489567E-3,6.0736146E-3,1.2010354E-2,2.1415047E-2,1.4916043E-2],"categories":[],"categories_nodes":[],"categories_segments":[],"categories_sizes":[],"default_left":[0,0,0,0,0,0,0,0,0,0,0,0,0,0,0],"id":14,"left_children":[1,3,5,7,9,11,13,-1,-1,-1,-1,-1,-1,-1,-1],"loss_changes":[5.41467E2,9.406964E1,6.842874E1,1.9091492E0,2.145243E1,8.049057E0,1.1004944E0,0E0,0E0,0E0,0E0,0E0,0E0,0E0,0E0],"parents":[2147483647,0,0,1,1,2,2,3,3,4,4,5,5,6,6],"right_children":[2,4,6,8,10,12,14,-1,-1,-1,-1,-1,-1,-1,-1],"split_conditions":[-1.696E-1,-8.263E-1,3.641E-1,-9.332E-1,-3.657E-1,1.924E-1,9.895E-1,-2.9407483E-2,-2.3277145E-2,-1.2921338E-2,-3.1489567E-3,6.0736146E-3,1.2010354E-2,2.1415047E-2,1.4916043E-2],"split_indices":[1,1,1,1,1,1,1,0,0,0,0,0,0,0,0],"split_type":[0,0,0,0,0,0,0,0,0,0,0,0,0,0,0],"sum_hessian":[4.8369E4,2.1009E4,2.736E4,5.805E3,1.5204E4,1.7558E4,9.802E3,4.521E3,1.284E3,9.327E3,5.877E3,1.2292E4,5.266E3,9.244E3,5.58E2],"tree_param":{"num_deleted":"0","num_feature":"2","num_nodes":"15","size_leaf_vector":"1"}},{"base_weights":[-3.6090328E-3,-1.4115746E-1,6.1200902E-2,-1.8611953E-1,-8.137226E-2,-1.3828296E-2,9.128498E-2,-2.8360123E-2,-2.0454586E-2,-1.2647764E-2,-8.493425E-3,-2.2280775E-3,7.301749E-4,7.5462405E-3,1.5174213E-2],"categories":[],"categories_nodes":[],"categories_segments":[],"categories_sizes":[],"default_left":[0,0,0,0,0,0,0,0,0,0,0,0,0,0,0],"id":15,"left_children":[1,3,5,7,9,11,13,-1,-1,-1,-1,-1,-1,-1,-1],"loss_changes":[4.2875137E2,4.1197266E1,7.3827354E1,7.7998047E0,1.6334038E0,7.0317423E-1,2.1062683E1,0E0,0E0,0E0,0E0,0E0,0E0,0E0,0E0],"parents":[2147483647,0,0,1,1,2,2,3,3,4,4,5,5,6,6],"right_children":[2,4,6,8,10,12,14,-1,-1,-1,-1,-1,-1,-1,-1],"split_conditions":[-3.523E-1,-6.364E-1,-4.96E-2,-1.0465E0,-5.015E-1,-9.46E-2,2.812E-1,-2.8360123E-2,-2.0454586E-2,-1.2647764E-2,-8.493425E-3,-2.2280775E-3,7.301749E-4,7.5462405E-3,1.5174213E-2],"split_indices":[1,1,1,1,1,1,1,0,0,0,0,0,0,0,0],"split_type":[0,0,0,0,0,0,0,0,0,0,0,0,0,0,0],"sum_hessian":[4.8083E4,1.5401E4,3.2682E4,8.78E3,6.621E3,9.349E3,2.3333E4,3.393E3,5.387E3,2.831E3,3.79E3,7.857E3,1.492E3,1.1131E4,1.2202E4],"tree_param":{"num_deleted":"0","num_feature":"2","num_nodes":"15","size_leaf_vector":"1"}},{"base_weights":[-4.8386874E-3,-7.944754E-2,5.391018E-2,-1.0767543E-1,-6.1891012E-2,4.4276127E-1,1.8367711E-2,-9.83869E-3,-1.6886009E-2,-8.416453E-3,-4.57324E-3,1.6026836E-2,6.9747925E-2,8.943117E-3,-1.1109038E-2],"categories":[],"categories_nodes":[],"categories_segments":[],"categories_sizes":[],"default_left":[0,0,0,0,0,0,0,0,0,0,0,0,0,0,0],"id":16,"left_children":[1,3,5,7,9,11,13,-1,-1,-1,-1,-1,-1,-1,-1],"loss_changes":[2.1198038E2,1.0436981E1,3.735697E2,6.14048E0,1.5171089E0,7.727988E1,1.3795776E2,0E0,0E0,0E0,0E0,0E0,0E0,0E0,0E0],"parents":[2147483647,0,0,1,1,2,2,3,3,4,4,5,5,6,6],"right_children":[2,4,6,8,10,12,14,-1,-1,-1,-1,-1,-1,-1,-1],"split_conditions":[-1E1,-6.42E2,6.6E1,-1.037E3,-7.5E1,1.1E1,6.88E2,-9.83869E-3,-1.6886009E-2,-8.416453E-3,-4.57324E-3,1.6026836E-2,6.9747925E-2,8.943117E-3,-1.1109038E-2],"split_indices":[0,0,0,0,0,0,0,0,0,0,0,0,0,0,0],"split_type":[0,0,0,0,0,0,0,0,0,0,0,0,0,0,0],"sum_hessian":[4.8351E4,2.1304E4,2.7047E4,8.149E3,1.3155E4,2.26E3,2.4787E4,3.803E3,4.346E3,1.1104E4,2.051E3,5.83E2,1.677E3,1.6607E4,8.18E3],"tree_param":{"num_deleted":"0","num_feature":"2","num_nodes":"15","size_leaf_vector":"1"}},{"base_weights":[1.2674453E-3,-1.00420624E-1,6.226854E-2,-1.8937737E-1,-7.041941E-2,3.996355E-2,1.0797706E-1,-2.5943713E-2,-1.900609E-2,-1.28146345E-2,-4.595066E-3,3.3184157E-3,8.0811875E-3,1.6761614E-2,1.2928279E-2],"categories":[],"categories_nodes":[],"categories_segments":[],"categories_sizes":[],"default_left":[0,0,0,0,0,0,0,0,0,0,0,0,0,0,0],"id":17,"left_children":[1,3,5,7,9,11,13,-1,-1,-1,-1,-1,-1,-1,-1],"loss_changes":[2.9791852E2,4.7853806E1,3.051004E1,2.4788208E0,1.4115921E1,6.577343E0,1.1953964E0,0E0,0E0,0E0,0E0,0E0,0E0,0E0,0E0],"parents":[2147483647,0,0,1,1,2,2,3,3,4,4,5,5,6,6],"right_children":[2,4,6,8,10,12,14,-1,-1,-1,-1,-1,-1,-1,-1],"split_conditions":[-2.61E-1,-9.332E-1,3.641E-1,-1.0669E0,-5.015E-1,1.308E-1,4.358E-1,-2.5943713E-2,-1.900609E-2,-1.28146345E-2,-4.595066E-3,3.3184157E-3,8.0811875E-3,1.6761614E-2,1.2928279E-2],"split_indices":[1,1,1,1,1,1,1,0,0,0,0,0,0,0,0],"split_type":[0,0,0,0,0,0,0,0,0,0,0,0,0,0,0],"sum_hessian":[4.8023E4,1.8002E4,3.0021E4,4.53E3,1.3472E4,2.0189E4,9.832E3,3.2E3,1.33E3,7.047E3,6.425E3,1.286E4,7.329E3,1.817E3,8.015E3],"tree_param":{"num_deleted":"0","num_feature":"2","num_nodes":"15","size_leaf_vector":"1"}},{"base_weights":[-3.1049952E-3,-7.359872E-2,5.3783655E-2,-8.185553E-2,-1.3897816E-2,4.287134E-1,1.9138822E-2,-6.304167E-3,-1.1006745E-2,2.011028E-3,-3.884852E-3,2.013515E-2,6.0373444E-2,9.638137E-3,-7.0791747E-3],"categories":[],"categories_nodes":[],"categories_segments":[],"categories_sizes":[],"default_left":[0,0,0,0,0,0,0,0,0,0,0,0,0,0,0],"id":18,"left_children":[1,3,5,7,9,11,13,-1,-1,-1,-1,-1,-1,-1,-1],"loss_changes":[1.9344733E2,1.0561897E1,3.46386E2,3.0574265E0,1.3302727E0,2.9027863E1,1.0486955E2,0E0,0E0,0E0,0E0,0E0,0E0,0E0,0E0],"parents":[2147483647,0,0,1,1,2,2,3,3,4,4,5,5,6,6],"right_children":[2,4,6,8,10,12,14,-1,-1,-1,-1,-1,-1,-1,-1],"split_conditions":[-2E0,-8.7E1,7.3E1,-1.822E3,-5.7E1,1.1E1,5.64E2,-6.304167E-3,-1.1006745E-2,2.011028E-3,-3.884852E-3,2.013515E-2,6.0373444E-2,9.638137E-3,-7.0791747E-3],"split_indices":[0,0,0,0,0,0,0,0,0,0,0,0,0,0,0],"split_type":[0,0,0,0,0,0,0,0,0,0,0,0,0,0,0],"sum_hessian":[4.8227E4,2.1542E4,2.6685E4,1.8915E4,2.627E3,2.252E3,2.4433E4,2.67E3,1.6245E4,9.36E2,1.691E3,3.5E2,1.902E3,1.3887E4,1.0546E4],"tree_param":{"num_deleted":"0","num_feature":"2","num_nodes":"15","size_leaf_vector":"1"}},{"base_weights":[5.444943E-4,-6.159821E-2,4.7895666E-2,-8.073677E-2,-2.8878635E-2,2.687801E-1,1.3396357E-2,-6.9614295E-3,-1.1485987E-2,-3.1899214E-3,-1.9890435E-2,9.419987E-3,4.205871E-2,7.373842E-3,-6.002729E-3],"categories":[],"categories_nodes":[],"categories_segments":[],"categories_sizes":[],"default_left":[0,0,0,0,0,0,0,0,0,0,0,0,0,0,0],"id":19,"left_children":[1,3,5,7,9,11,13,-1,-1,-1,-1,-1,-1,-1,-1],"loss_changes":[1.4202507E2,1.2996674E1,2.0862299E2,3.3140106E0,3.4956045E0,4.559442E1,6.485924E1,0E0,0E0,0E0,0E0,0E0,0E0,0E0,0E0],"parents":[2147483647,0,0,1,1,2,2,3,3,4,4,5,5,6,6],"right_children":[2,4,6,8,10,12,14,-1,-1,-1,-1,-1,-1,-1,-1],"split_conditions":[-2.1E1,-3.15E2,1.04E2,-1.037E3,-2.7E1,1.1E1,5.89E2,-6.9614295E-3,-1.1485987E-2,-3.1899214E-3,-1.9890435E-2,9.419987E-3,4.205871E-2,7.373842E-3,-6.002729E-3],"split_indices":[0,0,0,0,0,0,0,0,0,0,0,0,0,0,0],"split_type":[0,0,0,0,0,0,0,0,0,0,0,0,0,0,0],"sum_hessian":[4.8261E4,2.0865E4,2.7396E4,1.315E4,7.715E3,3.695E3,2.3701E4,3.741E3,9.409E3,7.511E3,2.04E2,9.19E2,2.776E3,1.3642E4,1.0059E4],"tree_param":{"num_deleted":"0","num_feature":"2","num_nodes":"15","size_leaf_vector":"1"}},{"base_weights":[-2.5789212E-3,-1.0359605E-1,4.7820136E-2,-1.6369528E-1,-6.923765E-2,1.4689311E-3,7.9552166E-2,-2.221165E-2,-1.6872535E-2,-1.2490471E-2,-7.1426434E-3,-1.4032936E-3,3.6371085E-3,8.898703E-3,1.528679E-2],"categories":[],"categories_nodes":[],"categories_segments":[],"categories_sizes":[],"default_left":[0,0,0,0,0,0,0,0,0,0,0,0,0,0,0],"id":20,"left_children":[1,3,5,7,9,11,13,-1,-1,-1,-1,-1,-1,-1,-1],"loss_changes":[2.4672346E2,3.3133636E1,4.749466E1,1.8567657E0,3.759758E0,4.5227127E0,7.127182E0,0E0,0E0,0E0,0E0,0E0,0E0,0E0,0E0],"parents":[2147483647,0,0,1,1,2,2,3,3,4,4,5,5,6,6],"right_children":[2,4,6,8,10,12,14,-1,-1,-1,-1,-1,-1,-1,-1],"split_conditions":[-3.318E-1,-8.263E-1,6.99E-2,-9.685E-1,-6.364E-1,-4.96E-2,6.638E-1,-2.221165E-2,-1.6872535E-2,-1.2490471E-2,-7.1426434E-3,-1.4032936E-3,3.6371085E-3,8.898703E-3,1.528679E-2],"split_indices":[1,1,1,1,1,1,1,0,0,0,0,0,0,0,0],"split_type":[0,0,0,0,0,0,0,0,0,0,0,0,0,0,0],"sum_hessian":[4.8447E4,1.6128E4,3.2319E4,5.855E3,1.0273E4,1.3143E4,1.9176E4,4.164E3,1.691E3,3.072E3,7.201E3,8.987E3,4.156E3,1.5719E4,3.457E3],"tree_param":{"num_deleted":"0","num_feature":"2","num_nodes":"15","size_leaf_vector":"1"}},{"base_weights":[4.6122936E-3,-5.391372E-2,4.926156E-2,-7.372065E-2,-4.1073393E-2,2.943578E-1,1.967433E-2,-3.8427734E-3,-1.421291E-2,-5.5037243E-3,-1.3323298E-3,9.6494835E-3,4.9293667E-2,6.818622E-3,-8.586221E-3],"categories":[],"categories_nodes":[],"categories_segments":[],"categories_sizes":[],"default_left":[0,0,0,0,0,0,0,0,0,0,0,0,0,0,0],"id":21,"left_children":[1,3,5,7,9,11,13,-1,-1,-1,-1,-1,-1,-1,-1],"loss_changes":[1.2683677E2,5.263569E0,1.9950336E2,1.3717445E1,9.270992E-1,6.137137E1,7.37699E1,0E0,0E0,0E0,0E0,0E0,0E0,0E0,0E0],"parents":[2147483647,0,0,1,1,2,2,3,3,4,4,5,5,6,6],"right_children":[2,4,6,8,10,12,14,-1,-1,-1,-1,-1,-1,-1,-1],"split_conditions":[-2.1E1,-6.27E2,7.9E1,-9.91E2,-5.1E1,1.1E1,7.69E2,-3.8427734E-3,-1.421291E-2,-5.5037243E-3,-1.3323298E-3,9.6494835E-3,4.9293667E-2,6.818622E-3,-8.586221E-3],"split_indices":[0,0,0,0,0,0,0,0,0,0,0,0,0,0,0],"split_type":[0,0,0,0,0,0,0,0,0,0,0,0,0,0,0],"sum_hessian":[4.8531E4,2.0996E4,2.7535E4,8.233E3,1.2763E4,2.96E3,2.4575E4,3.895E3,4.338E3,1.1792E4,9.71E2,9.06E2,2.054E3,1.7671E4,6.904E3],"tree_param":{"num_deleted":"0","num_feature":"2","num_nodes":"15","size_leaf_vector":"1"}},{"base_weights":[1.7002784E-3,-4.8816614E-2,3.338979E-2,-5.9488595E-2,-2.916692E-2,9.138804E-2,-3.1287186E-2,-4.696536E-3,-8.671638E-3,-1.3636096E-3,-5.2777594E-3,-4.225657E-5,1.4129484E-2,-5.860269E-4,-8.774883E-3],"categories":[],"categories_nodes":[],"categories_segments":[],"categories_sizes":[],"default_left":[0,0,0,0,0,0,0,0,0,0,0,0,0,0,0],"id":22,"left_children":[1,3,5,7,9,11,13,-1,-1,-1,-1,-1,-1,-1,-1],"loss_changes":[7.6518585E1,3.8055954E0,1.1026553E2,2.353176E0,1.4737258E0,2.9029007E1,1.4069474E1,0E0,0E0,0E0,0E0,0E0,0E0,0E0,0E0],"parents":[2147483647,0,0,1,1,2,2,3,3,4,4,5,5,6,6],"right_children":[2,4,6,8,10,12,14,-1,-1,-1,-1,-1,-1,-1,-1],"split_conditions":[-9.4E1,-3.78E2,4.17E2,-1.153E3,-2.45E2,-2E0,8.44E2,-4.696536E-3,-8.671638E-3,-1.3636096E-3,-5.2777594E-3,-4.225657E-5,1.4129484E-2,-5.860269E-4,-8.774883E-3],"split_indices":[0,0,0,0,0,0,0,0,0,0,0,0,0,0,0],"split_type":[0,0,0,0,0,0,0,0,0,0,0,0,0,0,0],"sum_hessian":[4.7796E4,1.8417E4,2.9379E4,1.1911E4,6.506E3,1.5493E4,1.3886E4,3.473E3,8.438E3,2.665E3,3.841E3,2.812E3,1.2681E4,8.184E3,5.702E3],"tree_param":{"num_deleted":"0","num_feature":"2","num_nodes":"15","size_leaf_vector":"1"}},{"base_weights":[2.7367403E-3,-1.08662754E-1,3.8859755E-2,-1.3945927E-1,-7.65152E-2,5.660294E-3,7.542246E-2,-2.3310022E-2,-1.6809938E-2,-9.3438355E-3,-1.8975465E-2,-1.2470958E-3,2.593315E-3,6.855826E-3,1.1627659E-2],"categories":[],"categories_nodes":[],"categories_segments":[],"categories_sizes":[],"default_left":[0,0,0,0,0,0,0,0,0,0,0,0,0,0,0],"id":23,"left_children":[1,3,5,7,9,11,13,-1,-1,-1,-1,-1,-1,-1,-1],"loss_changes":[1.9427193E2,1.1536942E1,4.421808E1,1.4783478E0,9.401932E-1,4.416975E0,5.982132E0,0E0,0E0,0E0,0E0,0E0,0E0,0E0,0E0],"parents":[2147483647,0,0,1,1,2,2,3,3,4,4,5,5,6,6],"right_children":[2,4,6,8,10,12,14,-1,-1,-1,-1,-1,-1,-1,-1],"split_conditions":[-5.015E-1,-8.263E-1,1.205E-1,-1.5449E0,-5.103E-1,-1.696E-1,3.641E-1,-2.3310022E-2,-1.6809938E-2,-9.3438355E-3,-1.8975465E-2,-1.2470958E-3,2.593315E-3,6.855826E-3,1.1627659E-2],"split_indices":[1,1,1,1,1,1,1,0,0,0,0,0,0,0,0],"split_type":[0,0,0,0,0,0,0,0,0,0,0,0,0,0,0],"sum_hessian":[4.8279E4,1.1816E4,3.6463E4,6.019E3,5.797E3,1.9121E4,1.7342E4,7.35E2,5.284E3,5.614E3,1.83E2,9.331E3,9.79E3,7.628E3,9.714E3],"tree_param":{"num_deleted":"0","num_feature":"2","num_nodes":"15","size_leaf_vector":"1"}},{"base_weights":[3.2873102E-3,-4.062814E-2,3.2802094E-2,-4.954763E-2,-2.3787834E-2,1.1372475E-1,-1.3455745E-2,-2.8335634E-3,-7.703452E-3,-4.220134E-3,-2.1270905E-3,9.33397E-3,3.0534664E-2,8.668543E-4,-8.068139E-3],"categories":[],"categories_nodes":[],"categories_segments":[],"categories_sizes":[],"default_left":[0,0,0,0,0,0,0,0,0,0,0,0,0,0,0],"id":24,"left_children":[1,3,5,7,9,11,13,-1,-1,-1,-1,-1,-1,-1,-1],"loss_changes":[6.2802113E1,2.8779984E0,1.0857025E2,3.8719482E0,4.2149425E-1,5.3528778E1,1.890187E1,0E0,0E0,0E0,0E0,0E0,0E0,0E0,0E0],"parents":[2147483647,0,0,1,1,2,2,3,3,4,4,5,5,6,6],"right_children":[2,4,6,8,10,12,14,-1,-1,-1,-1,-1,-1,-1,-1],"split_conditions":[-6.9E1,-3.46E2,2.63E2,-1.037E3,-2.13E2,1.91E2,8.71E2,-2.8335634E-3,-7.703452E-3,-4.220134E-3,-2.1270905E-3,9.33397E-3,3.0534664E-2,8.668543E-4,-8.068139E-3],"split_indices":[0,0,0,0,0,0,0,0,0,0,0,0,0,0,0],"split_type":[0,0,0,0,0,0,0,0,0,0,0,0,0,0,0],"sum_hessian":[4.8448E4,1.9465E4,2.8983E4,1.2698E4,6.767E3,1.0544E4,1.8439E4,3.772E3,8.926E3,2.805E3,3.962E3,8.044E3,2.5E3,1.3134E4,5.305E3],"tree_param":{"num_deleted":"0","num_feature":"2","num_nodes":"15","size_leaf_vector":"1"}},{"base_weights":[3.7998753E-3,-6.4477414E-2,4.547644E-2,-1.00374416E-1,-3.194924E-2,2.7658029E-2,9.0770766E-2,-1.5350179E-2,-1.0967739E-2,-5.4540844E-3,-2.4154775E-3,8.120727E-4,5.79469E-3,1.0063858E-2,1.4576141E-2],"categories":[],"categories_nodes":[],"categories_segments":[],"categories_sizes":[],"default_left":[0,0,0,0,0,0,0,0,0,0,0,0,0,0,0],"id":25,"left_children":[1,3,5,7,9,11,13,-1,-1,-1,-1,-1,-1,-1,-1],"loss_changes":[1.3675854E2,2.117865E1,2.4014603E1,2.3185196E0,1.3368654E0,8.244469E0,2.1576385E0,0E0,0E0,0E0,0E0,0E0,0E0,0E0,0E0],"parents":[2147483647,0,0,1,1,2,2,3,3,4,4,5,5,6,6],"right_children":[2,4,6,8,10,12,14,-1,-1,-1,-1,-1,-1,-1,-1],"split_conditions":[-2.545E-1,-6.464E-1,4.142E-1,-1.0465E0,-4.143E-1,4.91E-2,7.188E-1,-1.5350179E-2,-1.0967739E-2,-5.4540844E-3,-2.4154775E-3,8.120727E-4,5.79469E-3,1.0063858E-2,1.4576141E-2],"split_indices":[1,1,1,1,1,1,1,0,0,0,0,0,0,0,0],"split_type":[0,0,0,0,0,0,0,0,0,0,0,0,0,0,0],"sum_hessian":[4.8056E4,1.8209E4,2.9847E4,8.644E3,9.565E3,2.1434E4,8.413E3,3.367E3,5.277E3,5.082E3,4.483E3,9.903E3,1.1531E4,5.809E3,2.604E3],"tree_param":{"num_deleted":"0","num_feature":"2","num_nodes":"15","size_leaf_vector":"1"}},{"base_weights":[-6.2577147E-4,-5.1030666E-2,4.7369063E-2,-8.982473E-2,-2.5833646E-2,2.619596E-2,8.3032325E-2,-1.3845257E-2,-9.293597E-3,-4.7880188E-3,-2.1679879E-3,3.5556776E-3,-6.2048123E-3,1.8491615E-2,9.357248E-3],"categories":[],"categories_nodes":[],"categories_segments":[],"categories_sizes":[],"default_left":[0,0,0,0,0,0,0,0,0,0,0,0,0,0,0],"id":26,"left_children":[1,3,5,7,9,11,13,-1,-1,-1,-1,-1,-1,-1,-1],"loss_changes":[1.1640537E2,2.2871677E1,1.8536453E1,2.829712E0,1.4557495E0,2.242138E0,5.058548E0,0E0,0E0,0E0,0E0,0E0,0E0,0E0,0E0],"parents":[2147483647,0,0,1,1,2,2,3,3,4,4,5,5,6,6],"right_children":[2,4,6,8,10,12,14,-1,-1,-1,-1,-1,-1,-1,-1],"split_conditions":[-8.93E-2,-6.167E-1,3.849E-1,-9.685E-1,-3.657E-1,3.703E-1,4.283E-1,-1.3845257E-2,-9.293597E-3,-4.7880188E-3,-2.1679879E-3,3.5556776E-3,-6.2048123E-3,1.8491615E-2,9.357248E-3],"split_indices":[1,1,1,1,1,1,1,0,0,0,0,0,0,0,0],"split_type":[0,0,0,0,0,0,0,0,0,0,0,0,0,0,0],"sum_hessian":[4.8109E4,2.3471E4,2.4638E4,9.229E3,1.4242E4,1.5474E4,9.164E3,4.155E3,5.074E3,5.935E3,8.307E3,1.5097E4,3.77E2,1.128E3,8.036E3],"tree_param":{"num_deleted":"0","num_feature":"2","num_nodes":"15","size_leaf_vector":"1"}},{"base_weights":[-3.283202E-3,-4.335504E-2,2.8378876E-2,-6.356373E-2,-3.0618189E-2,2.5939545E-1,4.9107545E-3,-5.9778364E-3,-9.716543E-3,-3.5753404E-3,-1.2738591E-2,3.1351E-3,3.8044512E-2,7.541884E-3,-1.681925E-3],"categories":[],"categories_nodes":[],"categories_segments":[],"categories_sizes":[],"default_left":[0,0,0,0,0,0,0,0,0,0,0,0,0,0,0],"id":27,"left_children":[1,3,5,7,9,11,13,-1,-1,-1,-1,-1,-1,-1,-1],"loss_changes":[6.140856E1,5.4387207E0,1.4636668E2,1.698307E0,2.0678587E0,2.405101E1,2.4500921E1,0E0,0E0,0E0,0E0,0E0,0E0,0E0,0E0],"parents":[2147483647,0,0,1,1,2,2,3,3,4,4,5,5,6,6],"right_children":[2,4,6,8,10,12,14,-1,-1,-1,-1,-1,-1,-1,-1],"split_conditions":[-2E0,-6.27E2,7.9E1,-1.037E3,-1.6E1,1.1E1,2.63E2,-5.9778364E-3,-9.716543E-3,-3.5753404E-3,-1.2738591E-2,3.1351E-3,3.8044512E-2,7.541884E-3,-1.681925E-3],"split_indices":[0,0,0,0,0,0,0,0,0,0,0,0,0,0,0],"split_type":[0,0,0,0,0,0,0,0,0,0,0,0,0,0,0],"sum_hessian":[4.8386E4,2.1364E4,2.7022E4,8.236E3,1.3128E4,2.486E3,2.4536E4,3.73E3,4.506E3,1.2718E4,4.1E2,3.77E2,2.109E3,6.131E3,1.8405E4],"tree_param":{"num_deleted":"0","num_feature":"2","num_nodes":"15","size_leaf_vector":"1"}},{"base_weights":[5.508018E-4,-6.834304E-2,2.6861545E-2,-9.4582364E-2,-5.3694602E-2,8.623691E-3,5.832716E-2,-1.3366627E-2,-1.1246607E-2,-8.383513E-3,-5.0620916E-3,-1.7679512E-3,1.9190006E-3,5.380254E-3,9.265322E-3],"categories":[],"categories_nodes":[],"categories_segments":[],"categories_sizes":[],"default_left":[0,0,0,0,0,0,0,0,0,0,0,0,0,0,0],"id":28,"left_children":[1,3,5,7,9,11,13,-1,-1,-1,-1,-1,-1,-1,-1],"loss_changes":[8.749289E1,5.021778E0,2.0013073E1,1.5011597E-1,1.4076424E0,3.2827463E0,2.9441414E0,0E0,0E0,0E0,0E0,0E0,0E0,0E0,0E0],"parents":[2147483647,0,0,1,1,2,2,3,3,4,4,5,5,6,6],"right_children":[2,4,6,8,10,12,14,-1,-1,-1,-1,-1,-1,-1,-1],"split_conditions":[-4.289E-1,-9.15E-1,2.629E-1,-1.3394E0,-6.167E-1,-2.545E-1,4.908E-1,-1.3366627E-2,-1.1246607E-2,-8.383513E-3,-5.0620916E-3,-1.7679512E-3,1.9190006E-3,5.380254E-3,9.265322E-3],"split_indices":[1,1,1,1,1,1,1,0,0,0,0,0,0,0,0],"split_type":[0,0,0,0,0,0,0,0,0,0,0,0,0,0,0],"sum_hessian":[4.8273E4,1.3333E4,3.494E4,4.755E3,8.578E3,2.2134E4,1.2806E4,1.536E3,3.219E3,4.428E3,4.15E3,4.955E3,1.7179E4,6.261E3,6.545E3],"tree_param":{"num_deleted":"0","num_feature":"2","num_nodes":"15","size_leaf_vector":"1"}},{"base_weights":[2.1015074E-4,-6.2473163E-2,2.0010792E-2,-7.512134E-2,-4.6784855E-2,-1.4233721E-3,3.786651E-2,-1.1969347E-2,-8.54209E-3,-5.4302057E-3,-9.710095E-3,7.905587E-3,-3.6622005E-4,4.161099E-3,7.1302364E-3],"categories":[],"categories_nodes":[],"categories_segments":[],"categories_sizes":[],"default_left":[0,0,0,0,0,0,0,0,0,0,0,0,0,0,0],"id":29,"left_children":[1,3,5,7,9,11,13,-1,-1,-1,-1,-1,-1,-1,-1],"loss_changes":[5.992558E1,2.2161026E0,1.4071811E1,8.2600784E-1,5.1727295E-1,1.5381632E0,1.7813358E0,0E0,0E0,0E0,0E0,0E0,0E0,0E0,0E0],"parents":[2147483647,0,0,1,1,2,2,3,3,4,4,5,5,6,6],"right_children":[2,4,6,8,10,12,14,-1,-1,-1,-1,-1,-1,-1,-1],"split_conditions":[-5.015E-1,-7.853E-1,4.91E-2,-1.2991E0,-5.271E-1,-4.842E-1,6.168E-1,-1.1969347E-2,-8.54209E-3,-5.4302057E-3,-9.710095E-3,7.905587E-3,-3.6622005E-4,4.161099E-3,7.1302364E-3],"split_indices":[1,1,1,1,1,1,1,0,0,0,0,0,0,0,0],"split_type":[0,0,0,0,0,0,0,0,0,0,0,0,0,0,0],"sum_hessian":[4.8293E4,1.1584E4,3.6709E4,6.385E3,5.199E3,1.667E4,2.0039E4,1.745E3,4.64E3,4.636E3,5.63E2,3.63E2,1.6307E4,1.5847E4,4.192E3],"tree_param":{"num_deleted":"0","num_feature":"2","num_nodes":"15","size_leaf_vector":"1"}},{"base_weights":[1.299732E-3,-5.984451E-2,2.3414942E-2,-7.9043835E-2,-5.0149545E-2,3.9160126E-3,4.9327027E-2,-4.408171E-3,-1.0537399E-2,8.994307E-3,-6.700828E-3,9.373537E-3,3.100664E-4,5.4128417E-3,8.909004E-3],"categories":[],"categories_nodes":[],"categories_segments":[],"categories_sizes":[],"default_left":[0,0,0,0,0,0,0,0,0,0,0,0,0,0,0],"id":30,"left_children":[1,3,5,7,9,11,13,-1,-1,-1,-1,-1,-1,-1,-1],"loss_changes":[6.536996E1,2.3004036E0,1.7915707E1,7.3596764E-1,2.9691486E0,2.0404289E0,2.0214844E0,0E0,0E0,0E0,0E0,0E0,0E0,0E0,0E0],"parents":[2147483647,0,0,1,1,2,2,3,3,4,4,5,5,6,6],"right_children":[2,4,6,8,10,12,14,-1,-1,-1,-1,-1,-1,-1,-1],"split_conditions":[-4.601E-1,-9.685E-1,1.87E-1,-1.7177E0,-9.514E-1,-4.449E-1,6.514E-1,-4.408171E-3,-1.0537399E-2,8.994307E-3,-6.700828E-3,9.373537E-3,3.100664E-4,5.4128417E-3,8.909004E-3],"split_indices":[1,1,1,1,1,1,1,0,0,0,0,0,0,0,0],"split_type":[0,0,0,0,0,0,0,0,0,0,0,0,0,0,0],"sum_hessian":[4.835E4,1.2834E4,3.5516E4,4.277E3,8.557E3,2.0281E4,1.5235E4,3.95E2,3.882E3,1.9E2,8.367E3,4.02E2,1.9879E4,1.1678E4,3.557E3],"tree_param":{"num_deleted":"0","num_feature":"2","num_nodes":"15","size_leaf_vector":"1"}},{"base_weights":[-2.126482E-3,-2.8333982E-2,2.6181184E-2,-5.82757E-2,-1.751896E-2,1.5082274E-2,2.5512388E-2,-1.4274283E-2,-6.2185293E-3,-3.3112285E-3,-1.6926421E-3,2.8505952E-3,5.7341913E-3],"categories":[],"categories_nodes":[],"categories_segments":[],"categories_sizes":[],"default_left":[0,0,0,0,0,0,0,0,0,0,0,0,0],"id":31,"left_children":[1,3,5,7,9,-1,11,-1,-1,-1,-1,-1,-1],"loss_changes":[3.5751312E1,8.059032E0,1.3476982E0,3.1756496E0,6.355505E-1,0E0,1.3102913E0,0E0,0E0,0E0,0E0,0E0,0E0],"parents":[2147483647,0,0,1,1,2,2,3,3,4,4,6,6],"right_children":[2,4,6,8,10,-1,12,-1,-1,-1,-1,-1,-1],"split_conditions":[-4.96E-2,-7.717E-1,-4.44E-2,-1.4825E0,-4.678E-1,1.5082274E-2,6.894E-1,-1.4274283E-2,-6.2185293E-3,-3.3112285E-3,-1.6926421E-3,2.8505952E-3,5.7341913E-3],"split_indices":[1,1,1,1,1,0,1,0,0,0,0,0,0],"split_type":[0,0,0,0,0,0,0,0,0,0,0,0,0],"sum_hessian":[4.8181E4,2.5029E4,2.3152E4,6.623E3,1.8406E4,1.54E2,2.2998E4,9.29E2,5.694E3,5.886E3,1.252E4,2.0042E4,2.956E3],"tree_param":{"num_deleted":"0","num_feature":"2","num_nodes":"13","size_leaf_vector":"1"}},{"base_weights":[-2.5994302E-4,-3.5137128E-2,2.198225E-2,-5.508915E-2,-2.3512527E-2,2.1039469E-3,3.1253055E-2,-6.1871186E-3,-7.957757E-3,2.491209E-3,-3.445498E-3,9.3969057E-4,-2.3818093E-3,4.170006E-3,-7.110938E-3],"categories":[],"categories_nodes":[],"categories_segments":[],"categories_sizes":[],"default_left":[0,0,0,0,0,0,0,0,0,0,0,0,0,0,0],"id":32,"left_children":[1,3,5,7,9,11,13,-1,-1,-1,-1,-1,-1,-1,-1],"loss_changes":[3.7569782E1,4.325594E0,5.427581E0,2.586422E-1,1.9380884E0,1.0459275E0,3.046154E0,0E0,0E0,0E0,0E0,0E0,0E0,0E0,0E0],"parents":[2147483647,0,0,1,1,2,2,3,3,4,4,5,5,6,6],"right_children":[2,4,6,8,10,12,14,-1,-1,-1,-1,-1,-1,-1,-1],"split_conditions":[-2.358E-1,-7.462E-1,4.91E-2,-9.869E-1,-6.895E-1,-5.6E-3,1.0444E0,-6.1871186E-3,-7.957757E-3,2.491209E-3,-3.445498E-3,9.3969057E-4,-2.3818093E-3,4.170006E-3,-7.110938E-3],"split_indices":[1,1,1,1,1,1,1,0,0,0,0,0,0,0,0],"split_type":[0,0,0,0,0,0,0,0,0,0,0,0,0,0,0],"sum_hessian":[4.8413E4,1.8861E4,2.9552E4,6.92E3,1.1941E4,9.42E3,2.0132E4,3.939E3,2.981E3,9.38E2,1.1003E4,7.533E3,1.887E3,1.975E4,3.82E2],"tree_param":{"num_deleted":"0","num_feature":"2","num_nodes":"15","size_leaf_vector":"1"}},{"base_weights":[-5.2233376E-3,-3.477352E-2,1.0396669E-2,-4.7023933E-2,-1.8008942E-2,-5.261958E-3,2.325994E-2,-4.8072203E-3,-6.562397E-3,-1.820839E-3,-1.8826302E-2,9.075391E-3,-9.319799E-4,2.0349694E-3,5.4228646E-3],"categories":[],"categories_nodes":[],"categories_segments":[],"categories_sizes":[],"default_left":[0,0,0,0,0,0,0,0,0,0,0,0,0,0,0],"id":33,"left_children":[1,3,5,7,9,11,13,-1,-1,-1,-1,-1,-1,-1,-1],"loss_changes":[2.227885E1,3.3879452E0,6.364545E0,3.64048E-1,3.2378442E0,2.2757833E0,2.402463E0,0E0,0E0,0E0,0E0,0E0,0E0,0E0,0E0],"parents":[2147483647,0,0,1,1,2,2,3,3,4,4,5,5,6,6],"right_children":[2,4,6,8,10,12,14,-1,-1,-1,-1,-1,-1,-1,-1],"split_conditions":[-3.119E-1,-5.975E-1,1.255E-1,-1.0465E0,-3.182E-1,-2.993E-1,5.956E-1,-4.8072203E-3,-6.562397E-3,-1.820839E-3,-1.8826302E-2,9.075391E-3,-9.319799E-4,2.0349694E-3,5.4228646E-3],"split_indices":[1,1,1,1,1,1,1,0,0,0,0,0,0,0,0],"split_type":[0,0,0,0,0,0,0,0,0,0,0,0,0,0,0],"sum_hessian":[4.823E4,1.6689E4,3.1541E4,9.619E3,7.07E3,1.4206E4,1.7335E4,3.438E3,6.181E3,6.889E3,1.81E2,3.68E2,1.3838E4,1.2728E4,4.607E3],"tree_param":{"num_deleted":"0","num_feature":"2","num_nodes":"15","size_leaf_vector":"1"}},{"base_weights":[1.7321294E-3,-3.1115217E-2,2.8155576E-2,-4.363572E-2,-2.3965856E-2,2.825732E-1,4.56048E-3,-3.148111E-3,-7.985436E-3,-1.9458336E-3,-4.2402125E-3,1.3536359E-3,3.8591273E-2,2.621144E-3,-6.925825E-3],"categories":[],"categories_nodes":[],"categories_segments":[],"categories_sizes":[],"default_left":[0,0,0,0,0,0,0,0,0,0,0,0,0,0,0],"id":34,"left_children":[1,3,5,7,9,11,13,-1,-1,-1,-1,-1,-1,-1,-1],"loss_changes":[4.192936E1,1.8844528E0,1.6061006E2,2.7941732E0,1.098186E0,1.3815231E1,2.3515232E1,0E0,0E0,0E0,0E0,0E0,0E0,0E0,0E0],"parents":[2147483647,0,0,1,1,2,2,3,3,4,4,5,5,6,6],"right_children":[2,4,6,8,10,12,14,-1,-1,-1,-1,-1,-1,-1,-1],"split_conditions":[-2E0,-6.71E2,7.3E1,-9.91E2,-2.29E2,4E0,8.71E2,-3.148111E-3,-7.985436E-3,-1.9458336E-3,-4.2402125E-3,1.3536359E-3,3.8591273E-2,2.621144E-3,-6.925825E-3],"split_indices":[0,0,0,0,0,0,0,0,0,0,0,0,0,0,0],"split_type":[0,0,0,0,0,0,0,0,0,0,0,0,0,0,0],"sum_hessian":[4.8303E4,2.1524E4,2.6779E4,7.787E3,1.3737E4,2.267E3,2.4512E4,3.994E3,3.793E3,7.284E3,6.453E3,1.77E2,2.09E3,1.9272E4,5.24E3],"tree_param":{"num_deleted":"0","num_feature":"2","num_nodes":"15","size_leaf_vector":"1"}},{"base_weights":[-7.724575E-4,-2.976875E-2,1.7219653E-2,-4.9954347E-2,-1.5034996E-2,7.245478E-2,-1.5240288E-2,-3.780942E-3,-8.303771E-3,-1.5579009E-3,-5.4437267E-3,5.209303E-3,2.6481373E-2,2.0077858E-4,-6.7351265E-3],"categories":[],"categories_nodes":[],"categories_segments":[],"categories_sizes":[],"default_left":[0,0,0,0,0,0,0,0,0,0,0,0,0,0,0],"id":35,"left_children":[1,3,5,7,9,11,13,-1,-1,-1,-1,-1,-1,-1,-1],"loss_changes":[2.5106798E1,5.442507E0,5.324563E1,2.3847427E0,7.779274E-1,4.6885925E1,1.1992111E1,0E0,0E0,0E0,0E0,0E0,0E0,0E0,0E0],"parents":[2147483647,0,0,1,1,2,2,3,3,4,4,5,5,6,6],"right_children":[2,4,6,8,10,12,14,-1,-1,-1,-1,-1,-1,-1,-1],"split_conditions":[-1E2,-6.71E2,2.52E2,-1.267E3,-1.32E2,1.91E2,8.44E2,-3.780942E-3,-8.303771E-3,-1.5579009E-3,-5.4437267E-3,5.209303E-3,2.6481373E-2,2.0077858E-4,-6.7351265E-3],"split_indices":[0,0,0,0,0,0,0,0,0,0,0,0,0,0,0],"split_type":[0,0,0,0,0,0,0,0,0,0,0,0,0,0,0],"sum_hessian":[4.8103E4,1.843E4,2.9673E4,7.756E3,1.0674E4,1.0988E4,1.8685E4,3.431E3,4.325E3,9.756E3,9.18E2,8.955E3,2.033E3,1.2946E4,5.739E3],"tree_param":{"num_deleted":"0","num_feature":"2","num_nodes":"15","size_leaf_vector":"1"}},{"base_weights":[-2.7623864E-5,-2.5789117E-2,1.9657863E-2,-3.3620104E-2,-1.3264664E-2,7.6078526E-3,3.0214528E-2,-3.584478E-3,-9.103515E-3,-1.0076379E-3,-9.706059E-3,1.2255025E-3,-7.0237513E-3,4.365231E-3,-3.3950654E-4],"categories":[],"categories_nodes":[],"categories_segments":[],"categories_sizes":[],"default_left":[0,0,0,0,0,0,0,0,0,0,0,0,0,0,0],"id":36,"left_children":[1,3,5,7,9,11,13,-1,-1,-1,-1,-1,-1,-1,-1],"loss_changes":[2.447338E1,2.0226908E0,3.4553165E0,2.5301733E0,2.666175E0,1.6622802E0,2.0834646E0,0E0,0E0,0E0,0E0,0E0,0E0,0E0,0E0],"parents":[2147483647,0,0,1,1,2,2,3,3,4,4,5,5,6,6],"right_children":[2,4,6,8,10,12,14,-1,-1,-1,-1,-1,-1,-1,-1],"split_conditions":[-1.696E-1,-4.523E-1,2.096E-1,-5.187E-1,-1.877E-1,1.981E-1,8.059E-1,-3.584478E-3,-9.103515E-3,-1.0076379E-3,-9.706059E-3,1.2255025E-3,-7.0237513E-3,4.365231E-3,-3.3950654E-4],"split_indices":[1,1,1,1,1,1,1,0,0,0,0,0,0,0,0],"split_type":[0,0,0,0,0,0,0,0,0,0,0,0,0,0,0],"sum_hessian":[4.8244E4,2.0909E4,2.7335E4,1.2833E4,8.076E3,1.2793E4,1.4542E4,1.1304E4,1.529E3,7.467E3,6.09E2,1.2396E4,3.97E2,1.2871E4,1.671E3],"tree_param":{"num_deleted":"0","num_feature":"2","num_nodes":"15","size_leaf_vector":"1"}},{"base_weights":[-1.0029412E-3,-2.792077E-2,2.0972893E-2,-4.3364704E-2,-2.1096168E-2,2.1176541E-1,5.067181E-3,-1.158883E-2,-5.0976295E-3,-2.301411E-3,-3.8560606E-3,9.971892E-3,3.2583516E-2,-8.155078E-3,2.0375948E-3],"categories":[],"categories_nodes":[],"categories_segments":[],"categories_sizes":[],"default_left":[0,0,0,0,0,0,0,0,0,0,0,0,0,0,0],"id":37,"left_children":[1,3,5,7,9,11,13,-1,-1,-1,-1,-1,-1,-1,-1],"loss_changes":[2.847066E1,2.2406445E0,8.023705E1,8.8045883E-1,3.7922478E-1,1.2160149E1,1.8775328E1,0E0,0E0,0E0,0E0,0E0,0E0,0E0,0E0],"parents":[2147483647,0,0,1,1,2,2,3,3,4,4,5,5,6,6],"right_children":[2,4,6,8,10,12,14,-1,-1,-1,-1,-1,-1,-1,-1],"split_conditions":[-2E0,-7.63E2,6.6E1,-4.31E3,-1.12E2,1.7E1,1.75E2,-1.158883E-2,-5.0976295E-3,-2.301411E-3,-3.8560606E-3,9.971892E-3,3.2583516E-2,-8.155078E-3,2.0375948E-3],"split_indices":[0,0,0,0,0,0,0,0,0,0,0,0,0,0,0],"split_type":[0,0,0,0,0,0,0,0,0,0,0,0,0,0,0],"sum_hessian":[4.8115E4,2.1637E4,2.6478E4,6.599E3,1.5038E4,2.031E3,2.4447E4,3.73E2,6.226E3,1.1557E4,3.481E3,5.28E2,1.503E3,3.341E3,2.1106E4],"tree_param":{"num_deleted":"0","num_feature":"2","num_nodes":"15","size_leaf_vector":"1"}},{"base_weights":[1.593591E-4,-3.106717E-2,2.2576587E-2,1.0104749E-2,-3.4844387E-2,6.172431E-2,-2.0515928E-2,-2.1881645E-3,7.996065E-3,-5.179202E-3,-2.9012903E-3,1.6243106E-2,5.3298357E-3,-4.901581E-4,-5.664575E-3],"categories":[],"categories_nodes":[],"categories_segments":[],"categories_sizes":[],"default_left":[0,0,0,0,0,0,0,0,0,0,0,0,0,0,0],"id":38,"left_children":[1,3,5,7,9,11,13,-1,-1,-1,-1,-1,-1,-1,-1],"loss_changes":[3.3831635E1,3.155157E0,4.751336E1,2.488207E0,1.307909E0,1.9156258E1,5.3856125E0,0E0,0E0,0E0,0E0,0E0,0E0,0E0,0E0],"parents":[2147483647,0,0,1,1,2,2,3,3,4,4,5,5,6,6],"right_children":[2,4,6,8,10,12,14,-1,-1,-1,-1,-1,-1,-1,-1],"split_conditions":[-4.5E1,-2.445E3,4.4E2,-3.17E3,-2.88E2,6.6E1,8.57E2,-2.1881645E-3,7.996065E-3,-5.179202E-3,-2.9012903E-3,1.6243106E-2,5.3298357E-3,-4.901581E-4,-5.664575E-3],"split_indices":[0,0,0,0,0,0,0,0,0,0,0,0,0,0,0],"split_type":[0,0,0,0,0,0,0,0,0,0,0,0,0,0,0],"sum_hessian":[4.8329E4,2.0185E4,2.8144E4,1.683E3,1.8502E4,1.4753E4,1.3391E4,1.105E3,5.78E2,1.2176E4,6.326E3,3.332E3,1.1421E4,7.964E3,5.427E3],"tree_param":{"num_deleted":"0","num_feature":"2","num_nodes":"15","size_leaf_vector":"1"}},{"base_weights":[4.7367197E-5,-3.317168E-2,7.20077E-3,-4.01926E-2,-1.7808601E-2,4.712219E-3,4.2273015E-2,-4.6962732E-3,-1.5406848E-2,8.93389E-3,-3.0899479E-3,7.1141723E-4,-6.6969865E-3,4.653241E-3,9.21837E-3],"categories":[],"categories_nodes":[],"categories_segments":[],"categories_sizes":[],"default_left":[0,0,0,0,0,0,0,0,0,0,0,0,0,0,0],"id":39,"left_children":[1,3,5,7,9,11,13,-1,-1,-1,-1,-1,-1,-1,-1],"loss_changes":[1.1447987E1,8.8456917E-1,3.4379086E0,1.3408203E0,1.570455E0,1.9325718E0,3.649168E-1,0E0,0E0,0E0,0E0,0E0,0E0,0E0,0E0],"parents":[2147483647,0,0,1,1,2,2,3,3,4,4,5,5,6,6],"right_children":[2,4,6,8,10,12,14,-1,-1,-1,-1,-1,-1,-1,-1],"split_conditions":[-6.573E-1,-8.263E-1,7.188E-1,-8.41E-1,-8.127E-1,6.771E-1,1.0444E0,-4.6962732E-3,-1.5406848E-2,8.93389E-3,-3.0899479E-3,7.1141723E-4,-6.6969865E-3,4.653241E-3,9.21837E-3],"split_indices":[1,1,1,1,1,1,1,0,0,0,0,0,0,0,0],"split_type":[0,0,0,0,0,0,0,0,0,0,0,0,0,0,0],"sum_hessian":[4.823E4,8.529E3,3.9701E4,5.824E3,2.705E3,3.709E4,2.611E3,5.627E3,1.97E2,1.8E2,2.525E3,3.6524E4,5.66E2,2.239E3,3.72E2],"tree_param":{"num_deleted":"0","num_feature":"2","num_nodes":"15","size_leaf_vector":"1"}},{"base_weights":[5.437574E-4,-1.7980695E-2,2.0198349E-2,-1.6818209E-2,-1.1525491E-2,7.6988816E-2,1.8324744E-2,-3.0688385E-3,-1.9539376E-4,7.1075265E-3,1.6435372E-2,2.4273589E-3,-1.0026961E-2],"categories":[],"categories_nodes":[],"categories_segments":[],"categories_sizes":[],"default_left":[0,0,0,0,0,0,0,0,0,0,0,0,0],"id":40,"left_children":[1,3,5,7,-1,9,11,-1,-1,-1,-1,-1,-1],"loss_changes":[1.7586086E1,2.0466394E0,2.4352388E0,2.7722254E0,0E0,6.7758846E-1,1.914639E0,0E0,0E0,0E0,0E0,0E0,0E0],"parents":[2147483647,0,0,1,1,2,2,3,3,5,5,6,6],"right_children":[2,4,6,8,-1,10,12,-1,-1,-1,-1,-1,-1],"split_conditions":[-4.96E-2,-6.09E-2,-2.74E-2,-3.182E-1,-1.1525491E-2,-3.34E-2,1.1337E0,-3.0688385E-3,-1.9539376E-4,7.1075265E-3,1.6435372E-2,2.4273589E-3,-1.0026961E-2],"split_indices":[1,1,1,1,0,1,1,0,0,0,0,0,0],"split_type":[0,0,0,0,0,0,0,0,0,0,0,0,0],"sum_hessian":[4.829E4,2.4845E4,2.3445E4,2.4469E4,3.76E2,7.34E2,2.2711E4,1.6415E4,8.054E3,5.41E2,1.93E2,2.2518E4,1.93E2],"tree_param":{"num_deleted":"0","num_feature":"2","num_nodes":"13","size_leaf_vector":"1"}},{"base_weights":[-6.3332617E-3,-2.2749906E-2,4.612425E-3,-6.002655E-2,-1.9091764E-2,1.2399243E-2,-4.478598E-3,-4.424335E-3,-1.7715726E-2,3.4635752E-3,-2.6827732E-3,1.0476776E-3,5.0824233E-3,-1.0171277E-2,-0E0],"categories":[],"categories_nodes":[],"categories_segments":[],"categories_sizes":[],"default_left":[0,0,0,0,0,0,0,0,0,0,0,0,0,0,0],"id":41,"left_children":[1,3,5,7,9,11,13,-1,-1,-1,-1,-1,-1,-1,-1],"loss_changes":[8.730791E0,2.600541E0,2.0645738E0,3.3315544E0,1.7525849E0,1.7669516E0,4.599018E0,0E0,0E0,0E0,0E0,0E0,0E0,0E0,0E0],"parents":[2147483647,0,0,1,1,2,2,3,3,4,4,5,5,6,6],"right_children":[2,4,6,8,10,12,14,-1,-1,-1,-1,-1,-1,-1,-1],"split_conditions":[-2.174E-1,-1.2991E0,2.513E-1,-1.3779E0,-1.1691E0,1.87E-1,2.751E-1,-4.424335E-3,-1.7715726E-2,3.4635752E-3,-2.6827732E-3,1.0476776E-3,5.0824233E-3,-1.0171277E-2,-0E0],"split_indices":[1,1,1,1,1,1,1,0,0,0,0,0,0,0,0],"split_type":[0,0,0,0,0,0,0,0,0,0,0,0,0,0,0],"sum_hessian":[4.8524E4,1.943E4,2.9094E4,1.717E3,1.7713E4,1.5704E4,1.339E4,1.318E3,3.99E2,7.62E2,1.6951E4,1.3703E4,2.001E3,7.48E2,1.2642E4],"tree_param":{"num_deleted":"0","num_feature":"2","num_nodes":"15","size_leaf_vector":"1"}},{"base_weights":[2.457285E-3,-2.0002913E-2,2.0648489E-2,-1.8736742E-2,-8.181217E-2,1.5712985E-1,9.389299E-3,-2.676671E-3,4.0460736E-3,-1.6258433E-2,-4.1243252E-3,4.7074277E-3,2.8290568E-2,4.207246E-3,-2.544835E-3],"categories":[],"categories_nodes":[],"categories_segments":[],"categories_sizes":[],"default_left":[0,0,0,0,0,0,0,0,0,0,0,0,0,0,0],"id":42,"left_children":[1,3,5,7,9,11,13,-1,-1,-1,-1,-1,-1,-1,-1],"loss_changes":[1.9669722E1,1.6216202E0,4.0793274E1,2.6060457E0,8.629186E-1,1.5992336E1,1.735315E1,0E0,0E0,0E0,0E0,0E0,0E0,0E0,0E0],"parents":[2147483647,0,0,1,1,2,2,3,3,4,4,5,5,6,6],"right_children":[2,4,6,8,10,12,14,-1,-1,-1,-1,-1,-1,-1,-1],"split_conditions":[-2E0,-1.6E1,6.6E1,-4.5E1,-1E1,2.2E1,5.45E2,-2.676671E-3,4.0460736E-3,-1.6258433E-2,-4.1243252E-3,4.7074277E-3,2.8290568E-2,4.207246E-3,-2.544835E-3],"split_indices":[0,0,0,0,0,0,0,0,0,0,0,0,0,0,0],"split_type":[0,0,0,0,0,0,0,0,0,0,0,0,0,0,0],"sum_hessian":[4.8133E4,2.1525E4,2.6608E4,2.1107E4,4.18E2,2.02E3,2.4588E4,2.0153E4,9.54E2,2.05E2,2.13E2,7.27E2,1.293E3,1.36E4,1.0988E4],"tree_param":{"num_deleted":"0","num_feature":"2","num_nodes":"15","size_leaf_vector":"1"}},{"base_weights":[-1.2136199E-4,-2.3495639E-2,1.34911E-2,-2.2174427E-2,-1.0460379E-2,3.8080306E-3,2.6303582E-2,-3.8996623E-3,-1.5586497E-3,1.6740666E-3,-7.6632237E-4,2.542986E-3,5.3762794E-3],"categories":[],"categories_nodes":[],"categories_segments":[],"categories_sizes":[],"default_left":[0,0,0,0,0,0,0,0,0,0,0,0,0],"id":43,"left_children":[1,3,5,7,-1,9,11,-1,-1,-1,-1,-1,-1],"loss_changes":[1.5323241E1,1.3211584E0,3.7550216E0,1.4562597E0,0E0,1.6197898E0,1.272438E0,0E0,0E0,0E0,0E0,0E0,0E0],"parents":[2147483647,0,0,1,1,2,2,3,3,5,5,6,6],"right_children":[2,4,6,8,-1,10,12,-1,-1,-1,-1,-1,-1],"split_conditions":[-2.674E-1,-2.807E-1,2.571E-1,-6.167E-1,-1.0460379E-2,1.09E-2,6.514E-1,-3.8996623E-3,-1.5586497E-3,1.6740666E-3,-7.6632237E-4,2.542986E-3,5.3762794E-3],"split_indices":[1,1,1,1,0,1,1,0,0,0,0,0,0],"split_type":[0,0,0,0,0,0,0,0,0,0,0,0,0],"sum_hessian":[4.8133E4,1.7729E4,3.0404E4,1.7357E4,3.72E2,1.7345E4,1.3059E4,9.193E3,8.164E3,8.897E3,8.448E3,9.485E3,3.574E3],"tree_param":{"num_deleted":"0","num_feature":"2","num_nodes":"13","size_leaf_vector":"1"}},{"base_weights":[-4.972579E-3,-2.0558197E-2,7.37315E-3,-1.8602544E-2,-1.7655617E-2,1.4913061E-1,-5.653035E-3,-2.664902E-3,1.5760657E-3,1.992803E-3,2.7853787E-2,-7.8035914E-3,4.074442E-4],"categories":[],"categories_nodes":[],"categories_segments":[],"categories_sizes":[],"default_left":[0,0,0,0,0,0,0,0,0,0,0,0,0],"id":44,"left_children":[1,3,5,7,-1,9,11,-1,-1,-1,-1,-1,-1],"loss_changes":[9.357002E0,4.906723E0,5.0115555E1,1.6344151E0,0E0,2.1538876E1,1.2384313E1,0E0,0E0,0E0,0E0,0E0,0E0],"parents":[2147483647,0,0,1,1,2,2,3,3,5,5,6,6],"right_children":[2,4,6,8,-1,10,12,-1,-1,-1,-1,-1,-1],"split_conditions":[-1E1,-2.1E1,6.6E1,-6.9E1,-1.7655617E-2,1.7E1,1.75E2,-2.664902E-3,1.5760657E-3,1.992803E-3,2.7853787E-2,-7.8035914E-3,4.074442E-4],"split_indices":[0,0,0,0,0,0,0,0,0,0,0,0,0],"split_type":[0,0,0,0,0,0,0,0,0,0,0,0,0],"sum_hessian":[4.8583E4,2.1493E4,2.709E4,2.1155E4,3.38E2,2.28E3,2.481E4,1.9611E4,1.544E3,7.98E2,1.482E3,3.396E3,2.1414E4],"tree_param":{"num_deleted":"0","num_feature":"2","num_nodes":"13","size_leaf_vector":"1"}},{"base_weights":[2.950823E-3,-2.2920439E-2,8.247743E-3,-3.2946316E-3,-3.948972E-2,2.253881E-2,-9.814568E-3,-1.3987701E-3,4.7480194E-3,-6.979334E-3,-2.5786129E-3,1.0144794E-3,1.30032245E-2,-2.359145E-2,-9.812323E-4],"categories":[],"categories_nodes":[],"categories_segments":[],"categories_sizes":[],"default_left":[0,0,0,0,0,0,0,0,0,0,0,0,0,0,0],"id":45,"left_children":[1,3,5,7,9,11,13,-1,-1,-1,-1,-1,-1,-1,-1],"loss_changes":[6.615179E0,2.6403708E0,1.0368401E1,1.1838623E0,1.281332E0,2.6076797E1,6.312951E0,0E0,0E0,0E0,0E0,0E0,0E0,0E0,0E0],"parents":[2147483647,0,0,1,1,2,2,3,3,4,4,5,5,6,6],"right_children":[2,4,6,8,10,12,14,-1,-1,-1,-1,-1,-1,-1,-1],"split_conditions":[-6.27E2,-1.037E3,2.82E2,-1.401E3,-7.95E2,1.8E2,2.88E2,-1.3987701E-3,4.7480194E-3,-6.979334E-3,-2.5786129E-3,1.0144794E-3,1.30032245E-2,-2.359145E-2,-9.812323E-4],"split_indices":[0,0,0,0,0,0,0,0,0,0,0,0,0,0,0],"split_type":[0,0,0,0,0,0,0,0,0,0,0,0,0,0,0],"sum_hessian":[4.8324E4,8.192E3,4.0132E4,3.768E3,4.424E3,2.2422E4,1.771E4,3.18E3,5.88E2,2.406E3,2.018E3,1.9E4,3.422E3,1.96E2,1.7514E4],"tree_param":{"num_deleted":"0","num_feature":"2","num_nodes":"15","size_leaf_vector":"1"}},{"base_weights":[5.083433E-3,-1.0708842E-2,1.7948546E-2,-6.90284E-3,-7.04764E-2,1.644056E-1,7.950575E-3,-1.0141935E-3,1.2836513E-2,-1.2069957E-2,-8.5137115E-4,1.4716983E-2,2.5353957E-2,-8.665411E-3,2.5529773E-3],"categories":[],"categories_nodes":[],"categories_segments":[],"categories_sizes":[],"default_left":[0,0,0,0,0,0,0,0,0,0,0,0,0,0,0],"id":46,"left_children":[1,3,5,7,9,11,13,-1,-1,-1,-1,-1,-1,-1,-1],"loss_changes":[9.751927E0,4.8493376E0,3.8639984E1,2.4079247E0,1.977315E0,2.6535149E0,2.3182909E1,0E0,0E0,0E0,0E0,0E0,0E0,0E0,0E0],"parents":[2147483647,0,0,1,1,2,2,3,3,4,4,5,5,6,6],"right_children":[2,4,6,8,10,12,14,-1,-1,-1,-1,-1,-1,-1,-1],"split_conditions":[4E0,-3.9E1,6E1,-4.5E1,-1E1,2.8E1,1.69E2,-1.0141935E-3,1.2836513E-2,-1.2069957E-2,-8.5137115E-4,1.4716983E-2,2.5353957E-2,-8.665411E-3,2.5529773E-3],"split_indices":[0,0,0,0,0,0,0,0,0,0,0,0,0,0,0],"split_type":[0,0,0,0,0,0,0,0,0,0,0,0,0,0,0],"sum_hessian":[4.7971E4,2.1516E4,2.6455E4,2.0241E4,1.275E3,1.683E3,2.4772E4,2.0043E4,1.98E2,9.08E2,3.67E2,7.37E2,9.46E2,3.409E3,2.1363E4],"tree_param":{"num_deleted":"0","num_feature":"2","num_nodes":"15","size_leaf_vector":"1"}},{"base_weights":[2.4168661E-3,1.0195194E-2,-2.3908561E-2,-1.5943553E-2,2.6477242E-2,-2.7400644E-2,9.184941E-3,-1.746605E-3,-6.8150884E-3,1.6218992E-3,5.507121E-3,-1.656941E-3,-6.20215E-3],"categories":[],"categories_nodes":[],"categories_segments":[],"categories_sizes":[],"default_left":[0,0,0,0,0,0,0,0,0,0,0,0,0],"id":47,"left_children":[1,3,5,7,9,11,-1,-1,-1,-1,-1,-1,-1],"loss_changes":[9.873828E0,1.5868206E1,3.688057E0,1.1130812E0,5.3234844E0,3.248456E0,0E0,0E0,0E0,0E0,0E0,0E0,0E0],"parents":[2147483647,0,0,1,1,2,2,3,3,4,4,5,5],"right_children":[2,4,6,8,10,12,-1,-1,-1,-1,-1,-1,-1],"split_conditions":[5.45E2,-2.63E2,4.24E3,-2.98E2,1.8E2,9.26E2,9.184941E-3,-1.746605E-3,-6.8150884E-3,1.6218992E-3,5.507121E-3,-1.656941E-3,-6.20215E-3],"split_indices":[0,0,0,0,0,0,0,0,0,0,0,0,0],"split_type":[0,0,0,0,0,0,0,0,0,0,0,0,0],"sum_hessian":[4.8249E4,3.7263E4,1.0986E4,1.4289E4,2.2974E4,1.0611E4,3.75E2,1.355E4,7.39E2,1.2794E4,1.018E4,6.412E3,4.199E3],"tree_param":{"num_deleted":"0","num_feature":"2","num_nodes":"13","size_leaf_vector":"1"}},{"base_weights":[1.7689876E-3,6.0209217E-3,-3.2555494E-2,-1.2773418E-2,2.0437809E-2,-6.1860062E-2,-1.5840068E-2,1.2573711E-2,-1.762325E-3,7.278871E-3,1.1971283E-3,-2.748912E-3,-8.325673E-3,2.5475456E-4,-9.956222E-3],"categories":[],"categories_nodes":[],"categories_segments":[],"categories_sizes":[],"default_left":[0,0,0,0,0,0,0,0,0,0,0,0,0,0,0],"id":48,"left_children":[1,3,5,7,9,11,13,-1,-1,-1,-1,-1,-1,-1,-1],"loss_changes":[7.0208435E0,1.1631834E1,2.5475683E0,2.3941622E0,9.858809E0,2.5091314E-1,3.8546638E0,0E0,0E0,0E0,0E0,0E0,0E0,0E0,0E0],"parents":[2147483647,0,0,1,1,2,2,3,3,4,4,5,5,6,6],"right_children":[2,4,6,8,10,12,14,-1,-1,-1,-1,-1,-1,-1,-1],"split_conditions":[8.71E2,-9.4E1,1.037E3,-4.637E3,8.5E1,8.85E2,3.544E3,1.2573711E-2,-1.762325E-3,7.278871E-3,1.1971283E-3,-2.748912E-3,-8.325673E-3,2.5475456E-4,-9.956222E-3],"split_indices":[0,0,0,0,0,0,0,0,0,0,0,0,0,0,0],"split_type":[0,0,0,0,0,0,0,0,0,0,0,0,0,0,0],"sum_hessian":[4.82E4,4.2905E4,5.295E3,1.8608E4,2.4297E4,1.907E3,3.388E3,1.83E2,1.8425E4,5.524E3,1.8773E4,1.88E2,1.719E3,2.635E3,7.53E2],"tree_param":{"num_deleted":"0","num_feature":"2","num_nodes":"15","size_leaf_vector":"1"}},{"base_weights":[1.4894492E-3,-2.3303844E-2,7.388635E-3,-2.1912389E-2,-1.0421565E-2,2.6982743E-3,2.8403977E-2,-2.9449735E-3,1.002793E-3,4.6073302E-4,-9.2004E-3,4.570724E-3,-1.5472807E-3],"categories":[],"categories_nodes":[],"categories_segments":[],"categories_sizes":[],"default_left":[0,0,0,0,0,0,0,0,0,0,0,0,0],"id":49,"left_children":[1,3,5,7,-1,9,11,-1,-1,-1,-1,-1,-1],"loss_changes":[7.0157804E0,6.915302E-1,3.8080847E0,3.8152647E-1,0E0,2.229808E0,2.239427E0,0E0,0E0,0E0,0E0,0E0,0E0],"parents":[2147483647,0,0,1,1,2,2,3,3,5,5,6,6],"right_children":[2,4,6,8,-1,10,12,-1,-1,-1,-1,-1,-1],"split_conditions":[-6.167E-1,-6.266E-1,4.746E-1,-6.464E-1,-1.0421565E-2,4.587E-1,8.793E-1,-2.9449735E-3,1.002793E-3,4.6073302E-4,-9.2004E-3,4.570724E-3,-1.5472807E-3],"split_indices":[1,1,1,1,0,1,1,0,0,0,0,0,0],"split_type":[0,0,0,0,0,0,0,0,0,0,0,0,0],"sum_hessian":[4.8021E4,9.209E3,3.8812E4,9.012E3,1.97E2,3.1756E4,7.056E3,8.632E3,3.8E2,3.1374E4,3.82E2,5.938E3,1.118E3],"tree_param":{"num_deleted":"0","num_feature":"2","num_nodes":"13","size_leaf_vector":"1"}},{"base_weights":[-1.5594738E-3,-1.3763921E-2,7.673917E-3,-1.1031706E-2,-5.1742688E-2,7.617334E-2,-3.3179517E-3,-1.6317887E-3,1.1015601E-2,-7.632035E-3,-3.7677088E-3,8.765655E-3,2.4177544E-2,-1.3226359E-2,6.6048827E-4],"categories":[],"categories_nodes":[],"categories_segments":[],"categories_sizes":[],"default_left":[0,0,0,0,0,0,0,0,0,0,0,0,0,0,0],"id":50,"left_children":[1,3,5,7,9,11,13,-1,-1,-1,-1,-1,-1,-1,-1],"loss_changes":[5.407741E0,2.10813E0,2.0579512E1,3.5188384E0,2.0146441E-1,2.7718086E0,2.0396193E1,0E0,0E0,0E0,0E0,0E0,0E0,0E0,0E0],"parents":[2147483647,0,0,1,1,2,2,3,3,4,4,5,5,6,6],"right_children":[2,4,6,8,10,12,14,-1,-1,-1,-1,-1,-1,-1,-1],"split_conditions":[-2.1E1,-6.3E1,1.04E2,-7.5E1,-3.4E1,9.7E1,1.63E2,-1.6317887E-3,1.1015601E-2,-7.632035E-3,-3.7677088E-3,8.765655E-3,2.4177544E-2,-1.3226359E-2,6.6048827E-4],"split_indices":[0,0,0,0,0,0,0,0,0,0,0,0,0,0,0],"split_type":[0,0,0,0,0,0,0,0,0,0,0,0,0,0,0],"sum_hessian":[4.795E4,2.0678E4,2.7272E4,1.9309E4,1.369E3,3.775E3,2.3497E4,1.8956E4,3.53E2,9.59E2,4.1E2,3.574E3,2.01E2,1.829E3,2.1668E4],"tree_param":{"num_deleted":"0","num_feature":"2","num_nodes":"15","size_leaf_vector":"1"}},{"base_weights":[-4.109895E-3,-7.005499E-4,-2.9391523E-2,-1.0134175E-2,1.5690118E-2,-4.226221E-2,1.3050018E-2,-2.465941E-4,-1.4855428E-2,1.7657878E-2,-9.951751E-4,-4.701051E-3,-1.2679804E-2,-2.2703611E-4,4.2907367E-3],"categories":[],"categories_nodes":[],"categories_segments":[],"categories_sizes":[],"default_left":[0,0,0,0,0,0,0,0,0,0,0,0,0,0,0],"id":51,"left_children":[1,3,5,7,9,11,13,-1,-1,-1,-1,-1,-1,-1,-1],"loss_changes":[4.1158E0,6.53433E0,3.120407E0,2.3530525E1,4.513543E1,1.1938643E0,4.2602712E-1,0E0,0E0,0E0,0E0,0E0,0E0,0E0,0E0],"parents":[2147483647,0,0,1,1,2,2,3,3,4,4,5,5,6,6],"right_children":[2,4,6,8,10,12,14,-1,-1,-1,-1,-1,-1,-1,-1],"split_conditions":[8.44E2,1.75E2,2.454E3,1.15E2,2.47E2,2.184E3,3.927E3,-2.465941E-4,-1.4855428E-2,1.7657878E-2,-9.951751E-4,-4.701051E-3,-1.2679804E-2,-2.2703611E-4,4.2907367E-3],"split_indices":[0,0,0,0,0,0,0,0,0,0,0,0,0,0,0],"split_type":[0,0,0,0,0,0,0,0,0,0,0,0,0,0,0],"sum_hessian":[4.7946E4,4.2272E4,5.674E3,2.6853E4,1.5419E4,4.364E3,1.31E3,2.496E4,1.893E3,2.463E3,1.2956E4,4.028E3,3.36E2,7.52E2,5.58E2],"tree_param":{"num_deleted":"0","num_feature":"2","num_nodes":"15","size_leaf_vector":"1"}},{"base_weights":[1.4734834E-3,1.2016197E-2,-1.4924664E-2,3.3164555E-3,1.3910404E-1,-4.3429855E-2,-1.1111421E-2,1.2338702E-3,-8.803169E-3,2.1542268E-2,8.285142E-3,-9.856723E-4,-8.50338E-3,-1.9864934E-4,-3.9437255E-3],"categories":[],"categories_nodes":[],"categories_segments":[],"categories_sizes":[],"default_left":[0,0,0,0,0,0,0,0,0,0,0,0,0,0,0],"id":52,"left_children":[1,3,5,7,9,11,13,-1,-1,-1,-1,-1,-1,-1,-1],"loss_changes":[8.345748E0,3.2433784E1,2.0186214E0,1.2911417E1,4.150116E0,1.8303404E0,3.1751807E0,0E0,0E0,0E0,0E0,0E0,0E0,0E0,0E0],"parents":[2147483647,0,0,1,1,2,2,3,3,4,4,5,5,6,6],"right_children":[2,4,6,8,10,12,14,-1,-1,-1,-1,-1,-1,-1,-1],"split_conditions":[2.47E2,1.91E2,3.2E2,1.21E2,2.3E2,2.76E2,8.71E2,1.2338702E-3,-8.803169E-3,2.1542268E-2,8.285142E-3,-9.856723E-4,-8.50338E-3,-1.9864934E-4,-3.9437255E-3],"split_indices":[0,0,0,0,0,0,0,0,0,0,0,0,0,0,0],"split_type":[0,0,0,0,0,0,0,0,0,0,0,0,0,0,0],"sum_hessian":[4.8276E4,2.9406E4,1.887E4,2.753E4,1.876E3,2.204E3,1.6666E4,2.5306E4,2.224E3,1.307E3,5.69E2,8.95E2,1.309E3,1.1321E4,5.345E3],"tree_param":{"num_deleted":"0","num_feature":"2","num_nodes":"15","size_leaf_vector":"1"}},{"base_weights":[-6.4183474E-3,-2.1566242E-2,-3.4747324E-3,7.46336E-3,-2.3462294E-2,-2.714852E-3,-5.4115184E-2,-1.2140276E-3,-3.5307233E-3,-4.051155E-4,1.25592E-2,-1.0187309E-2,-5.0096503E-3],"categories":[],"categories_nodes":[],"categories_segments":[],"categories_sizes":[],"default_left":[0,0,0,0,0,0,0,0,0,0,0,0,0],"id":53,"left_children":[1,3,5,-1,7,9,11,-1,-1,-1,-1,-1,-1],"loss_changes":[2.1493955E0,1.1871037E0,1.5321138E0,0E0,4.537692E-1,1.9497846E0,1.4519572E-1,0E0,0E0,0E0,0E0,0E0,0E0],"parents":[2147483647,0,0,1,1,2,2,4,4,5,5,6,6],"right_children":[2,4,6,-1,8,10,12,-1,-1,-1,-1,-1,-1],"split_conditions":[-7.007E-1,-1.8967E0,9.895E-1,7.46336E-3,-1.2313E0,9.487E-1,1.0444E0,-1.2140276E-3,-3.5307233E-3,-4.051155E-4,1.25592E-2,-1.0187309E-2,-5.0096503E-3],"split_indices":[1,1,1,0,1,1,1,0,0,0,0,0,0],"split_type":[0,0,0,0,0,0,0,0,0,0,0,0,0],"sum_hessian":[4.8526E4,7.86E3,4.0666E4,1.71E2,7.689E3,4.008E4,5.86E2,1.908E3,5.781E3,3.9898E4,1.82E2,1.87E2,3.99E2],"tree_param":{"num_deleted":"0","num_feature":"2","num_nodes":"13","size_leaf_vector":"1"}},{"base_weights":[-4.0633883E-4,-7.1536484E-3,1.7878292E-2,-1.4447092E-2,-4.277848E-3,3.8945995E-2,1.2382467E-2,-6.804553E-4,-7.3545906E-3,1.7650115E-3,-1.0040854E-3,3.5341184E-3,6.7346217E-3,-1.0175353E-2,2.254239E-3],"categories":[],"categories_nodes":[],"categories_segments":[],"categories_sizes":[],"default_left":[0,0,0,0,0,0,0,0,0,0,0,0,0,0,0],"id":54,"left_children":[1,3,5,7,9,11,13,-1,-1,-1,-1,-1,-1,-1,-1],"loss_changes":[5.9557467E0,7.2994757E-1,1.474442E0,3.8990865E0,1.6943407E0,3.6780977E-1,5.202497E0,0E0,0E0,0E0,0E0,0E0,0E0,0E0,0E0],"parents":[2147483647,0,0,1,1,2,2,3,3,4,4,5,5,6,6],"right_children":[2,4,6,8,10,12,14,-1,-1,-1,-1,-1,-1,-1,-1],"split_conditions":[2.571E-1,-5.794E-1,3.442E-1,-6.68E-1,-4.001E-1,3.064E-1,3.641E-1,-6.804553E-4,-7.3545906E-3,1.7650115E-3,-1.0040854E-3,3.5341184E-3,6.7346217E-3,-1.0175353E-2,2.254239E-3],"split_indices":[1,1,1,1,1,1,1,0,0,0,0,0,0,0,0],"split_type":[0,0,0,0,0,0,0,0,0,0,0,0,0,0,0],"sum_hessian":[4.8316E4,3.5317E4,1.2999E4,9.927E3,2.539E4,2.663E3,1.0336E4,8.237E3,1.69E3,4.22E3,2.117E4,1.536E3,1.127E3,5.64E2,9.772E3],"tree_param":{"num_deleted":"0","num_feature":"2","num_nodes":"15","size_leaf_vector":"1"}},{"base_weights":[3.6136261E-3,-6.8687564E-3,1.5700663E-2,-2.9022612E-3,-2.740125E-2,1.1970862E-2,3.6652114E-2,4.08447E-4,-1.1820953E-3,-6.29587E-3,-2.445337E-3,7.911745E-3,1.2481364E-3,8.30104E-3,2.2275455E-3],"categories":[],"categories_nodes":[],"categories_segments":[],"categories_sizes":[],"default_left":[0,0,0,0,0,0,0,0,0,0,0,0,0,0,0],"id":55,"left_children":[1,3,5,7,9,11,13,-1,-1,-1,-1,-1,-1,-1,-1],"loss_changes":[6.105083E0,2.0804E0,1.7199574E0,8.585068E-1,7.0540977E-1,1.9771934E0,1.8020525E0,0E0,0E0,0E0,0E0,0E0,0E0,0E0,0E0],"parents":[2147483647,0,0,1,1,2,2,3,3,4,4,5,5,6,6],"right_children":[2,4,6,8,10,12,14,-1,-1,-1,-1,-1,-1,-1,-1],"split_conditions":[-2.12E-2,-1.464E-1,6.638E-1,-5.35E-1,-1.113E-1,-0E0,7.682E-1,4.08447E-4,-1.1820953E-3,-6.29587E-3,-2.445337E-3,7.911745E-3,1.2481364E-3,8.30104E-3,2.2275455E-3],"split_indices":[1,1,1,1,1,1,1,0,0,0,0,0,0,0,0],"split_type":[0,0,0,0,0,0,0,0,0,0,0,0,0,0,0],"sum_hessian":[4.8138E4,2.5756E4,2.2382E4,2.1613E4,4.143E3,1.9028E4,3.354E3,1.1033E4,1.058E4,1.072E3,3.071E3,7.42E2,1.8286E4,1.313E3,2.041E3],"tree_param":{"num_deleted":"0","num_feature":"2","num_nodes":"15","size_leaf_vector":"1"}},{"base_weights":[1.8164375E-3,-1.2105641E-2,1.06856E-2,-5.32816E-2,-8.337701E-3,1.899381E-2,6.328361E-3,-5.190479E-3,-1.1279611E-2,-8.6254446E-4,-5.142733E-3,1.8195658E-3,4.6292404E-3,-1.4455626E-2,9.4061316E-4],"categories":[],"categories_nodes":[],"categories_segments":[],"categories_sizes":[],"default_left":[0,0,0,0,0,0,0,0,0,0,0,0,0,0,0],"id":56,"left_children":[1,3,5,7,9,11,13,-1,-1,-1,-1,-1,-1,-1,-1],"loss_changes":[5.965627E0,2.876731E0,1.0545332E0,5.971918E-1,8.156594E-1,7.891576E-1,2.5497732E0,0E0,0E0,0E0,0E0,0E0,0E0,0E0,0E0],"parents":[2147483647,0,0,1,1,2,2,3,3,4,4,5,5,6,6],"right_children":[2,4,6,8,10,12,14,-1,-1,-1,-1,-1,-1,-1,-1],"split_conditions":[-2.424E-1,-1.3394E0,6.51E-2,-1.4262E0,-2.674E-1,6.1E-3,6.99E-2,-5.190479E-3,-1.1279611E-2,-8.6254446E-4,-5.142733E-3,1.8195658E-3,4.6292404E-3,-1.4455626E-2,9.4061316E-4],"split_indices":[1,1,1,1,1,1,1,0,0,0,0,0,0,0,0],"split_type":[0,0,0,0,0,0,0,0,0,0,0,0,0,0,0],"sum_hessian":[4.8312E4,1.8775E4,2.9537E4,1.557E3,1.7218E4,1.0112E4,1.9425E4,1.18E3,3.77E2,1.6469E4,7.49E2,8.05E3,2.062E3,1.69E2,1.9256E4],"tree_param":{"num_deleted":"0","num_feature":"2","num_nodes":"15","size_leaf_vector":"1"}},{"base_weights":[-3.0147196E-3,-2.3198666E-2,1.5050608E-3,1.2474905E-2,-2.5963144E-2,5.973507E-3,-2.5780153E-2,-1.4812243E-3,-4.566988E-3,-6.396455E-4,2.3824503E-3,-7.243674E-3,-6.977332E-4],"categories":[],"categories_nodes":[],"categories_segments":[],"categories_sizes":[],"default_left":[0,0,0,0,0,0,0,0,0,0,0,0,0],"id":57,"left_children":[1,3,5,-1,7,9,11,-1,-1,-1,-1,-1,-1],"loss_changes":[4.423114E0,2.957028E0,4.803215E0,0E0,1.2277751E0,4.8294635E0,3.500162E0,0E0,0E0,0E0,0E0,0E0,0E0],"parents":[2147483647,0,0,1,1,2,2,4,4,5,5,6,6],"right_children":[2,4,6,-1,8,10,12,-1,-1,-1,-1,-1,-1],"split_conditions":[-5.72E2,-4.637E3,8.57E2,1.2474905E-2,-9.91E2,1.8E2,1.037E3,-1.4812243E-3,-4.566988E-3,-6.396455E-4,2.3824503E-3,-7.243674E-3,-6.977332E-4],"split_indices":[0,0,0,0,0,0,0,0,0,0,0,0,0],"split_type":[0,0,0,0,0,0,0,0,0,0,0,0,0],"sum_hessian":[4.8344E4,8.865E3,3.9479E4,1.89E2,8.676E3,3.3944E4,5.535E3,3.639E3,5.037E3,1.8255E4,1.5689E4,2.152E3,3.383E3],"tree_param":{"num_deleted":"0","num_feature":"2","num_nodes":"13","size_leaf_vector":"1"}},{"base_weights":[3.0202665E-3,1.2285965E-2,-1.2759838E-2,-7.251115E-3,6.013274E-2,-5.905838E-2,-8.924991E-3,-1.918665E-3,2.930735E-4,1.4889599E-2,3.3960657E-3,-5.7487194E-3,-1.7047103E-2,4.473217E-3,-1.719479E-3],"categories":[],"categories_nodes":[],"categories_segments":[],"categories_sizes":[],"default_left":[0,0,0,0,0,0,0,0,0,0,0,0,0,0,0],"id":58,"left_children":[1,3,5,7,9,11,13,-1,-1,-1,-1,-1,-1,-1,-1],"loss_changes":[7.0510664E0,2.8455818E1,3.1229725E0,1.6446267E0,1.6830109E1,1.2640371E0,3.4025307E0,0E0,0E0,0E0,0E0,0E0,0E0,0E0,0E0],"parents":[2147483647,0,0,1,1,2,2,3,3,4,4,5,5,6,6],"right_children":[2,4,6,8,10,12,14,-1,-1,-1,-1,-1,-1,-1,-1],"split_conditions":[2.82E2,4E0,3.27E2,-3.89E2,1.1E2,3.2E2,3.81E2,-1.918665E-3,2.930735E-4,1.4889599E-2,3.3960657E-3,-5.7487194E-3,-1.7047103E-2,4.473217E-3,-1.719479E-3],"split_indices":[0,0,0,0,0,0,0,0,0,0,0,0,0,0,0],"split_type":[0,0,0,0,0,0,0,0,0,0,0,0,0,0,0],"sum_hessian":[4.8218E4,3.0403E4,1.7815E4,2.1582E4,8.821E3,1.347E3,1.6468E4,1.1836E4,9.746E3,3.218E3,5.603E3,1.154E3,1.93E2,1.558E3,1.491E4],"tree_param":{"num_deleted":"0","num_feature":"2","num_nodes":"15","size_leaf_vector":"1"}},{"base_weights":[1.6748864E-3,4.4233613E-3,-2.3711003E-2,-1.3659208E-3,1.4312363E-2,-5.8437366E-2,-1.0243483E-2,4.2768678E-4,-7.3430277E-3,1.6379775E-2,7.446491E-5,-5.6877052E-3,-8.470629E-3,7.029753E-3,-2.3692185E-3],"categories":[],"categories_nodes":[],"categories_segments":[],"categories_sizes":[],"default_left":[0,0,0,0,0,0,0,0,0,0,0,0,0,0,0],"id":59,"left_children":[1,3,5,7,9,11,13,-1,-1,-1,-1,-1,-1,-1,-1],"loss_changes":[3.365949E0,2.508642E0,2.1603882E0,7.445572E0,2.5499592E1,7.4430466E-2,1.8906623E0,0E0,0E0,0E0,0E0,0E0,0E0,0E0,0E0],"parents":[2147483647,0,0,1,1,2,2,3,3,4,4,5,5,6,6],"right_children":[2,4,6,8,10,12,14,-1,-1,-1,-1,-1,-1,-1,-1],"split_conditions":[9.12E2,1.86E2,1.037E3,1.21E2,2.36E2,9.54E2,1.236E3,4.2768678E-4,-7.3430277E-3,1.6379775E-2,7.446491E-5,-5.6877052E-3,-8.470629E-3,7.029753E-3,-2.3692185E-3],"split_indices":[0,0,0,0,0,0,0,0,0,0,0,0,0,0,0],"split_type":[0,0,0,0,0,0,0,0,0,0,0,0,0,0,0],"sum_hessian":[4.8389E4,4.3685E4,4.704E3,2.752E4,1.6165E4,1.299E3,3.405E3,2.5388E4,2.132E3,1.712E3,1.4453E4,5.41E2,7.58E2,3.79E2,3.026E3],"tree_param":{"num_deleted":"0","num_feature":"2","num_nodes":"15","size_leaf_vector":"1"}},{"base_weights":[2.0582303E-3,-1.2421592E-2,1.0601288E-2,-6.39461E-3,-2.2227433E-2,9.242983E-2,9.048388E-3,-1.2876585E-3,3.4736067E-3,-1.1373953E-2,-1.9970022E-3,3.3098392E-3,1.5938366E-2,1.0658161E-4,2.0239996E-3],"categories":[],"categories_nodes":[],"categories_segments":[],"categories_sizes":[],"default_left":[0,0,0,0,0,0,0,0,0,0,0,0,0,0,0],"id":60,"left_children":[1,3,5,7,9,11,13,-1,-1,-1,-1,-1,-1,-1,-1],"loss_changes":[5.974043E0,1.0409846E0,3.8023307E0,1.4200234E0,2.8861141E0,1.1462159E0,1.6953671E0,0E0,0E0,0E0,0E0,0E0,0E0,0E0,0E0],"parents":[2147483647,0,0,1,1,2,2,3,3,4,4,5,5,6,6],"right_children":[2,4,6,8,10,12,14,-1,-1,-1,-1,-1,-1,-1,-1],"split_conditions":[-2.674E-1,-5.271E-1,-2.486E-1,-5.794E-1,-5.015E-1,-2.61E-1,1.644E-1,-1.2876585E-3,3.4736067E-3,-1.1373953E-2,-1.9970022E-3,3.3098392E-3,1.5938366E-2,1.0658161E-4,2.0239996E-3],"split_indices":[1,1,1,1,1,1,1,0,0,0,0,0,0,0,0],"split_type":[0,0,0,0,0,0,0,0,0,0,0,0,0,0,0],"sum_hessian":[4.8294E4,1.7895E4,3.0399E4,1.1123E4,6.772E3,5.55E2,2.9844E4,1.0021E4,1.102E3,5.75E2,6.197E3,1.95E2,3.6E2,1.3738E4,1.6106E4],"tree_param":{"num_deleted":"0","num_feature":"2","num_nodes":"15","size_leaf_vector":"1"}},{"base_weights":[-1.632805E-3,-8.742361E-3,1.685681E-2,-8.302774E-3,-9.924687E-3,2.1476049E-2,-3.156595E-2,-5.576269E-3,-9.452207E-4,2.3270294E-3,5.0291894E-3,-5.9143687E-3,-0E0],"categories":[],"categories_nodes":[],"categories_segments":[],"categories_sizes":[],"default_left":[0,0,0,0,0,0,0,0,0,0,0,0,0],"id":61,"left_children":[1,3,5,7,-1,9,11,-1,-1,-1,-1,-1,-1],"loss_changes":[6.3435698E0,1.0183909E0,2.9919784E0,9.954803E-1,0E0,6.5146303E-1,5.521109E-1,0E0,0E0,0E0,0E0,0E0,0E0],"parents":[2147483647,0,0,1,1,2,2,3,3,5,5,6,6],"right_children":[2,4,6,8,-1,10,12,-1,-1,-1,-1,-1,-1],"split_conditions":[2.458E-1,2.396E-1,8.793E-1,-1.5449E0,-9.924687E-3,7.036E-1,1.0444E0,-5.576269E-3,-9.452207E-4,2.3270294E-3,5.0291894E-3,-5.9143687E-3,-0E0],"split_indices":[1,1,1,1,0,1,1,0,0,0,0,0,0],"split_type":[0,0,0,0,0,0,0,0,0,0,0,0,0],"sum_hessian":[4.8284E4,3.4898E4,1.3386E4,3.4692E4,2.06E2,1.2233E4,1.153E3,7.62E2,3.393E4,1.051E4,1.723E3,7.75E2,3.78E2],"tree_param":{"num_deleted":"0","num_feature":"2","num_nodes":"13","size_leaf_vector":"1"}},{"base_weights":[-1.3975392E-3,-3.0359395E-3,5.520629E-3,-1.7057959E-3,-4.6545617E-2,3.0478416E-2,-7.750179E-3,-3.5687012E-4,2.4409378E-3,-1.0911645E-2,-3.1485637E-3,2.4433993E-3,8.419272E-3,-4.3793395E-3,5.304859E-4],"categories":[],"categories_nodes":[],"categories_segments":[],"categories_sizes":[],"default_left":[0,0,0,0,0,0,0,0,0,0,0,0,0,0,0],"id":62,"left_children":[1,3,5,7,9,11,13,-1,-1,-1,-1,-1,-1,-1,-1],"loss_changes":[5.453278E-1,2.2330441E0,3.0510495E0,8.810406E-1,9.1439795E-1,1.2344401E0,1.9373448E0,0E0,0E0,0E0,0E0,0E0,0E0,0E0,0E0],"parents":[2147483647,0,0,1,1,2,2,3,3,4,4,5,5,6,6],"right_children":[2,4,6,8,10,12,14,-1,-1,-1,-1,-1,-1,-1,-1],"split_conditions":[3.849E-1,3.442E-1,5.159E-1,2.812E-1,3.573E-1,4.822E-1,6.168E-1,-3.5687012E-4,2.4409378E-3,-1.0911645E-2,-3.1485637E-3,2.4433993E-3,8.419272E-3,-4.3793395E-3,5.304859E-4],"split_indices":[1,1,1,1,1,1,1,0,0,0,0,0,0,0,0],"split_type":[0,0,0,0,0,0,0,0,0,0,0,0,0,0,0],"sum_hessian":[4.8226E4,3.906E4,9.166E3,3.7918E4,1.142E3,3.195E3,5.971E3,3.6033E4,1.885E3,3.89E2,7.53E2,2.458E3,7.37E2,1.849E3,4.122E3],"tree_param":{"num_deleted":"0","num_feature":"2","num_nodes":"15","size_leaf_vector":"1"}},{"base_weights":[-3.121463E-3,-4.9838033E-3,1.6564861E-2,-4.219437E-3,-3.4169927E-2,3.2930803E-2,-6.492518E-3,-6.587927E-4,4.988285E-3,-3.3031527E-3,-8.810664E-3,3.6765889E-3,9.505891E-3,-4.364129E-3,3.598447E-3],"categories":[],"categories_nodes":[],"categories_segments":[],"categories_sizes":[],"default_left":[0,0,0,0,0,0,0,0,0,0,0,0,0,0,0],"id":63,"left_children":[1,3,5,7,9,11,13,-1,-1,-1,-1,-1,-1,-1,-1],"loss_changes":[1.7561159E0,9.5796394E-1,1.5739747E0,1.8372427E0,2.530762E-1,3.272469E-1,1.675884E0,0E0,0E0,0E0,0E0,0E0,0E0,0E0,0E0],"parents":[2147483647,0,0,1,1,2,2,3,3,4,4,5,5,6,6],"right_children":[2,4,6,8,10,12,14,-1,-1,-1,-1,-1,-1,-1,-1],"split_conditions":[6.168E-1,5.538E-1,8.059E-1,5.079E-1,6.056E-1,7.863E-1,9.487E-1,-6.587927E-4,4.988285E-3,-3.3031527E-3,-8.810664E-3,3.6765889E-3,9.505891E-3,-4.364129E-3,3.598447E-3],"split_indices":[1,1,1,1,1,1,1,0,0,0,0,0,0,0,0],"split_type":[0,0,0,0,0,0,0,0,0,0,0,0,0,0,0],"sum_hessian":[4.8066E4,4.3941E4,4.125E3,4.2843E4,1.098E3,2.426E3,1.699E3,4.1908E4,9.35E2,9.14E2,1.84E2,2.242E3,1.84E2,9.52E2,7.47E2],"tree_param":{"num_deleted":"0","num_feature":"2","num_nodes":"15","size_leaf_vector":"1"}},{"base_weights":[-2.301983E-3,3.5837444E-4,-2.682324E-2,-9.311837E-3,1.5281068E-2,-3.1419557E-2,5.237634E-3,-3.5865756E-4,-1.6095558E-2,1.0731984E-2,3.9167856E-4,-6.5953624E-3,-3.3785906E-3,2.8099967E-3,-3.4833683E-3],"categories":[],"categories_nodes":[],"categories_segments":[],"categories_sizes":[],"default_left":[0,0,0,0,0,0,0,0,0,0,0,0,0,0,0],"id":64,"left_children":[1,3,5,7,9,11,13,-1,-1,-1,-1,-1,-1,-1,-1],"loss_changes":[3.1590996E0,6.2756214E0,7.137375E-1,2.0058464E1,1.4462445E1,3.5483742E-1,3.2363763E-1,0E0,0E0,0E0,0E0,0E0,0E0,0E0,0E0],"parents":[2147483647,0,0,1,1,2,2,3,3,4,4,5,5,6,6],"right_children":[2,4,6,8,10,12,14,-1,-1,-1,-1,-1,-1,-1,-1],"split_conditions":[9.12E2,1.58E2,3.927E3,1.15E2,2.36E2,9.69E2,4.601E3,-3.5865756E-4,-1.6095558E-2,1.0731984E-2,3.9167856E-4,-6.5953624E-3,-3.3785906E-3,2.8099967E-3,-3.4833683E-3],"split_indices":[0,0,0,0,0,0,0,0,0,0,0,0,0,0,0],"split_type":[0,0,0,0,0,0,0,0,0,0,0,0,0,0,0],"sum_hessian":[4.8191E4,4.3457E4,4.734E3,2.6347E4,1.711E4,4.156E3,5.78E2,2.4985E4,1.362E3,2.538E3,1.4572E4,7.37E2,3.419E3,3.93E2,1.85E2],"tree_param":{"num_deleted":"0","num_feature":"2","num_nodes":"15","size_leaf_vector":"1"}},{"base_weights":[1.7134914E-3,1.2185846E-3,7.772387E-3,-4.7166133E-3,5.413244E-3,-3.418375E-5,-4.2877863E-3,5.6407154E-3,-4.556556E-4],"categories":[],"categories_nodes":[],"categories_segments":[],"categories_sizes":[],"default_left":[0,0,0,0,0,0,0,0,0],"id":65,"left_children":[1,3,-1,5,7,-1,-1,-1,-1],"loss_changes":[1.3992912E0,1.1989222E0,0E0,2.5614302E0,1.001561E1,0E0,0E0,0E0,0E0],"parents":[2147483647,0,0,1,1,3,3,4,4],"right_children":[2,4,-1,6,8,-1,-1,-1,-1],"split_conditions":[4.24E3,-5.7E1,7.772387E-3,-1.47E2,1.15E2,-3.418375E-5,-4.2877863E-3,5.6407154E-3,-4.556556E-4],"split_indices":[0,0,0,0,0,0,0,0,0],"split_type":[0,0,0,0,0,0,0,0,0],"sum_hessian":[4.8518E4,4.8133E4,3.85E2,1.9875E4,2.8258E4,1.7269E4,2.606E3,5.293E3,2.2965E4],"tree_param":{"num_deleted":"0","num_feature":"2","num_nodes":"9","size_leaf_vector":"1"}},{"base_weights":[1.6959944E-3,-1.0121281E-2,1.1338821E-2,-1.9383451E-2,-5.9281047E-3,8.023034E-2,4.189058E-3,2.7572384E-4,-4.1699028E-3,1.2883898E-3,-1.4598555E-3,5.5415434E-4,1.4285966E-2,-7.3174397E-3,1.6596004E-3],"categories":[],"categories_nodes":[],"categories_segments":[],"categories_sizes":[],"default_left":[0,0,0,0,0,0,0,0,0,0,0,0,0,0,0],"id":66,"left_children":[1,3,5,7,9,11,13,-1,-1,-1,-1,-1,-1,-1,-1],"loss_changes":[5.516534E0,8.2886624E-1,1.3092595E1,1.990514E0,1.3601716E0,6.1481133E0,1.3395469E1,0E0,0E0,0E0,0E0,0E0,0E0,0E0,0E0],"parents":[2147483647,0,0,1,1,2,2,3,3,4,4,5,5,6,6],"right_children":[2,4,6,8,10,12,14,-1,-1,-1,-1,-1,-1,-1,-1],"split_conditions":[4E0,-7.46E2,8.5E1,-1.822E3,-4.67E2,2.8E1,1.8E2,2.7572384E-4,-4.1699028E-3,1.2883898E-3,-1.4598555E-3,5.5415434E-4,1.4285966E-2,-7.3174397E-3,1.6596004E-3],"split_indices":[0,0,0,0,0,0,0,0,0,0,0,0,0,0,0],"split_type":[0,0,0,0,0,0,0,0,0,0,0,0,0,0,0],"sum_hessian":[4.8397E4,2.172E4,2.6677E4,6.722E3,1.4998E4,2.497E3,2.418E4,2.585E3,4.137E3,3.85E3,1.1148E4,7.6E2,1.737E3,3.033E3,2.1147E4],"tree_param":{"num_deleted":"0","num_feature":"2","num_nodes":"15","size_leaf_vector":"1"}},{"base_weights":[-1.89828E-3,-2.4472433E-3,6.496109E-2,2.1336756E-3,-1.0026836E-2,1.0076441E-2,5.843513E-3,-9.029201E-4,1.2461739E-2,-4.7106105E-3,-7.684883E-4],"categories":[],"categories_nodes":[],"categories_segments":[],"categories_sizes":[],"default_left":[0,0,0,0,0,0,0,0,0,0,0],"id":67,"left_children":[1,3,5,7,9,-1,-1,-1,-1,-1,-1],"loss_changes":[1.7374933E0,1.6680443E0,2.0118952E-2,2.6728987E1,1.9200752E0,0E0,0E0,0E0,0E0,0E0,0E0],"parents":[2147483647,0,0,1,1,2,2,3,3,4,4],"right_children":[2,4,6,8,10,-1,-1,-1,-1,-1,-1],"split_conditions":[4.24E3,2.57E2,4.601E3,1.8E2,3.33E2,1.0076441E-2,5.843513E-3,-9.029201E-4,1.2461739E-2,-4.7106105E-3,-7.684883E-4],"split_indices":[0,0,0,0,0,0,0,0,0,0,0],"split_type":[0,0,0,0,0,0,0,0,0,0,0],"sum_hessian":[4.8286E4,4.7905E4,3.81E2,2.9814E4,1.8091E4,1.89E2,1.92E2,2.7196E4,2.618E3,2.268E3,1.5823E4],"tree_param":{"num_deleted":"0","num_feature":"2","num_nodes":"11","size_leaf_vector":"1"}},{"base_weights":[-2.1589976E-3,-1.0267441E-2,8.3678495E-3,-5.463915E-3,-5.2840654E-2,1.2551895E-1,2.155264E-4,-1.4679789E-3,6.192003E-3,-1.0888827E-2,-2.876671E-3,1.1848852E-2,2.5446966E-2,3.1722034E-3,-9.965181E-4],"categories":[],"categories_nodes":[],"categories_segments":[],"categories_sizes":[],"default_left":[0,0,0,0,0,0,0,0,0,0,0,0,0,0,0],"id":68,"left_children":[1,3,5,7,9,11,13,-1,-1,-1,-1,-1,-1,-1,-1],"loss_changes":[4.088111E0,5.5031915E0,1.979732E1,8.131026E0,2.6676369E0,3.0068722E0,3.9307072E0,0E0,0E0,0E0,0E0,0E0,0E0,0E0,0E0],"parents":[2147483647,0,0,1,1,2,2,3,3,4,4,5,5,6,6],"right_children":[2,4,6,8,10,12,14,-1,-1,-1,-1,-1,-1,-1,-1],"split_conditions":[1.91E2,1.04E2,2.3E2,2.2E1,1.45E2,2.19E2,3.88E2,-1.4679789E-3,6.192003E-3,-1.0888827E-2,-2.876671E-3,1.1848852E-2,2.5446966E-2,3.1722034E-3,-9.965181E-4],"split_indices":[0,0,0,0,0,0,0,0,0,0,0,0,0,0,0],"split_type":[0,0,0,0,0,0,0,0,0,0,0,0,0,0,0],"sum_hessian":[4.7874E4,2.7074E4,2.08E4,2.4345E4,2.729E3,1.345E3,1.9455E4,2.1887E4,2.458E3,1.283E3,1.446E3,9.59E2,3.86E2,4.793E3,1.4662E4],"tree_param":{"num_deleted":"0","num_feature":"2","num_nodes":"15","size_leaf_vector":"1"}},{"base_weights":[-2.5522982E-4,7.2944383E-3,-1.2488816E-2,2.4806368E-4,8.082839E-2,-7.1001336E-2,-9.243927E-3,7.4681727E-4,-7.824423E-3,1.3695046E-2,3.947802E-3,-4.214516E-3,-1.606057E-2,-1.3662493E-3,7.3232553E-3],"categories":[],"categories_nodes":[],"categories_segments":[],"categories_sizes":[],"default_left":[0,0,0,0,0,0,0,0,0,0,0,0,0,0,0],"id":69,"left_children":[1,3,5,7,9,11,13,-1,-1,-1,-1,-1,-1,-1,-1],"loss_changes":[4.458367E0,1.5395652E1,3.4525235E0,9.537588E0,3.452404E0,1.916069E0,1.8115437E0,0E0,0E0,0E0,0E0,0E0,0E0,0E0,0E0],"parents":[2147483647,0,0,1,1,2,2,3,3,4,4,5,5,6,6],"right_children":[2,4,6,8,10,12,14,-1,-1,-1,-1,-1,-1,-1,-1],"split_conditions":[2.63E2,1.86E2,2.94E2,1.15E2,2.36E2,2.82E2,4.24E3,7.4681727E-4,-7.824423E-3,1.3695046E-2,3.947802E-3,-4.214516E-3,-1.606057E-2,-1.3662493E-3,7.3232553E-3],"split_indices":[0,0,0,0,0,0,0,0,0,0,0,0,0,0,0],"split_type":[0,0,0,0,0,0,0,0,0,0,0,0,0,0,0],"sum_hessian":[4.8232E4,2.9798E4,1.8434E4,2.7203E4,2.595E3,9.55E2,1.7479E4,2.4944E4,2.259E3,1.659E3,9.36E2,5.81E2,3.74E2,1.7093E4,3.86E2],"tree_param":{"num_deleted":"0","num_feature":"2","num_nodes":"15","size_leaf_vector":"1"}},{"base_weights":[1.4840718E-5,-1.2021598E-2,2.2194472E-3,-2.8872056E-4,-2.4239192E-2,4.5512533E-3,-1.1643805E-2,-5.076043E-4,8.056516E-3,-1.3611718E-2,-2.3642213E-3,4.5661454E-4,5.959507E-3,-1.464234E-2,-4.96545E-4],"categories":[],"categories_nodes":[],"categories_segments":[],"categories_sizes":[],"default_left":[0,0,0,0,0,0,0,0,0,0,0,0,0,0,0],"id":70,"left_children":[1,3,5,7,9,11,13,-1,-1,-1,-1,-1,-1,-1,-1],"loss_changes":[1.2755392E0,1.0516691E0,1.3165499E0,8.783524E-1,1.5917752E0,1.3708018E0,4.6302094E0,0E0,0E0,0E0,0E0,0E0,0E0,0E0,0E0],"parents":[2147483647,0,0,1,1,2,2,3,3,4,4,5,5,6,6],"right_children":[2,4,6,8,10,12,14,-1,-1,-1,-1,-1,-1,-1,-1],"split_conditions":[-7.23E-1,-1.0056E0,5.252E-1,-1.0243E0,-9.869E-1,4.908E-1,5.44E-1,-5.076043E-4,8.056516E-3,-1.3611718E-2,-2.3642213E-3,4.5661454E-4,5.959507E-3,-1.464234E-2,-4.96545E-4],"split_indices":[1,1,1,1,1,1,1,0,0,0,0,0,0,0,0],"split_type":[0,0,0,0,0,0,0,0,0,0,0,0,0,0,0],"sum_hessian":[4.8271E4,7.43E3,4.0841E4,3.816E3,3.614E3,3.4998E4,5.843E3,3.618E3,1.98E2,2.14E2,3.4E3,3.426E4,7.38E2,3.94E2,5.449E3],"tree_param":{"num_deleted":"0","num_feature":"2","num_nodes":"15","size_leaf_vector":"1"}},{"base_weights":[1.7579547E-3,-2.7684265E-4,2.3023868E-2,8.830152E-4,-4.6253316E-2,2.9332353E-2,-3.4357063E-2,-3.7103734E-4,1.2767335E-3,-6.930161E-3,-0E0,9.99693E-3,2.9529857E-3,-9.797652E-3,8.2338677E-4],"categories":[],"categories_nodes":[],"categories_segments":[],"categories_sizes":[],"default_left":[0,0,0,0,0,0,0,0,0,0,0,0,0,0,0],"id":71,"left_children":[1,3,5,7,9,11,13,-1,-1,-1,-1,-1,-1,-1,-1],"loss_changes":[2.102294E0,2.3748145E0,1.5363276E0,1.515637E0,4.078641E-1,1.0731566E0,7.705612E-1,0E0,0E0,0E0,0E0,0E0,0E0,0E0,0E0],"parents":[2147483647,0,0,1,1,2,2,3,3,4,4,5,5,6,6],"right_children":[2,4,6,8,10,12,14,-1,-1,-1,-1,-1,-1,-1,-1],"split_conditions":[6.168E-1,5.538E-1,1.0444E0,1.083E-1,6.056E-1,6.39E-1,1.1337E0,-3.7103734E-4,1.2767335E-3,-6.930161E-3,-0E0,9.99693E-3,2.9529857E-3,-9.797652E-3,8.2338677E-4],"split_indices":[1,1,1,1,1,1,1,0,0,0,0,0,0,0,0],"split_type":[0,0,0,0,0,0,0,0,0,0,0,0,0,0,0],"sum_hessian":[4.828E4,4.4043E4,4.237E3,4.2951E4,1.092E3,3.828E3,4.09E2,3.0328E4,1.2623E4,9.12E2,1.8E2,3.95E2,3.433E3,2.04E2,2.05E2],"tree_param":{"num_deleted":"0","num_feature":"2","num_nodes":"15","size_leaf_vector":"1"}},{"base_weights":[-9.90901E-4,-1.9102048E-3,3.0969096E-2,-1.5693998E-4,-3.5369772E-2,3.8786322E-2,-1.5334743E-3,-1.9324616E-4,5.417465E-3,-8.710987E-3,-4.1481873E-4,2.605594E-3,1.6359132E-2],"categories":[],"categories_nodes":[],"categories_segments":[],"categories_sizes":[],"default_left":[0,0,0,0,0,0,0,0,0,0,0,0,0],"id":72,"left_children":[1,3,5,7,9,11,-1,-1,-1,-1,-1,-1,-1],"loss_changes":[1.4055157E0,2.7404814E0,4.6713674E-1,2.616013E0,2.4621043E0,1.7866114E0,0E0,0E0,0E0,0E0,0E0,0E0,0E0],"parents":[2147483647,0,0,1,1,2,2,3,3,4,4,5,5],"right_children":[2,4,6,8,10,12,-1,-1,-1,-1,-1,-1,-1],"split_conditions":[8.54E-1,6.514E-1,1.1337E0,5.738E-1,7.35E-1,1.0444E0,-1.5334743E-3,-1.9324616E-4,5.417465E-3,-8.710987E-3,-4.1481873E-4,2.605594E-3,1.6359132E-2],"split_indices":[1,1,1,1,1,1,0,0,0,0,0,0,0],"split_type":[0,0,0,0,0,0,0,0,0,0,0,0,0],"sum_hessian":[4.8388E4,4.7056E4,1.332E3,4.4733E4,2.323E3,1.139E3,1.93E2,4.3367E4,1.366E3,1.125E3,1.198E3,9.58E2,1.81E2],"tree_param":{"num_deleted":"0","num_feature":"2","num_nodes":"13","size_leaf_vector":"1"}},{"base_weights":[2.3651407E-3,-4.353105E-2,3.0940205E-3,-0E0,-8.639554E-2,1.083092E-2,4.261124E-5,-2.2230894E-4,-0E0,-6.686106E-3,-1.4690088E-2,1.0390059E-3,8.578029E-3,-1.9946084E-3,5.9734174E-4],"categories":[],"categories_nodes":[],"categories_segments":[],"categories_sizes":[],"default_left":[0,0,0,0,0,0,0,0,0,0,0,0,0,0,0],"id":73,"left_children":[1,3,5,7,9,11,13,-1,-1,-1,-1,-1,-1,-1,-1],"loss_changes":[1.5908391E0,1.3480986E0,1.1149335E0,5.6272297E-4,2.4792099E-1,1.9474244E0,2.5210018E0,0E0,0E0,0E0,0E0,0E0,0E0,0E0,0E0],"parents":[2147483647,0,0,1,1,2,2,3,3,4,4,5,5,6,6],"right_children":[2,4,6,8,10,12,14,-1,-1,-1,-1,-1,-1,-1,-1],"split_conditions":[-1.5449E0,-1.7177E0,-4.001E-1,-1.8967E0,-1.619E0,-4.215E-1,-1.407E-1,-2.2230894E-4,-0E0,-6.686106E-3,-1.4690088E-2,1.0390059E-3,8.578029E-3,-1.9946084E-3,5.9734174E-4],"split_indices":[1,1,1,1,1,1,1,0,0,0,0,0,0,0,0],"split_type":[0,0,0,0,0,0,0,0,0,0,0,0,0,0,0],"sum_hessian":[4.8222E4,7.38E2,4.7484E4,3.73E2,3.65E2,1.3375E4,3.4109E4,1.78E2,1.95E2,1.86E2,1.79E2,1.2803E4,5.72E2,7.76E3,2.6349E4],"tree_param":{"num_deleted":"0","num_feature":"2","num_nodes":"15","size_leaf_vector":"1"}},{"base_weights":[3.2283382E-3,-1.3374388E-3,1.224559E-2,-1.5981929E-4,-6.5586284E-2,2.9470498E-2,4.8213312E-3,-1.388614E-4,6.391771E-3,-1.5892984E-2,-4.0907376E-3,3.2043443E-3,1.5840415E-2,-3.296149E-4,2.037017E-3],"categories":[],"categories_nodes":[],"categories_segments":[],"categories_sizes":[],"default_left":[0,0,0,0,0,0,0,0,0,0,0,0,0,0,0],"id":74,"left_children":[1,3,5,7,9,11,13,-1,-1,-1,-1,-1,-1,-1,-1],"loss_changes":[1.9887204E0,2.3782709E0,2.0552073E0,1.4652727E0,1.0247579E0,1.8238435E0,9.614137E-1,0E0,0E0,0E0,0E0,0E0,0E0,0E0,0E0],"parents":[2147483647,0,0,1,1,2,2,3,3,4,4,5,5,6,6],"right_children":[2,4,6,8,10,12,14,-1,-1,-1,-1,-1,-1,-1,-1],"split_conditions":[1.583E-1,1.415E-1,3.126E-1,1.255E-1,1.466E-1,3.064E-1,5.956E-1,-1.388614E-4,6.391771E-3,-1.5892984E-2,-4.0907376E-3,3.2043443E-3,1.5840415E-2,-3.296149E-4,2.037017E-3],"split_indices":[1,1,1,1,1,1,1,0,0,0,0,0,0,0,0],"split_type":[0,0,0,0,0,0,0,0,0,0,0,0,0,0,0],"sum_hessian":[4.8148E4,3.1924E4,1.6224E4,3.1362E4,5.62E2,4.86E3,1.1364E4,3.0807E4,5.55E2,1.9E2,3.72E2,4.67E3,1.9E2,6.826E3,4.538E3],"tree_param":{"num_deleted":"0","num_feature":"2","num_nodes":"15","size_leaf_vector":"1"}},{"base_weights":[-7.134698E-4,-6.5656733E-3,8.779219E-3,-2.6288567E-2,-3.8502354E-3,2.3263866E-2,-7.996822E-4,-5.191147E-4,-4.2425096E-3,-2.3929626E-4,-3.9557815E-3,2.2005192E-3,9.445801E-3,3.9920968E-4,-4.6553016E-3],"categories":[],"categories_nodes":[],"categories_segments":[],"categories_sizes":[],"default_left":[0,0,0,0,0,0,0,0,0,0,0,0,0,0,0],"id":75,"left_children":[1,3,5,7,9,11,13,-1,-1,-1,-1,-1,-1,-1,-1],"loss_changes":[2.6846306E0,1.5862573E0,2.5660653E0,5.582824E-1,1.3962954E0,2.1573522E0,1.5959464E0,0E0,0E0,0E0,0E0,0E0,0E0,0E0,0E0],"parents":[2147483647,0,0,1,1,2,2,3,3,4,4,5,5,6,6],"right_children":[2,4,6,8,10,12,14,-1,-1,-1,-1,-1,-1,-1,-1],"split_conditions":[9.73E-2,-1.0243E0,3.252E-1,-1.4825E0,4.91E-2,3.002E-1,8.793E-1,-5.191147E-4,-4.2425096E-3,-2.3929626E-4,-3.9557815E-3,2.2005192E-3,9.445801E-3,3.9920968E-4,-4.6553016E-3],"split_indices":[1,1,1,1,1,1,1,0,0,0,0,0,0,0,0],"split_type":[0,0,0,0,0,0,0,0,0,0,0,0,0,0,0],"sum_hessian":[4.834E4,2.9942E4,1.8398E4,3.594E3,2.6348E4,7.345E3,1.1053E4,9.08E2,2.686E3,2.4617E4,1.731E3,6.609E3,7.36E2,9.948E3,1.105E3],"tree_param":{"num_deleted":"0","num_feature":"2","num_nodes":"15","size_leaf_vector":"1"}},{"base_weights":[7.5111096E-4,-1.0562071E-2,4.897161E-3,3.456298E-3,-2.1798389E-2,5.7971317E-2,2.7982884E-3,1.7467252E-3,-1.9345904E-4,-1.199774E-2,-2.4786447E-3,5.140735E-3,9.916325E-3,-1.1669723E-2,4.8967573E-4],"categories":[],"categories_nodes":[],"categories_segments":[],"categories_sizes":[],"default_left":[0,0,0,0,0,0,0,0,0,0,0,0,0,0,0],"id":76,"left_children":[1,3,5,7,9,11,13,-1,-1,-1,-1,-1,-1,-1,-1],"loss_changes":[2.274879E0,2.0566845E0,3.928156E0,3.0465034E-1,1.0865612E0,3.9534998E-1,3.4521897E0,0E0,0E0,0E0,0E0,0E0,0E0,0E0,0E0],"parents":[2147483647,0,0,1,1,2,2,3,3,4,4,5,5,6,6],"right_children":[2,4,6,8,10,12,14,-1,-1,-1,-1,-1,-1,-1,-1],"split_conditions":[-4.523E-1,-8.41E-1,-4.001E-1,-1.2615E0,-8.263E-1,-4.215E-1,-3.857E-1,1.7467252E-3,-1.9345904E-4,-1.199774E-2,-2.4786447E-3,5.140735E-3,9.916325E-3,-1.1669723E-2,4.8967573E-4],"split_indices":[1,1,1,1,1,1,1,0,0,0,0,0,0,0,0],"split_type":[0,0,0,0,0,0,0,0,0,0,0,0,0,0,0],"sum_hessian":[4.856E4,1.2985E4,3.5575E4,5.756E3,7.229E3,1.339E3,3.4236E4,1.905E3,3.851E3,1.98E2,7.031E3,7.47E2,5.92E2,3.73E2,3.3863E4],"tree_param":{"num_deleted":"0","num_feature":"2","num_nodes":"15","size_leaf_vector":"1"}},{"base_weights":[-6.269536E-3,-4.358289E-4,-1.5121644E-2,-2.9932798E-3,7.730754E-2,-1.3744222E-1,-1.2456221E-2,-2.7030412E-4,-1.5343892E-2,1.6950656E-2,4.8285318E-3,-4.4600186E-3,-2.798521E-2,8.312367E-3,-1.7868652E-3],"categories":[],"categories_nodes":[],"categories_segments":[],"categories_sizes":[],"default_left":[0,0,0,0,0,0,0,0,0,0,0,0,0,0,0],"id":77,"left_children":[1,3,5,7,9,11,13,-1,-1,-1,-1,-1,-1,-1,-1],"loss_changes":[2.4889321E0,5.763951E0,6.1597033E0,2.791444E0,1.9312735E0,3.2866979E0,2.4383926E0,0E0,0E0,0E0,0E0,0E0,0E0,0E0,0E0],"parents":[2147483647,0,0,1,1,2,2,3,3,4,4,5,5,6,6],"right_children":[2,4,6,8,10,12,14,-1,-1,-1,-1,-1,-1,-1,-1],"split_conditions":[2.41E2,2.14E2,2.52E2,2.08E2,2.25E2,2.47E2,2.63E2,-2.7030412E-4,-1.5343892E-2,1.6950656E-2,4.8285318E-3,-4.4600186E-3,-2.798521E-2,8.312367E-3,-1.7868652E-3],"split_indices":[0,0,0,0,0,0,0,0,0,0,0,0,0,0,0],"split_type":[0,0,0,0,0,0,0,0,0,0,0,0,0,0,0],"sum_hessian":[4.8365E4,2.9194E4,1.9171E4,2.8275E4,9.19E2,4E2,1.8771E4,2.8081E4,1.94E2,3.65E2,5.54E2,1.86E2,2.14E2,3.84E2,1.8387E4],"tree_param":{"num_deleted":"0","num_feature":"2","num_nodes":"15","size_leaf_vector":"1"}},{"base_weights":[4.111782E-4,3.7504872E-3,-1.0927569E-2,-7.4549945E-4,9.405358E-3,-4.072031E-2,-1.2819677E-3,1.6504038E-5,-1.2622821E-2,3.9174766E-3,5.849952E-4,-1.4776801E-2,-4.3484527E-3,6.573527E-4,-2.6262116E-3],"categories":[],"categories_nodes":[],"categories_segments":[],"categories_sizes":[],"default_left":[0,0,0,0,0,0,0,0,0,0,0,0,0,0,0],"id":78,"left_children":[1,3,5,7,9,11,13,-1,-1,-1,-1,-1,-1,-1,-1],"loss_changes":[1.8189479E0,9.515455E-1,3.112537E0,1.8529347E0,1.6855043E0,1.1767368E0,1.0533497E0,0E0,0E0,0E0,0E0,0E0,0E0,0E0,0E0],"parents":[2147483647,0,0,1,1,2,2,3,3,4,4,5,5,6,6],"right_children":[2,4,6,8,10,12,14,-1,-1,-1,-1,-1,-1,-1,-1],"split_conditions":[3.252E-1,-1.818E-1,4.211E-1,-1.877E-1,-8.93E-2,3.316E-1,7.682E-1,1.6504038E-5,-1.2622821E-2,3.9174766E-3,5.849952E-4,-1.4776801E-2,-4.3484527E-3,6.573527E-4,-2.6262116E-3],"split_indices":[1,1,1,1,1,1,1,0,0,0,0,0,0,0,0],"split_type":[0,0,0,0,0,0,0,0,0,0,0,0,0,0,0],"sum_hessian":[4.8139E4,3.7228E4,1.0911E4,2.0685E4,1.6543E4,2.651E3,8.26E3,2.0502E4,1.83E2,2.973E3,1.357E4,1.91E2,2.46E3,6.179E3,2.081E3],"tree_param":{"num_deleted":"0","num_feature":"2","num_nodes":"15","size_leaf_vector":"1"}},{"base_weights":[9.502859E-4,-3.4229157E-3,4.749367E-3,3.3426574E-3,-9.064408E-3,2.8566072E-2,4.3741424E-4,-1.1757717E-4,4.102438E-3,-6.7936974E-3,-8.633864E-4,1.1037152E-3,7.7997474E-3,-1.0899148E-2,2.6057905E-4],"categories":[],"categories_nodes":[],"categories_segments":[],"categories_sizes":[],"default_left":[0,0,0,0,0,0,0,0,0,0,0,0,0,0,0],"id":79,"left_children":[1,3,5,7,9,11,13,-1,-1,-1,-1,-1,-1,-1,-1],"loss_changes":[8.0170333E-1,8.561206E-1,2.6399088E0,1.2761698E0,1.1851935E0,2.5503325E0,3.0379262E0,0E0,0E0,0E0,0E0,0E0,0E0,0E0,0E0],"parents":[2147483647,0,0,1,1,2,2,3,3,4,4,5,5,6,6],"right_children":[2,4,6,8,10,12,14,-1,-1,-1,-1,-1,-1,-1,-1],"split_conditions":[-1.235E-1,-5.703E-1,-5.6E-3,-6.364E-1,-5.433E-1,-4.96E-2,6.1E-3,-1.1757717E-4,4.102438E-3,-6.7936974E-3,-8.633864E-4,1.1037152E-3,7.7997474E-3,-1.0899148E-2,2.6057905E-4],"split_indices":[1,1,1,1,1,1,1,0,0,0,0,0,0,0,0],"split_type":[0,0,0,0,0,0,0,0,0,0,0,0,0,0,0],"sum_hessian":[4.8201E4,2.2338E4,2.5863E4,1.0112E4,1.2226E4,3.941E3,2.1922E4,8.804E3,1.308E3,5.66E2,1.166E4,2.479E3,1.462E3,3.93E2,2.1529E4],"tree_param":{"num_deleted":"0","num_feature":"2","num_nodes":"15","size_leaf_vector":"1"}},{"base_weights":[-1.8335569E-3,-1.2293897E-3,-2.6355918E-2,-3.096949E-3,6.9173374E-3,-4.492891E-2,-5.94372E-3,-2.7484293E-4,-8.002747E-3,8.237803E-3,1.3656598E-4,-3.162527E-3,-6.734625E-3,3.1920627E-3,-2.8371578E-3],"categories":[],"categories_nodes":[],"categories_segments":[],"categories_sizes":[],"default_left":[0,0,0,0,0,0,0,0,0,0,0,0,0,0,0],"id":80,"left_children":[1,3,5,7,9,11,13,-1,-1,-1,-1,-1,-1,-1,-1],"loss_changes":[6.9511396E-1,7.1083355E-1,3.9878517E-1,2.083617E0,2.914088E0,4.6043158E-2,2.878163E-1,0E0,0E0,0E0,0E0,0E0,0E0,0E0,0E0],"parents":[2147483647,0,0,1,1,2,2,3,3,4,4,5,5,6,6],"right_children":[2,4,6,8,10,12,14,-1,-1,-1,-1,-1,-1,-1,-1],"split_conditions":[8.793E-1,3.641E-1,9.895E-1,3.442E-1,3.924E-1,9.122E-1,1.0444E0,-2.7484293E-4,-8.002747E-3,8.237803E-3,1.3656598E-4,-3.162527E-3,-6.734625E-3,3.1920627E-3,-2.8371578E-3],"split_indices":[1,1,1,1,1,1,1,0,0,0,0,0,0,0,0],"split_type":[0,0,0,0,0,0,0,0,0,0,0,0,0,0,0],"sum_hessian":[4.7981E4,4.6854E4,1.127E3,3.8175E4,8.679E3,5.73E2,5.54E2,3.7612E4,5.63E2,7.78E2,7.901E3,1.94E2,3.79E2,1.79E2,3.75E2],"tree_param":{"num_deleted":"0","num_feature":"2","num_nodes":"15","size_leaf_vector":"1"}},{"base_weights":[2.7985708E-3,-8.088157E-3,1.199069E-2,-4.5030224E-3,-8.60088E-2,7.728738E-2,3.4462342E-3,-7.4606005E-4,2.1602549E-2,-2.005017E-2,-4.038953E-3,8.923099E-3,2.1522606E-2,-8.399204E-3,8.98504E-4],"categories":[],"categories_nodes":[],"categories_segments":[],"categories_sizes":[],"default_left":[0,0,0,0,0,0,0,0,0,0,0,0,0,0,0],"id":81,"left_children":[1,3,5,7,9,11,13,-1,-1,-1,-1,-1,-1,-1,-1],"loss_changes":[4.8345833E0,6.114893E0,1.4576234E1,5.089732E0,3.6544046E0,1.7006187E0,5.9010835E0,0E0,0E0,0E0,0E0,0E0,0E0,0E0,0E0],"parents":[2147483647,0,0,1,1,2,2,3,3,4,4,5,5,6,6],"right_children":[2,4,6,8,10,12,14,-1,-1,-1,-1,-1,-1,-1,-1],"split_conditions":[1.7E1,-1.6E1,1.15E2,-2.1E1,-2E0,1.1E2,1.51E2,-7.4606005E-4,2.1602549E-2,-2.005017E-2,-4.038953E-3,8.923099E-3,2.1522606E-2,-8.399204E-3,8.98504E-4],"split_indices":[0,0,0,0,0,0,0,0,0,0,0,0,0,0,0],"split_type":[0,0,0,0,0,0,0,0,0,0,0,0,0,0,0],"sum_hessian":[4.8281E4,2.2075E4,2.6206E4,2.1115E4,9.6E2,3.021E3,2.3185E4,2.0955E4,1.6E2,4.02E2,5.58E2,2.83E3,1.91E2,1.143E3,2.2042E4],"tree_param":{"num_deleted":"0","num_feature":"2","num_nodes":"15","size_leaf_vector":"1"}},{"base_weights":[-1.4510216E-3,-2.6264095E-3,1.589699E-2,3.201594E-5,-1.5139657E-2,4.49985E-2,-6.96537E-4,-1.1695225E-4,5.826142E-3,-7.684203E-3,-1.4642016E-4,3.285904E-3,7.910246E-3,-2.8764345E-3,4.025108E-3],"categories":[],"categories_nodes":[],"categories_segments":[],"categories_sizes":[],"default_left":[0,0,0,0,0,0,0,0,0,0,0,0,0,0,0],"id":82,"left_children":[1,3,5,7,9,11,13,-1,-1,-1,-1,-1,-1,-1,-1],"loss_changes":[9.7789633E-1,1.5151203E0,1.4913753E0,1.6708215E0,5.052538E0,3.155756E-1,1.3791143E0,0E0,0E0,0E0,0E0,0E0,0E0,0E0,0E0],"parents":[2147483647,0,0,1,1,2,2,3,3,4,4,5,5,6,6],"right_children":[2,4,6,8,10,12,14,-1,-1,-1,-1,-1,-1,-1,-1],"split_conditions":[6.894E-1,3.19E-1,7.863E-1,2.939E-1,3.849E-1,7.35E-1,9.487E-1,-1.1695225E-4,5.826142E-3,-7.684203E-3,-1.4642016E-4,3.285904E-3,7.910246E-3,-2.8764345E-3,4.025108E-3],"split_indices":[1,1,1,1,1,1,1,0,0,0,0,0,0,0,0],"split_type":[0,0,0,0,0,0,0,0,0,0,0,0,0,0,0],"sum_hessian":[4.8316E4,4.5284E4,3.032E3,3.7315E4,7.969E3,1.111E3,1.921E3,3.6547E4,7.68E2,1.856E3,6.113E3,5.54E2,5.57E2,1.156E3,7.65E2],"tree_param":{"num_deleted":"0","num_feature":"2","num_nodes":"15","size_leaf_vector":"1"}}]},"name":"gbtree"},"learner_model_param":{"base_score":"-6.178862E-3","boost_from_average":"1","num_class":"0","num_feature":"2","num_target":"1"},"objective":{"name":"reg:squarederror","reg_loss_param":{"scale_pos_weight":"1"}}},"version":[2,1,1]}